{"learner":{"attributes":{"best_iteration":"99","best_ntree_limit":"100","scikit_learn":"{\"n_estimators\": 100, \"objective\": \"reg:squarederror\", \"max_depth\": null, \"max_leaves\": null, \"max_bin\": null, \"grow_policy\": null, \"learning_rate\": null, \"verbosity\": null, \"booster\": null, \"tree_method\": null, \"gamma\": null, \"min_child_weight\": null, \"max_delta_step\": null, \"subsample\": null, \"sampling_method\": null, \"colsample_bytree\": null, \"colsample_bylevel\": null, \"colsample_bynode\": null, \"reg_alpha\": null, \"reg_lambda\": null, \"scale_pos_weight\": null, \"base_score\": null, \"missing\": NaN, \"num_parallel_tree\": null, \"random_state\": 42, \"n_jobs\": null, \"monotone_constraints\": null, \"interaction_constraints\": null, \"importance_type\": null, \"gpu_id\": null, \"validate_parameters\": null, \"predictor\": null, \"enable_categorical\": false, \"max_cat_to_onehot\": null, \"eval_metric\": null, \"early_stopping_rounds\": null, \"callbacks\": null, \"_estimator_type\": \"regressor\"}"},"feature_names":["temperature","humidity","ph","rainfall","label"],"feature_types":["float","float","float","float","int"],"gradient_booster":{"model":{"gbtree_model_param":{"num_parallel_tree":"1","num_trees":"100","size_leaf_vector":"0"},"tree_info":[0,0,0,0,0,0,0,0,0,0,0,0,0,0,0,0,0,0,0,0,0,0,0,0,0,0,0,0,0,0,0,0,0,0,0,0,0,0,0,0,0,0,0,0,0,0,0,0,0,0,0,0,0,0,0,0,0,0,0,0,0,0,0,0,0,0,0,0,0,0,0,0,0,0,0,0,0,0,0,0,0,0,0,0,0,0,0,0,0,0,0,0,0,0,0,0,0,0,0,0],"trees":[{"base_weights":[4.7609314E1,1.9675E2,4.06731E1,6.2059032E1,3.0019981E1,3.7038055E1,1.973793E2,2.1398565E1,3.655712E1,7.837334E1,2.9175438E1,1.9173077E1,2.3356863E1,2.873065E1,4.4416405E1,4.909375E1,2.4104687E1,2.6495575E1,2.0713287E1,4.9232143E1,2.1435417E1,4.9186363E1,4.168029E1,1.868098E1,2.9547468E1,1.8925926E1,2.854023E1,3.485E1,1.950373E1,1.4293605E1,3.8927536E1,4.823E1,3.935849E1],"categories":[],"categories_nodes":[],"categories_segments":[],"categories_sizes":[],"default_left":[1,0,1,1,1,1,0,1,1,0,1,0,1,1,1,0,1,1,1,0,1,0,1,0,0,0,0,0,0,0,0,0,0],"id":0,"left_children":[1,-1,3,5,7,9,-1,11,13,-1,15,-1,17,19,21,-1,23,25,27,-1,29,-1,31,-1,-1,-1,-1,-1,-1,-1,-1,-1,-1],"loss_changes":[1.8137022E6,0E0,3.817975E5,1.8853772E6,6.2678438E4,1.5144006E5,0E0,1.6789531E3,3.8029062E4,0E0,3.9115906E4,0E0,1.5670312E3,4.7253594E4,2.087125E3,0E0,8.894453E3,1.2087891E3,1.7654727E3,0E0,2.9425688E4,0E0,1.2648438E3,0E0,0E0,0E0,0E0,0E0,0E0,0E0,0E0,0E0,0E0],"parents":[2147483647,0,0,2,2,3,3,4,4,5,5,7,7,8,8,10,10,12,12,13,13,14,14,16,16,17,17,18,18,20,20,22,22],"right_children":[2,-1,4,6,8,10,-1,12,14,-1,16,-1,18,20,22,-1,24,26,28,-1,30,-1,32,-1,-1,-1,-1,-1,-1,-1,-1,-1,-1],"split_conditions":[5E-1,5.9025E1,7.5E0,6.5E0,7.3244385E1,2.1501596E1,5.9213795E1,8.803154E1,1.65E1,2.3512001E1,1.5E0,5.751923E0,1.0120387E2,3.299362E1,1.0239465E2,1.4728126E1,9.9842186E1,2.6477894E1,8.5E0,1.4769644E1,1.3496509E2,1.475591E1,1.8E1,5.6042943E0,8.864241E0,5.6777782E0,8.562069E0,1.0455E1,5.8511195E0,4.2880816E0,1.1678261E1,1.4469001E1,1.1807548E1],"split_indices":[4,0,4,4,1,0,0,3,4,0,4,0,3,3,3,0,3,0,4,0,3,0,4,0,0,0,0,0,0,0,0,0,0],"split_type":[0,0,0,0,0,0,0,0,0,0,0,0,0,0,0,0,0,0,0,0,0,0,0,0,0,0,0,0,0,0,0,0,0],"sum_hessian":[1.76E3,7.7E1,1.683E3,5.58E2,1.125E3,4.72E2,8.6E1,4.87E2,6.38E2,7.4E1,3.98E2,2.33E2,2.54E2,3.22E2,3.16E2,7.9E1,3.19E2,1.12E2,1.42E2,8.3E1,2.39E2,1.09E2,2.07E2,1.62E2,1.57E2,2.6E1,8.6E1,9E0,1.33E2,1.71E2,6.8E1,4.9E1,1.58E2],"tree_param":{"num_deleted":"0","num_feature":"5","num_nodes":"33","size_leaf_vector":"0"}},{"base_weights":[3.348496E1,1.3848174E2,2.8601805E1,4.3641544E1,2.110996E1,2.6038073E1,1.3884613E2,1.4837012E1,2.5549023E1,5.5174824E1,2.0495981E1,1.3442455E1,1.6168434E1,2.0217031E1,3.1220922E1,3.4549725E1,1.6918495E1,2.0621614E1,1.369227E1,2.5253904E1,5.1635056E0,3.4590477E1,2.9314213E1,1.3126465E1,2.0771837E1,7.519104E0,1.3806761E1,2.055133E1,3.463833E1,3.1253529E0,5.479325E0,3.4005157E1,2.7625204E1],"categories":[],"categories_nodes":[],"categories_segments":[],"categories_sizes":[],"default_left":[1,0,1,1,1,1,0,1,1,0,1,0,1,1,1,0,1,0,1,1,1,0,1,0,0,0,0,0,0,0,0,0,0],"id":1,"left_children":[1,-1,3,5,7,9,-1,11,13,-1,15,-1,17,19,21,-1,23,-1,25,27,29,-1,31,-1,-1,-1,-1,-1,-1,-1,-1,-1,-1],"loss_changes":[8.989311E5,0E0,1.8882412E5,9.3323025E5,3.0975562E4,7.52485E4,0E0,6.5346875E2,1.9268375E4,0E0,1.9476016E4,0E0,2.3089453E3,2.5800969E4,1.02265625E3,0E0,4.4031797E3,0E0,5.0273438E0,1.0585672E4,3.8875977E1,0E0,7.165156E2,0E0,0E0,0E0,0E0,0E0,0E0,0E0,0E0,0E0,0E0],"parents":[2147483647,0,0,2,2,3,3,4,4,5,5,7,7,8,8,10,10,12,12,13,13,14,14,16,16,18,18,19,19,20,20,22,22],"right_children":[2,-1,4,6,8,10,-1,12,14,-1,16,-1,18,20,22,-1,24,-1,26,28,30,-1,32,-1,-1,-1,-1,-1,-1,-1,-1,-1,-1],"split_conditions":[5E-1,4.154452E1,7.5E0,6.5E0,7.0814995E1,2.1501596E1,4.165384E1,1.15E1,1.65E1,1.6552448E1,1.5E0,4.032737E0,1.25E1,1.55E1,9.976709E1,1.0364918E1,1.075437E2,6.186485E0,3.2282215E1,9.000561E1,1.3531849E1,1.0377144E1,1.8E1,3.9379396E0,6.2315516E0,2.2557313E0,4.1420283E0,6.1653996E0,1.0391499E1,9.376059E-1,1.6437975E0,1.0201548E1,8.287561E0],"split_indices":[4,0,4,4,1,0,0,4,4,0,4,0,4,4,3,0,3,0,1,1,0,0,4,0,0,0,0,0,0,0,0,0,0],"split_type":[0,0,0,0,0,0,0,0,0,0,0,0,0,0,0,0,0,0,0,0,0,0,0,0,0,0,0,0,0,0,0,0,0],"sum_hessian":[1.76E3,7.7E1,1.683E3,5.58E2,1.125E3,4.72E2,8.6E1,4.68E2,6.57E2,7.4E1,3.98E2,2.34E2,2.34E2,3.41E2,3.16E2,7.9E1,3.19E2,8.1E1,1.53E2,2.55E2,8.6E1,1.08E2,2.08E2,1.63E2,1.56E2,4E0,1.49E2,1.72E2,8.3E1,1.3E1,7.3E1,5E1,1.58E2],"tree_param":{"num_deleted":"0","num_feature":"5","num_nodes":"33","size_leaf_vector":"0"}},{"base_weights":[2.3544472E1,9.746983E1,2.0106394E1,3.068994E1,1.4834363E1,1.8305058E1,9.767108E1,1.0569578E1,1.8068134E1,3.8843075E1,1.4398651E1,1.989164E1,1.0352898E1,1.4206654E1,2.1945707E1,2.431437E1,1.1874725E1,1.13032675E1,9.172992E0,1.8024094E1,3.6441252E0,2.4308535E1,2.0608414E1,9.212536E0,1.4579977E1,9.556459E0,1.2592926E1,9.724711E0,8.364801E0,1.4445358E1,2.4370539E1,3.3447404E0,6.5878453E0,2.4003641E1,1.9389767E1],"categories":[],"categories_nodes":[],"categories_segments":[],"categories_sizes":[],"default_left":[1,0,1,1,1,1,0,1,1,0,1,0,1,1,1,0,1,1,1,1,1,0,1,0,0,0,0,0,0,0,0,0,0,0,0],"id":2,"left_children":[1,-1,3,5,7,9,-1,11,13,-1,15,-1,17,19,21,-1,23,25,27,29,31,-1,33,-1,-1,-1,-1,-1,-1,-1,-1,-1,-1,-1,-1],"loss_changes":[4.4561794E5,0E0,9.350656E4,4.619325E5,1.5338078E4,3.7389438E4,0E0,7.7978516E2,9.2560625E3,0E0,9.696859E3,0E0,4.334375E2,1.2958266E4,5.0070312E2,0E0,2.1702852E3,4.676328E2,1.6304688E1,5.030758E3,5.4638794E1,0E0,3.9932812E2,0E0,0E0,0E0,0E0,0E0,0E0,0E0,0E0,0E0,0E0,0E0,0E0],"parents":[2147483647,0,0,2,2,3,3,4,4,5,5,7,7,8,8,10,10,12,12,13,13,14,14,16,16,17,17,18,18,19,19,20,20,22,22],"right_children":[2,-1,4,6,8,10,-1,12,14,-1,16,-1,18,20,22,-1,24,26,28,30,32,-1,34,-1,-1,-1,-1,-1,-1,-1,-1,-1,-1,-1,-1],"split_conditions":[5E-1,2.9240952E1,7.5E0,6.5E0,7.3244385E1,2.1501596E1,2.9301325E1,8.5E0,1.65E1,1.1652923E1,1.5E0,5.967492E0,5.50139E1,1.55E1,9.976709E1,7.294311E0,1.075437E2,4.2038136E1,6.3484596E1,9.000561E1,7.821689E0,7.2925606E0,1.8E1,2.7637608E0,4.3739934E0,2.8669379E0,3.777878E0,2.9174135E0,2.5094404E0,4.3336077E0,7.311162E0,1.0034221E0,1.9763536E0,7.2010927E0,5.8169303E0],"split_indices":[4,0,4,4,1,0,0,4,4,0,4,0,1,4,3,0,3,1,1,1,2,0,4,0,0,0,0,0,0,0,0,0,0,0,0],"split_type":[0,0,0,0,0,0,0,0,0,0,0,0,0,0,0,0,0,0,0,0,0,0,0,0,0,0,0,0,0,0,0,0,0,0,0],"sum_hessian":[1.76E3,7.7E1,1.683E3,5.58E2,1.125E3,4.72E2,8.6E1,4.87E2,6.38E2,7.4E1,3.98E2,9E0,4.78E2,3.22E2,3.16E2,7.9E1,3.19E2,2.6E2,2.18E2,2.36E2,8.6E1,1.08E2,2.08E2,1.63E2,1.56E2,1.14E2,1.46E2,1.23E2,9.5E1,1.53E2,8.3E1,8E1,6E0,5E1,1.58E2],"tree_param":{"num_deleted":"0","num_feature":"5","num_nodes":"35","size_leaf_vector":"0"}},{"base_weights":[1.6559269E1,6.860377E1,1.4138823E1,2.104955E1,9.935428E0,1.2868689E1,4.4516E1,7.656424E0,1.3704695E1,2.7345526E1,1.0115226E1,6.870654E1,1.6963522E1,1.7146412E1,6.2518597E0,6.5331674E0,1.5426065E1,1.7111237E1,8.334614E0,7.494757E0,3.646227E0,2.7761261E0,6.7524695E0,1.381446E1,1.6430588E1,6.4504833E0,1.0225617E1,6.487023E0,8.839822E0,4.515212E0,2.5503247E0,4.184945E0,7.004089E0,1.714033E1,1.416011E1],"categories":[],"categories_nodes":[],"categories_segments":[],"categories_sizes":[],"default_left":[1,0,1,1,1,1,1,1,1,0,1,0,0,0,1,1,1,0,1,1,1,0,1,0,1,0,0,0,0,0,0,0,0,0,0],"id":3,"left_children":[1,-1,3,5,7,9,11,13,15,-1,17,-1,-1,-1,19,21,23,-1,25,27,29,-1,31,-1,33,-1,-1,-1,-1,-1,-1,-1,-1,-1,-1],"loss_changes":[2.2086469E5,0E0,4.8708562E4,1.2152375E5,8.906164E3,1.8577844E4,1.0814206E5,8.63682E3,4.7630938E3,0E0,4.827801E3,0E0,0E0,0E0,1.8283555E3,4.5520508E1,2.8621094E2,0E0,1.074166E3,4.6722266E2,1.6656909E2,0E0,1.7849121E1,0E0,6.3464844E1,0E0,0E0,0E0,0E0,0E0,0E0,0E0,0E0,0E0,0E0],"parents":[2147483647,0,0,2,2,3,3,4,4,5,5,6,6,7,7,8,8,10,10,14,14,15,15,16,16,18,18,19,19,20,20,22,22,24,24],"right_children":[2,-1,4,6,8,10,12,14,16,-1,18,-1,-1,-1,20,22,24,-1,26,28,30,-1,32,-1,34,-1,-1,-1,-1,-1,-1,-1,-1,-1,-1],"split_conditions":[5E-1,2.0581131E1,8.5E0,6.5E0,1.65E1,2.1501596E1,1.1257529E2,3.0393478E1,7.485881E1,8.203658E0,1.5E0,2.0611963E1,5.089057E0,5.1439238E0,6.972545E1,1.0050707E2,2.436156E1,5.1333714E0,9.9842186E1,8.803154E1,9.0072464E1,8.328379E-1,3.4751587E1,4.144338E0,1.8365079E2,1.935145E0,3.0676854E0,1.9461069E0,2.6519465E0,1.3545637E0,7.6509744E-1,1.2554836E0,2.1012268E0,5.142099E0,4.2480335E0],"split_indices":[4,0,4,4,4,0,3,3,1,0,4,0,0,0,1,3,0,0,3,3,1,0,1,0,3,0,0,0,0,0,0,0,0,0,0],"split_type":[0,0,0,0,0,0,0,0,0,0,0,0,0,0,0,0,0,0,0,0,0,0,0,0,0,0,0,0,0,0,0,0,0,0,0],"sum_hessian":[1.76E3,7.7E1,1.683E3,6.35E2,1.048E3,4.72E2,1.63E2,6.55E2,3.93E2,7.4E1,3.98E2,8.6E1,7.7E1,8.3E1,5.72E2,7.7E1,3.16E2,7.9E1,3.19E2,3.86E2,1.86E2,5E0,7.2E1,1.27E2,1.89E2,1.62E2,1.57E2,2.24E2,1.62E2,1.02E2,8.4E1,8E0,6.4E1,1.39E2,5E1],"tree_param":{"num_deleted":"0","num_feature":"5","num_nodes":"35","size_leaf_vector":"0"}},{"base_weights":[1.1644984E1,4.8286495E1,9.940897E0,1.480393E1,6.983003E0,9.046854E0,3.1317911E1,5.3775783E0,9.638271E0,1.925125E1,7.1060615E0,4.8331493E1,1.1939708E1,1.2063725E1,4.3880253E0,4.626929E0,1.0840941E1,1.204203E1,5.8498626E0,5.2499533E0,2.537265E0,2.0820944E0,4.772711E0,1.245092E1,1.0272528E1,1.2106115E1,3.4896355E0,4.3208537E0,7.015087E0,4.8952894E0,7.6182203E0,1.4632688E0,3.0710723E0,2.5943599E0,7.0504254E-1,4.9457693E0,2.4344761E0,1.1932904E1,9.367759E0],"categories":[],"categories_nodes":[],"categories_segments":[],"categories_sizes":[],"default_left":[1,0,1,1,1,1,1,1,1,0,1,0,0,0,1,1,1,1,1,1,1,1,1,0,1,0,0,0,0,0,0,0,0,0,0,0,0,0,0],"id":4,"left_children":[1,-1,3,5,7,9,11,13,15,-1,17,-1,-1,-1,19,21,23,25,27,29,31,33,35,-1,37,-1,-1,-1,-1,-1,-1,-1,-1,-1,-1,-1,-1,-1,-1],"loss_changes":[1.0947742E5,0E0,2.4119844E4,6.018261E4,4.419883E3,9.230785E3,5.349253E4,4.2873555E3,2.3244727E3,0E0,2.4035762E3,0E0,0E0,0E0,9.007412E2,1.9000122E1,1.6219531E2,1.6015625E0,5.398135E2,2.902832E2,1.0099463E2,2.4033623E0,1.7499146E1,0E0,2.4875586E2,0E0,0E0,0E0,0E0,0E0,0E0,0E0,0E0,0E0,0E0,0E0,0E0,0E0,0E0],"parents":[2147483647,0,0,2,2,3,3,4,4,5,5,6,6,7,7,8,8,10,10,14,14,15,15,16,16,17,17,18,18,19,19,20,20,21,21,22,22,24,24],"right_children":[2,-1,4,6,8,10,12,14,16,-1,18,-1,-1,-1,20,22,24,26,28,30,32,34,36,-1,38,-1,-1,-1,-1,-1,-1,-1,-1,-1,-1,-1,-1,-1,-1],"split_conditions":[5E-1,1.44859495E1,8.5E0,6.5E0,1.65E1,2.1501596E1,1.1257529E2,3.0393478E1,7.485881E1,5.775375E0,1.5E0,1.4499449E1,3.5819125E0,3.6191177E0,7.023091E1,1.0050707E2,1.8E1,6.479723E0,8.943967E1,3.105685E1,2.4604149E1,4.8943577E1,7.113385E0,3.7352762E0,5.9719536E1,3.6318347E0,1.0468907E0,1.2962562E0,2.1045263E0,1.4685869E0,2.2854662E0,4.3898064E-1,9.2132175E-1,7.78308E-1,2.1151277E-1,1.4837308E0,7.3034286E-1,3.5798714E0,2.8103278E0],"split_indices":[4,0,4,4,4,0,3,3,1,0,4,0,0,0,1,3,4,2,3,0,0,1,2,0,3,0,0,0,0,0,0,0,0,0,0,0,0,0,0],"split_type":[0,0,0,0,0,0,0,0,0,0,0,0,0,0,0,0,0,0,0,0,0,0,0,0,0,0,0,0,0,0,0,0,0,0,0,0,0,0,0],"sum_hessian":[1.76E3,7.7E1,1.683E3,6.35E2,1.048E3,4.72E2,1.63E2,6.55E2,3.93E2,7.4E1,3.98E2,8.6E1,7.7E1,8.3E1,5.72E2,7.7E1,3.16E2,7.9E1,3.19E2,3.89E2,1.83E2,5E0,7.2E1,7.7E1,2.39E2,7.8E1,1E0,1.4E2,1.79E2,3.41E2,4.8E1,6.2E1,1.21E2,3E0,2E0,6.6E1,6E0,8E1,1.59E2],"tree_param":{"num_deleted":"0","num_feature":"5","num_nodes":"39","size_leaf_vector":"0"}},{"base_weights":[8.190378E0,3.3986267E1,6.990693E0,1.0412965E1,4.9091344E0,6.362089E0,2.2032787E1,3.7776184E0,6.78062E0,1.3552882E1,4.9944916E0,3.3998703E1,8.403717E0,8.487692E0,3.0805435E0,3.4601593E0,7.669196E0,8.487904E0,4.1055307E0,8.5404625E0,3.73882E0,8.538572E0,2.1323261E0,3.9446447E0,2.0542107E0,2.0879846E0,3.748084E0,6.92485E0,8.241452E0,2.89829E0,8.5940695E0,3.133668E0,5.094575E0,3.160759E0,8.644553E0,3.1507158E0,4.886196E0,2.5746417E0,1.2665256E0,1.1365218E0,2.6403563E0,5.275747E0,3.4310057E0,6.9937935E0,1.4221954E0,8.4346285E0,4.995086E0],"categories":[],"categories_nodes":[],"categories_segments":[],"categories_sizes":[],"default_left":[1,0,1,1,1,1,1,1,1,0,1,0,1,1,1,1,1,1,1,1,0,0,0,1,1,1,1,1,1,0,0,0,0,0,0,0,0,0,0,0,0,0,0,0,0,0,0],"id":5,"left_children":[1,-1,3,5,7,9,11,13,15,-1,17,-1,19,21,23,25,27,29,31,33,-1,-1,-1,35,37,39,41,43,45,-1,-1,-1,-1,-1,-1,-1,-1,-1,-1,-1,-1,-1,-1,-1,-1,-1,-1],"loss_changes":[5.4259984E4,0E0,1.1945133E4,2.9796633E4,2.1957656E3,4.5838438E3,2.6460117E4,2.1276797E3,1.1359531E3,0E0,1.20425E3,0E0,1.7825195E1,8.955566E0,5.0006543E2,2.5756042E1,7.497656E1,2.2565918E1,2.916245E2,1.4674805E1,0E0,0E0,0E0,2.163374E2,1.0496228E2,5.933716E0,1.5321777E1,4.354492E1,6.4478516E1,0E0,0E0,0E0,0E0,0E0,0E0,0E0,0E0,0E0,0E0,0E0,0E0,0E0,0E0,0E0,0E0,0E0,0E0],"parents":[2147483647,0,0,2,2,3,3,4,4,5,5,6,6,7,7,8,8,10,10,12,12,13,13,14,14,15,15,16,16,17,17,18,18,19,19,23,23,24,24,25,25,26,26,27,27,28,28],"right_children":[2,-1,4,6,8,10,12,14,16,-1,18,-1,20,22,24,26,28,30,32,34,-1,-1,-1,36,38,40,42,44,46,-1,-1,-1,-1,-1,-1,-1,-1,-1,-1,-1,-1,-1,-1,-1,-1,-1,-1],"split_conditions":[5E-1,1.0195881E1,8.5E0,6.5E0,1.65E1,2.1501596E1,1.1257529E2,3.0393478E1,8.025249E1,4.065865E0,1.5E0,1.0199612E1,8.892989E1,6.7790194E0,6.3466442E1,3.612407E1,2.4531826E1,2.5070747E1,1.075437E2,7.1052444E1,1.121646E0,2.5615718E0,6.3969785E-1,2.7078712E1,8.755124E1,1.6092888E2,3.9702576E1,9.4912994E1,2.46012E2,8.69487E-1,2.5782208E0,9.4010043E-1,1.5283725E0,9.482277E-1,2.5933661E0,9.452148E-1,1.4658589E0,7.723926E-1,3.799577E-1,3.4095657E-1,7.921069E-1,1.5827241E0,1.0293018E0,2.098138E0,4.2665866E-1,2.5303886E0,1.4985259E0],"split_indices":[4,0,4,4,4,0,3,3,1,0,4,0,1,2,1,1,0,0,3,1,0,0,0,0,1,3,1,1,3,0,0,0,0,0,0,0,0,0,0,0,0,0,0,0,0,0,0],"split_type":[0,0,0,0,0,0,0,0,0,0,0,0,0,0,0,0,0,0,0,0,0,0,0,0,0,0,0,0,0,0,0,0,0,0,0,0,0,0,0,0,0,0,0,0,0,0,0],"sum_hessian":[1.76E3,7.7E1,1.683E3,6.35E2,1.048E3,4.72E2,1.63E2,6.55E2,3.93E2,7.4E1,3.98E2,8.6E1,7.7E1,8.3E1,5.72E2,8.4E1,3.09E2,7.9E1,3.19E2,7.4E1,3E0,8.2E1,1E0,3.09E2,2.63E2,1.6E1,6.8E1,1.4E2,1.69E2,2E0,7.7E1,1.63E2,1.56E2,2E0,7.2E1,1.7E2,1.39E2,1.57E2,1.06E2,7E0,9E0,9E0,5.9E1,1.38E2,2E0,1.58E2,1.1E1],"tree_param":{"num_deleted":"0","num_feature":"5","num_nodes":"47","size_leaf_vector":"0"}},{"base_weights":[5.7628527E0,2.3921106E1,4.9183717E0,7.3281393E0,3.4526606E0,4.474567E0,1.5513577E1,2.6546447E0,4.772574E0,9.512129E0,3.5013776E0,2.3916327E1,5.942388E0,6.0069203E0,2.1652832E0,2.2891066E0,5.3685923E0,3.8251545E0,9.61414E0,5.9846296E0,2.8676424E0,6.240425E0,4.134189E0,4.4973526E0,6.327606E0,2.8015654E0,1.2994121E0,2.59638E0,1.3314416E0,6.1350923E0,4.9600186E0,3.4265587E0,6.3011174E0,2.4492626E0,4.4963546E0,2.364592E0,6.4558144E0,4.6361117E0,1.720355E0,7.0858994E0,2.9566884E0,6.637886E0,3.6249592E0,2.1162393E0,4.848451E0,5.0659084E-1,1.4801316E0,2.6702962E0,-8.08424E-1,4.3949598E-1,3.0525477E0,4.1101456E-1,6.1856933E0,6.1545243E0,4.5231423E0],"categories":[],"categories_nodes":[],"categories_segments":[],"categories_sizes":[],"default_left":[1,0,1,1,1,1,1,1,1,1,1,0,1,1,1,1,1,0,0,1,1,1,1,1,1,1,1,1,1,1,1,0,0,0,0,0,0,0,0,0,0,0,0,0,0,0,0,0,0,0,0,0,0,0,0],"id":6,"left_children":[1,-1,3,5,7,9,11,13,15,17,19,-1,21,23,25,27,29,-1,-1,31,33,35,37,39,41,43,45,47,49,51,53,-1,-1,-1,-1,-1,-1,-1,-1,-1,-1,-1,-1,-1,-1,-1,-1,-1,-1,-1,-1,-1,-1,-1,-1],"loss_changes":[2.6886059E4,0E0,5.922625E3,1.4786109E4,1.0922549E3,2.2855771E3,1.3047469E4,1.0631445E3,5.7090625E2,7.314453E0,6.091802E2,0E0,1.623584E1,1.1722656E1,3.125984E2,1.9495758E1,6.884473E1,0E0,0E0,4.3176758E1,2.0636035E2,3.899756E1,8.986053E0,5.0834656E1,3.1283936E1,4.526582E2,3.4353363E1,1.6755615E1,3.0896217E1,2.8159668E1,8.279492E1,0E0,0E0,0E0,0E0,0E0,0E0,0E0,0E0,0E0,0E0,0E0,0E0,0E0,0E0,0E0,0E0,0E0,0E0,0E0,0E0,0E0,0E0,0E0,0E0],"parents":[2147483647,0,0,2,2,3,3,4,4,5,5,6,6,7,7,8,8,9,9,10,10,12,12,13,13,14,14,15,15,16,16,19,19,20,20,21,21,22,22,23,23,24,24,25,25,26,26,27,27,28,28,29,29,30,30],"right_children":[2,-1,4,6,8,10,12,14,16,18,20,-1,22,24,26,28,30,-1,-1,32,34,36,38,40,42,44,46,48,50,52,54,-1,-1,-1,-1,-1,-1,-1,-1,-1,-1,-1,-1,-1,-1,-1,-1,-1,-1,-1,-1,-1,-1,-1,-1],"split_conditions":[5E-1,7.176332E0,8.5E0,6.5E0,1.65E1,5.022583E1,1.1257529E2,2.9653446E1,7.485881E1,1.7116451E1,1.5E0,7.174898E0,7.27445E0,9.077742E1,1.25E1,3.3166534E1,9.012442E1,1.1475464E0,2.884242E0,9.1569336E1,9.151152E1,1.533096E2,2.6456175E1,6.1728954E0,2.9690426E1,1.15E1,2.3972187E1,6.8073E1,3.612662E1,6.0162E0,1.8E1,1.0279677E0,1.8903353E0,7.347788E-1,1.3489064E0,7.0937765E-1,1.9367443E0,1.3908336E0,5.1610655E-1,2.1257699E0,8.870066E-1,1.9913659E0,1.0874878E0,6.3487184E-1,1.4545354E0,1.5197726E-1,4.440395E-1,8.0108887E-1,-2.425272E-1,1.318488E-1,9.1576433E-1,1.23304375E-1,1.855708E0,1.8463573E0,1.3569428E0],"split_indices":[4,0,4,4,4,1,3,3,1,0,4,0,2,1,4,0,3,0,0,3,1,3,0,2,0,4,0,1,0,2,4,0,0,0,0,0,0,0,0,0,0,0,0,0,0,0,0,0,0,0,0,0,0,0,0],"split_type":[0,0,0,0,0,0,0,0,0,0,0,0,0,0,0,0,0,0,0,0,0,0,0,0,0,0,0,0,0,0,0,0,0,0,0,0,0,0,0,0,0,0,0,0,0,0,0,0,0,0,0,0,0,0,0],"sum_hessian":[1.76E3,7.7E1,1.683E3,6.35E2,1.048E3,4.72E2,1.63E2,6.55E2,3.93E2,7.5E1,3.97E2,8.6E1,7.7E1,8.2E1,5.73E2,7.7E1,3.16E2,2E0,7.3E1,7.9E1,3.18E2,6.4E1,1.3E1,1.7E1,6.5E1,3.29E2,2.44E2,5.7E1,2E1,1.05E2,2.11E2,1E1,6.9E1,2.55E2,6.3E1,4E0,6E1,1E1,3E0,5E0,1.2E1,5.7E1,8E0,2.48E2,8.1E1,4.6E1,1.98E2,5.6E1,1E0,1.4E1,6E0,1E0,1.04E2,5.3E1,1.58E2],"tree_param":{"num_deleted":"0","num_feature":"5","num_nodes":"55","size_leaf_vector":"0"}},{"base_weights":[4.058701E0,1.6836779E1,3.464432E0,5.162342E0,2.4317007E0,3.151296E0,1.0931017E1,1.8716304E0,3.3580315E0,6.9194913E0,2.4905903E0,1.68239E1,4.218044E0,4.2661033E0,1.517342E0,1.6229669E0,3.7743628E0,8.259353E0,6.0408816E0,4.2257195E0,2.0558183E0,4.9867196E0,3.6337316E0,4.636086E0,3.012693E0,1.967427E0,9.024017E-1,4.8960954E-1,1.7637004E0,4.4975853E0,3.5235891E0,3.2356617E0,8.555514E0,1.2356619E0,6.231218E0,2.8464975E0,4.837076E0,1.8422823E0,3.5312061E0,2.097478E0,5.221371E0,2.071537E0,4.2810464E0,4.7985344E0,1.0403433E0,3.7555377E0,8.8437706E-1,1.4839165E0,3.411655E0,5.5586165E-1,1.3409076E0,1.7109686E0,-2.9601336E-2,2.4541755E0,1.3409097E0,4.983062E0,3.120008E0,4.3294377E0,3.1454072E0],"categories":[],"categories_nodes":[],"categories_segments":[],"categories_sizes":[],"default_left":[1,0,1,1,1,1,1,1,1,1,1,0,1,1,1,1,1,1,1,1,1,1,1,1,1,1,1,1,1,1,1,0,0,0,0,0,0,0,0,0,0,0,0,0,0,0,0,0,0,0,0,0,0,0,0,0,0,0,0],"id":7,"left_children":[1,-1,3,5,7,9,11,13,15,17,19,-1,21,23,25,27,29,31,33,35,37,39,41,43,45,47,49,51,53,55,57,-1,-1,-1,-1,-1,-1,-1,-1,-1,-1,-1,-1,-1,-1,-1,-1,-1,-1,-1,-1,-1,-1,-1,-1,-1,-1,-1,-1],"loss_changes":[1.3314021E4,0E0,2.9403164E3,7.343836E3,5.379468E2,1.1603794E3,6.416672E3,5.500342E2,2.7848486E2,3.251123E1,2.9608423E2,0E0,1.6913086E1,2.498706E1,1.568169E2,1.1577576E1,4.164502E1,9.512939E0,3.437207E1,5.368701E1,9.5885376E1,1.0065186E1,3.9670776E1,3.1807495E1,3.1460876E1,2.2537622E2,3.633284E1,6.3920755E0,1.6852097E1,3.6617798E1,5.9523926E1,0E0,0E0,0E0,0E0,0E0,0E0,0E0,0E0,0E0,0E0,0E0,0E0,0E0,0E0,0E0,0E0,0E0,0E0,0E0,0E0,0E0,0E0,0E0,0E0,0E0,0E0,0E0,0E0],"parents":[2147483647,0,0,2,2,3,3,4,4,5,5,6,6,7,7,8,8,9,9,10,10,12,12,13,13,14,14,15,15,16,16,17,17,18,18,19,19,20,20,21,21,22,22,23,23,24,24,25,25,26,26,27,27,28,28,29,29,30,30],"right_children":[2,-1,4,6,8,10,12,14,16,18,20,-1,22,24,26,28,30,32,34,36,38,40,42,44,46,48,50,52,54,56,58,-1,-1,-1,-1,-1,-1,-1,-1,-1,-1,-1,-1,-1,-1,-1,-1,-1,-1,-1,-1,-1,-1,-1,-1,-1,-1,-1,-1],"split_conditions":[5E-1,5.051034E0,8.5E0,6.5E0,1.65E1,1.9539967E1,1.1257529E2,3.0393478E1,7.485881E1,6.965411E0,1.5E0,5.04717E0,7.836056E1,2.7272442E1,1.25E1,1.9590105E1,1.8E1,1.7388945E1,7.0842943E0,5.8080807E0,9.5018936E1,7.123063E1,1.6739035E2,6.7438393E0,2.9406187E1,1.15E1,6.9807653E0,4.9556284E0,2.8263498E1,3.8504356E1,5.776226E1,9.7069854E-1,2.5666544E0,3.7069857E-1,1.8693655E0,8.539493E-1,1.4511229E0,5.526847E-1,1.0593619E0,6.292434E-1,1.5664114E0,6.2146115E-1,1.2843139E0,1.4395604E0,3.12103E-1,1.1266614E0,2.6531312E-1,4.4517496E-1,1.0234965E0,1.6675851E-1,4.0227228E-1,5.132906E-1,-8.880401E-3,7.3625267E-1,4.0227294E-1,1.4949186E0,9.3600243E-1,1.2988313E0,9.436222E-1],"split_indices":[4,0,4,4,4,1,3,3,1,2,4,0,1,3,4,0,4,0,2,2,1,1,3,2,0,4,2,2,0,0,3,0,0,0,0,0,0,0,0,0,0,0,0,0,0,0,0,0,0,0,0,0,0,0,0,0,0,0,0],"split_type":[0,0,0,0,0,0,0,0,0,0,0,0,0,0,0,0,0,0,0,0,0,0,0,0,0,0,0,0,0,0,0,0,0,0,0,0,0,0,0,0,0,0,0,0,0,0,0,0,0,0,0,0,0,0,0,0,0,0,0],"sum_hessian":[1.76E3,7.7E1,1.683E3,6.35E2,1.048E3,4.72E2,1.63E2,6.55E2,3.93E2,6.9E1,4.03E2,8.6E1,7.7E1,8.3E1,5.72E2,7.7E1,3.16E2,2.4E1,4.5E1,7.9E1,3.24E2,3E1,4.7E1,6.2E1,2.1E1,3.29E2,2.43E2,9E0,6.8E1,7.7E1,2.39E2,2E0,2.2E1,2E0,4.3E1,2.6E1,5.3E1,2.85E2,3.9E1,3E0,2.7E1,1.5E1,3.2E1,5.9E1,3E0,1.5E1,6E0,2.48E2,8.1E1,1.37E2,1.06E2,2E0,7E0,2.4E1,4.4E1,5.5E1,2.2E1,7.3E1,1.66E2],"tree_param":{"num_deleted":"0","num_feature":"5","num_nodes":"59","size_leaf_vector":"0"}},{"base_weights":[2.8611882E0,1.1850495E1,2.4431198E0,3.643268E0,1.713151E0,2.226403E0,7.707499E0,1.3180397E0,2.3666532E0,4.7775445E0,1.702754E0,1.1834748E1,3.0052142E0,3.0236964E0,1.0656955E0,1.3274438E0,2.7156105E0,5.313672E0,3.7587078E0,7.1507496E-1,2.2206194E0,2.3574772E0,3.6250036E0,3.2730649E0,2.1721556E0,1.2839097E0,4.186999E-1,3.6440272E0,1.1427752E0,2.7465465E0,-2.1388912E-1,2.6941102E0,5.4828925E0,1.3691597E0,4.277433E0,2.3279314E0,4.5155105E-1,2.714711E0,1.2995987E0,2.625363E0,-7.768078E-1,4.234919E0,1.1891747E0,2.785809E0,4.336437E0,2.5863776E-1,2.7197409E0,7.9672116E-1,1.669494E0,-7.40865E-2,1.3957278E0,8.428764E-2,4.223269E0,1.0202104E0,2.5378451E0,2.361154E0,3.0185678E0,-5.4696465E-1,7.94576E-2],"categories":[],"categories_nodes":[],"categories_segments":[],"categories_sizes":[],"default_left":[1,0,1,1,1,1,1,1,1,1,1,0,1,1,1,1,1,1,1,1,1,1,1,1,1,1,1,1,1,1,1,0,0,0,0,0,0,0,0,0,0,0,0,0,0,0,0,0,0,0,0,0,0,0,0,0,0,0,0],"id":8,"left_children":[1,-1,3,5,7,9,11,13,15,17,19,-1,21,23,25,27,29,31,33,35,37,39,41,43,45,47,49,51,53,55,57,-1,-1,-1,-1,-1,-1,-1,-1,-1,-1,-1,-1,-1,-1,-1,-1,-1,-1,-1,-1,-1,-1,-1,-1,-1,-1,-1,-1],"loss_changes":[6.5891416E3,0E0,1.4690615E3,3.6452246E3,2.67739E2,6.237471E2,3.1472637E3,2.791283E2,1.3927539E2,2.3725586E1,1.9993701E2,0E0,2.2768127E1,1.07276E1,8.036066E1,3.9043533E1,2.7231934E1,7.392578E0,3.2568604E1,5.717742E1,1.1387976E2,3.6464264E1,5.141861E1,2.056195E1,2.2348488E1,7.907068E1,7.0397446E1,1.40776825E1,1.3654572E1,2.3379639E1,4.342869E-1,0E0,0E0,0E0,0E0,0E0,0E0,0E0,0E0,0E0,0E0,0E0,0E0,0E0,0E0,0E0,0E0,0E0,0E0,0E0,0E0,0E0,0E0,0E0,0E0,0E0,0E0,0E0,0E0],"parents":[2147483647,0,0,2,2,3,3,4,4,5,5,6,6,7,7,8,8,9,9,10,10,12,12,13,13,14,14,15,15,16,16,17,17,18,18,19,19,20,20,21,21,22,22,23,23,24,24,25,25,26,26,27,27,28,28,29,29,30,30],"right_children":[2,-1,4,6,8,10,12,14,16,18,20,-1,22,24,26,28,30,32,34,36,38,40,42,44,46,48,50,52,54,56,58,-1,-1,-1,-1,-1,-1,-1,-1,-1,-1,-1,-1,-1,-1,-1,-1,-1,-1,-1,-1,-1,-1,-1,-1,-1,-1,-1,-1],"split_conditions":[5E-1,3.5551488E0,8.5E0,6.5E0,1.65E1,2.2266895E1,1.1257529E2,3.0393478E1,8.0775345E1,7.696204E0,8.943967E1,3.5504246E0,2.499168E1,2.7272442E1,1.0097595E2,7.472442E1,9.4912994E1,1.7318874E1,7.7857027E0,6.30247E1,1.5641382E2,2.489701E1,7.27445E0,2.914793E1,2.8019278E1,5.4556435E1,1.1641504E2,4.3648094E1,2.2560529E2,8.6760056E1,9.494406E1,8.082331E-1,1.6448678E0,4.1074792E-1,1.28323E0,6.9837946E-1,1.3546532E-1,8.144133E-1,3.898796E-1,7.87609E-1,-2.3304234E-1,1.2704757E0,3.567524E-1,8.357428E-1,1.3009312E0,7.759133E-2,8.159223E-1,2.3901635E-1,5.0084823E-1,-2.2225952E-2,4.1871834E-1,2.5286295E-2,1.2669808E0,3.0606312E-1,7.6135355E-1,7.0834625E-1,9.055704E-1,-1.640894E-1,2.3837281E-2],"split_indices":[4,0,4,4,4,0,3,3,1,2,3,0,0,3,3,3,1,0,2,1,3,0,2,0,3,3,3,3,3,1,1,0,0,0,0,0,0,0,0,0,0,0,0,0,0,0,0,0,0,0,0,0,0,0,0,0,0,0,0],"split_type":[0,0,0,0,0,0,0,0,0,0,0,0,0,0,0,0,0,0,0,0,0,0,0,0,0,0,0,0,0,0,0,0,0,0,0,0,0,0,0,0,0,0,0,0,0,0,0,0,0,0,0,0,0,0,0,0,0,0,0],"sum_hessian":[1.76E3,7.7E1,1.683E3,6.35E2,1.048E3,4.72E2,1.63E2,6.55E2,3.93E2,7.9E1,3.93E2,8.6E1,7.7E1,8.3E1,5.72E2,1E2,2.93E2,4.9E1,3E1,1.36E2,2.57E2,4E1,3.7E1,6.2E1,2.1E1,4.27E2,1.45E2,6E0,9.4E1,2.9E2,3E0,4E0,4.5E1,6E0,2.4E1,1.8E1,1.18E2,1.66E2,9.1E1,3.7E1,3E0,2.9E1,8E0,4.5E1,1.7E1,5E0,1.6E1,1.9E2,2.37E2,9.7E1,4.8E1,1E0,5E0,8.8E1,6E0,1.24E2,1.66E2,1E0,2E0],"tree_param":{"num_deleted":"0","num_feature":"5","num_nodes":"59","size_leaf_vector":"0"}},{"base_weights":[2.0161605E0,8.340929E0,1.7220107E0,1.8220291E0,8.401928E0,2.5690246E0,1.2068317E0,8.502137E0,3.0960388E0,1.5715582E0,5.430198E0,9.2897934E-1,1.6663859E0,8.607839E0,3.0960388E0,3.3445709E0,1.1632768E0,8.325128E0,2.131621E0,2.1627362E0,7.489605E-1,9.525742E-1,1.905939E0,6.040053E0,8.919549E0,3.4983637E0,9.193687E-2,2.1825821E0,8.9387053E-1,8.372541E0,2.1237564E0,1.0336525E0,2.3982959E0,1.0778782E0,2.3861918E0,1.0119143E0,3.917209E-1,2.7354295E0,8.111788E-1,2.6953962E0,1.7599547E0,4.4722238E0,2.8745115E0,1.7514124E0,-7.607851E-1,1.2399232E0,2.6134934E0,6.59686E-1,1.7727323E0,2.1237564E0,8.421071E0,1.8981588E0,-1.4207939E0,3.43722E0,1.65168E0,3.2411976E0,-2.0010306E-1,3.803562E0,1.9820216E0,7.1344566E-1,1.9058993E0,6.4441025E-1,-8.295371E-2,7.164383E-2,3.167453E0,-3.7169886E-1,9.094952E-1,2.8055415E0,-1.0204296E0,1.3654517E0,2.0629861E0],"categories":[],"categories_nodes":[],"categories_segments":[],"categories_sizes":[],"default_left":[1,1,1,0,1,1,1,1,0,1,1,1,1,1,0,1,1,1,1,1,1,1,1,0,0,1,1,1,1,1,0,1,1,1,1,1,1,1,1,1,1,0,0,0,0,0,0,0,0,0,0,0,0,0,0,0,0,0,0,0,0,0,0,0,0,0,0,0,0,0,0],"id":9,"left_children":[1,3,5,-1,7,9,11,13,-1,15,17,19,21,23,-1,25,27,29,31,33,35,37,39,-1,-1,41,43,45,47,49,-1,51,53,55,57,59,61,63,65,67,69,-1,-1,-1,-1,-1,-1,-1,-1,-1,-1,-1,-1,-1,-1,-1,-1,-1,-1,-1,-1,-1,-1,-1,-1,-1,-1,-1,-1,-1,-1],"loss_changes":[3.261852E3,1.570752E1,7.317363E2,0E0,1.4618164E1,1.806562E3,1.3239697E2,1.6207031E1,0E0,3.3850842E2,1.5483145E3,1.4407745E2,6.555676E1,4.555176E0,0E0,4.369879E1,1.04047424E2,7.7993164E0,2.0359436E1,1.7548645E1,5.3523743E1,2.3241913E1,2.913916E1,0E0,0E0,3.8178223E1,8.4078045E0,2.9255676E1,6.2016006E1,8.1953125E0,0E0,3.876892E1,4.2414795E1,4.4883476E1,3.141568E1,8.669296E1,2.944004E1,7.8288E0,1.13862E1,2.0871216E1,2.7189331E1,0E0,0E0,0E0,0E0,0E0,0E0,0E0,0E0,0E0,0E0,0E0,0E0,0E0,0E0,0E0,0E0,0E0,0E0,0E0,0E0,0E0,0E0,0E0,0E0,0E0,0E0,0E0,0E0,0E0,0E0],"parents":[2147483647,0,0,1,1,2,2,4,4,5,5,6,6,7,7,9,9,10,10,11,11,12,12,13,13,15,15,16,16,17,17,18,18,19,19,20,20,21,21,22,22,25,25,26,26,27,27,28,28,29,29,31,31,32,32,33,33,34,34,35,35,36,36,37,37,38,38,39,39,40,40],"right_children":[2,4,6,-1,8,10,12,14,-1,16,18,20,22,24,-1,26,28,30,32,34,36,38,40,-1,-1,42,44,46,48,50,-1,52,54,56,58,60,62,64,66,68,70,-1,-1,-1,-1,-1,-1,-1,-1,-1,-1,-1,-1,-1,-1,-1,-1,-1,-1,-1,-1,-1,-1,-1,-1,-1,-1,-1,-1,-1,-1],"split_conditions":[5E-1,5.517518E0,8.5E0,5.4660875E-1,6.442836E0,6.5E0,1.65E1,1.2430474E2,9.2881167E-1,5.2249825E1,1.1257529E2,2.9653446E1,8.0775345E1,5.6011915E0,9.2881167E-1,1.6032579E2,1.5E0,4.1802345E1,6.2371845E0,9.074588E1,1.25E1,7.472442E1,5.113259E1,1.8120159E0,2.6758647E0,6.9636235E0,5.022583E1,5.8080807E0,9.151152E1,8.001885E1,6.371269E-1,6.181837E0,6.741818E0,6.1728954E0,9.146799E1,1.15E1,2.8798286E1,4.3648094E1,1.0119328E2,6.936488E0,1.083636E2,1.3416672E0,8.623535E-1,5.2542377E-1,-2.2823554E-1,3.7197697E-1,7.840481E-1,1.9790582E-1,5.318197E-1,6.371269E-1,2.5263214E0,5.6944764E-1,-4.2623818E-1,1.0311661E0,4.9550402E-1,9.723593E-1,-6.003092E-2,1.1410686E0,5.946065E-1,2.1403371E-1,5.7176983E-1,1.9332309E-1,-2.4886113E-2,2.149315E-2,9.5023596E-1,-1.1150966E-1,2.7284858E-1,8.4166247E-1,-3.061289E-1,4.096355E-1,6.188959E-1],"split_indices":[4,2,4,0,2,4,4,3,0,1,3,3,1,2,0,3,4,0,2,1,4,3,3,0,0,2,1,2,1,1,0,2,2,2,1,4,0,3,3,2,3,0,0,0,0,0,0,0,0,0,0,0,0,0,0,0,0,0,0,0,0,0,0,0,0,0,0,0,0,0,0],"split_type":[0,0,0,0,0,0,0,0,0,0,0,0,0,0,0,0,0,0,0,0,0,0,0,0,0,0,0,0,0,0,0,0,0,0,0,0,0,0,0,0,0,0,0,0,0,0,0,0,0,0,0,0,0,0,0,0,0,0,0,0,0,0,0,0,0,0,0,0,0,0,0],"sum_hessian":[1.76E3,7.7E1,1.683E3,1E0,7.6E1,6.35E2,1.048E3,7.4E1,2E0,4.72E2,1.63E2,6.55E2,3.93E2,7.2E1,2E0,8.7E1,3.85E2,8.6E1,7.7E1,8.2E1,5.73E2,1E2,2.93E2,1E1,6.2E1,8.3E1,4E0,7.9E1,3.06E2,8.5E1,1E0,1.6E1,6.1E1,1.5E1,6.7E1,3.29E2,2.44E2,6E0,9.4E1,4.3E1,2.5E2,3E1,5.3E1,1E0,3E0,2.6E1,5.3E1,2.43E2,6.3E1,1E0,8.4E1,1.2E1,4E0,2.4E1,3.7E1,5E0,1E1,1.3E1,5.4E1,2.48E2,8.1E1,1.59E2,8.5E1,1E0,5E0,7E0,8.7E1,4.2E1,1E0,1.11E2,1.39E2],"tree_param":{"num_deleted":"0","num_feature":"5","num_nodes":"71","size_leaf_vector":"0"}},{"base_weights":[1.424401E0,5.9270167E0,1.2150018E0,7.9481583E0,5.476558E0,1.8138161E0,8.507874E-1,3.0112152E0,5.713995E0,1.1093651E0,3.8344958E0,6.5577674E-1,1.1733159E0,4.8410034E-1,5.794432E0,2.3696241E0,8.1917816E-1,5.9079027E0,1.528831E0,1.7226872E0,5.415156E-1,8.938304E-1,1.5363212E0,5.910123E0,2.7261505E0,3.674111E0,2.0512486E0,1.109264E0,2.3939951E-1,7.447477E0,5.531712E0,1.0559018E0,1.9868121E0,1.4495503E0,3.200448E0,6.9150877E-1,1.3726519E-1,9.857983E-1,-1.7240238E0,7.0232785E-1,1.7320837E0,6.069231E0,3.0733764E0,1.3443985E0,3.9108984E0,2.2280316E0,-7.9860723E-1,5.2144873E-1,1.4070197E0,1.9170921E0,3.899682E-3,1.805191E0,7.742638E0,5.9335785E0,2.9944255E0,3.4553688E0,6.2666005E-1,2.3742304E0,4.3161434E-1,1.8849254E0,5.933973E-1,1.6313505E0,3.713105E0,6.145898E-1,2.035952E0,2.3128247E-2,2.6612792E0,2.8802252E0,8.7121415E-1,-1.9059569E0,-2.2524643E-1,1.1397208E0,-2.0624955E0,2.0364432E0,6.69765E-1],"categories":[],"categories_nodes":[],"categories_segments":[],"categories_sizes":[],"default_left":[1,1,1,0,1,1,1,0,1,1,1,1,1,0,1,1,1,1,1,1,1,1,1,1,0,1,1,1,1,1,1,1,1,1,1,1,1,1,1,1,1,0,0,0,0,0,0,0,0,0,0,0,0,0,0,0,0,0,0,0,0,0,0,0,0,0,0,0,0,0,0,0,0,0,0],"id":10,"left_children":[1,3,5,-1,7,9,11,-1,13,15,17,19,21,-1,23,25,27,29,31,33,35,37,39,41,-1,43,45,47,49,51,53,55,57,59,61,63,65,67,69,71,73,-1,-1,-1,-1,-1,-1,-1,-1,-1,-1,-1,-1,-1,-1,-1,-1,-1,-1,-1,-1,-1,-1,-1,-1,-1,-1,-1,-1,-1,-1,-1,-1,-1,-1],"loss_changes":[1.653148E3,2.7485596E1,3.657317E2,0E0,2.2013184E1,9.0107275E2,6.5208984E1,0E0,2.2435669E1,1.7104004E2,7.749834E2,7.903775E1,3.8599915E1,0E0,4.831421E0,2.9011322E1,6.465402E1,8.611572E0,1.5012939E1,2.0789566E1,3.5922165E1,5.587021E1,2.6538483E1,6.6225586E0,0E0,3.5685425E0,3.855719E1,4.4247864E1,5.135504E1,9.338501E0,5.6666992E1,4.0062664E1,2.247322E1,1.9382607E1,1.1822968E0,4.3526657E1,4.6607937E1,4.481224E1,1.7521076E0,4.3467354E1,4.2931854E1,0E0,0E0,0E0,0E0,0E0,0E0,0E0,0E0,0E0,0E0,0E0,0E0,0E0,0E0,0E0,0E0,0E0,0E0,0E0,0E0,0E0,0E0,0E0,0E0,0E0,0E0,0E0,0E0,0E0,0E0,0E0,0E0,0E0,0E0],"parents":[2147483647,0,0,1,1,2,2,4,4,5,5,6,6,8,8,9,9,10,10,11,11,12,12,14,14,15,15,16,16,17,17,18,18,19,19,20,20,21,21,22,22,23,23,25,25,26,26,27,27,28,28,29,29,30,30,31,31,32,32,33,33,34,34,35,35,36,36,37,37,38,38,39,39,40,40],"right_children":[2,4,6,-1,8,10,12,-1,14,16,18,20,22,-1,24,26,28,30,32,34,36,38,40,42,-1,44,46,48,50,52,54,56,58,60,62,64,66,68,70,72,74,-1,-1,-1,-1,-1,-1,-1,-1,-1,-1,-1,-1,-1,-1,-1,-1,-1,-1,-1,-1,-1,-1,-1,-1,-1,-1,-1,-1,-1,-1,-1,-1,-1,-1],"split_conditions":[5E-1,2.1318628E1,8.5E0,2.3844476E0,5.5805736E0,6.5E0,1.65E1,9.033646E-1,2.1417706E1,5.2249825E1,7.4868256E1,2.7272442E1,8.6760056E1,1.4523011E-1,2.3845703E1,6.485586E0,6.860322E0,1.2114464E1,2.499168E1,9.4299324E1,9.9628555E1,8.63407E1,6.3022566E0,1.2217012E2,8.1784517E-1,1.7681387E1,1.3956711E2,2.5714516E1,2.3411297E1,8.001885E1,8.329004E1,1.5382191E2,7.27445E0,9.235123E1,2.8262741E1,9.661769E1,7.821689E0,4.7297497E1,6.8634715E0,2.528804E1,9.315993E1,1.8207694E0,9.22013E-1,4.0331957E-1,1.1732696E0,6.684095E-1,-2.3958218E-1,1.5643463E-1,4.2210594E-1,5.7512766E-1,1.1699047E-3,5.415573E-1,2.3227916E0,1.7800736E0,8.983277E-1,1.0366107E0,1.8799803E-1,7.122691E-1,1.2948431E-1,5.654776E-1,1.780192E-1,4.8940518E-1,1.1139315E0,1.8437696E-1,6.1078566E-1,6.9384743E-3,7.983838E-1,8.640676E-1,2.6136425E-1,-5.7178706E-1,-6.7573935E-2,3.4191626E-1,-6.1874866E-1,6.10933E-1,2.0092951E-1],"split_indices":[4,0,4,0,2,4,4,0,0,1,3,3,1,0,0,2,2,0,0,1,3,1,2,3,0,0,3,0,0,1,1,3,2,1,0,3,2,3,2,0,1,0,0,0,0,0,0,0,0,0,0,0,0,0,0,0,0,0,0,0,0,0,0,0,0,0,0,0,0,0,0,0,0,0,0],"split_type":[0,0,0,0,0,0,0,0,0,0,0,0,0,0,0,0,0,0,0,0,0,0,0,0,0,0,0,0,0,0,0,0,0,0,0,0,0,0,0,0,0,0,0,0,0,0,0,0,0,0,0,0,0,0,0,0,0,0,0,0,0,0,0,0,0,0,0,0,0,0,0,0,0,0,0],"sum_hessian":[1.76E3,7.7E1,1.683E3,1.1E1,6.6E1,6.35E2,1.048E3,7E0,5.9E1,4.72E2,1.63E2,6.55E2,3.93E2,1E0,5.8E1,8.7E1,3.85E2,8.5E1,7.8E1,6.2E1,5.93E2,2.24E2,1.69E2,5.5E1,3E0,1.5E1,7.2E1,2.56E2,1.29E2,1.3E1,7.2E1,4E1,3.8E1,5.4E1,8E0,4.32E2,1.61E2,2.17E2,7E0,3.3E1,1.36E2,5.1E1,4E0,2E0,1.3E1,6.8E1,4E0,8.7E1,1.69E2,1.5E1,1.14E2,1E0,1.2E1,6.1E1,1.1E1,5E0,3.5E1,3E1,8E0,3.5E1,1.9E1,3E0,5E0,4.1E2,2.2E1,1.55E2,6E0,1.1E1,2.06E2,6E0,1E0,2.9E1,4E0,1.05E2,3.1E1],"tree_param":{"num_deleted":"0","num_feature":"5","num_nodes":"75","size_leaf_vector":"0"}},{"base_weights":[1.0099888E0,4.238574E0,8.598465E-1,3.2220676E0,4.657264E0,1.2866037E0,6.0028744E-1,4.396889E0,1.9010141E0,6.4199524E0,4.1508064E0,7.8323644E-1,2.7305434E0,6.338228E-1,-5.21417E-1,4.8343444E0,-4.262848E-1,1.0846386E0,2.562441E0,1.5737152E0,6.783566E0,2.3108125E0,4.5579247E0,1.7525088E0,5.84442E-1,4.199982E0,1.0963374E0,6.130042E-1,2.3297648E0,-1.554029E0,8.43471E-1,2.3525085E0,5.7811985E0,1.3970413E0,9.828695E-2,2.9185302E0,1.1148123E0,3.095119E0,3.6057281E-1,4.82076E0,2.0167603E0,1.1195867E0,2.2984958E0,2.1451294E-1,8.3119744E-1,4.4207315E0,2.6203332E0,1.6345078E0,7.33488E-1,6.487427E-1,-8.1818074E-1,2.6650517E0,4.3555388E-1,-1.9716783E-3,-3.493854E0,2.030975E0,-2.6330333E0,6.188701E0,1.4643402E0,5.737152E-1,-4.262848E-1,6.920369E-1,3.9179444E0,9.828695E-2,5.737152E-1,5.0434675E0,2.0566177E0,7.371521E-2,2.4840927E0,1.5649414E0,-1.1398839E0,2.7634122E0,1.1712759E0,-1.4525911E-2,1.6414607E0,1.3501676E0,4.0492237E-1,4.0040455E0,6.2399383E0,-3.725891E-1,3.1983726E0,2.2052298E0,7.839718E-1,-1.497267E-1,1.4586899E0,-7.100984E-1,6.77671E-1,-2.2671702E0,9.4048864E-1,9.509611E-2,2.940036E0,-1.067152E0,1.7204828E0,-1.3592037E0,9.6776146E-1,3.189541E0,2.7877807E-3],"categories":[],"categories_nodes":[],"categories_segments":[],"categories_sizes":[],"default_left":[1,1,1,1,1,1,1,1,1,1,1,1,1,1,1,1,0,1,1,0,0,1,1,1,1,1,1,1,1,1,1,0,1,0,1,0,0,1,1,1,1,1,1,1,1,1,1,1,1,1,1,1,1,1,0,1,0,0,0,0,0,0,0,0,0,0,0,0,0,0,0,0,0,0,0,0,0,0,0,0,0,0,0,0,0,0,0,0,0,0,0,0,0,0,0,0,0],"id":11,"left_children":[1,3,5,7,9,11,13,15,17,19,21,23,25,27,29,31,-1,33,35,-1,-1,37,39,41,43,45,47,49,51,53,55,-1,57,-1,59,-1,-1,61,63,65,67,69,71,73,75,77,79,81,83,85,87,89,91,93,-1,95,-1,-1,-1,-1,-1,-1,-1,-1,-1,-1,-1,-1,-1,-1,-1,-1,-1,-1,-1,-1,-1,-1,-1,-1,-1,-1,-1,-1,-1,-1,-1,-1,-1,-1,-1,-1,-1,-1,-1,-1,-1],"loss_changes":[8.4999536E2,1.8190796E1,1.857622E2,3.19935E1,2.0666626E1,4.6012646E2,3.9790527E1,2.9489792E1,4.7802963E0,6.946167E0,2.2427673E1,9.011621E1,3.8921924E2,3.4549744E1,4.5002167E1,1.4598907E1,0E0,2.3278017E0,3.547821E-1,0E0,0E0,1.417984E1,1.365448E1,2.5072021E1,3.5786804E1,1.840503E1,1.4227814E1,5.2088318E1,6.4604797E0,5.4186066E1,6.3144714E1,0E0,5.010681E0,0E0,9.927548E-1,0E0,0E0,1.112986E1,1.6722828E-1,8.7109375E0,4.357126E0,4.102822E1,1.8773941E1,5.1989254E1,5.1662155E1,3.1109863E1,2.368203E1,1.3319176E1,3.160335E1,3.9161255E1,6.5839584E1,6.7873917E0,7.628628E0,1.5793067E1,0E0,2.5838787E1,0E0,0E0,0E0,0E0,0E0,0E0,0E0,0E0,0E0,0E0,0E0,0E0,0E0,0E0,0E0,0E0,0E0,0E0,0E0,0E0,0E0,0E0,0E0,0E0,0E0,0E0,0E0,0E0,0E0,0E0,0E0,0E0,0E0,0E0,0E0,0E0,0E0,0E0,0E0,0E0,0E0],"parents":[2147483647,0,0,1,1,2,2,3,3,4,4,5,5,6,6,7,7,8,8,9,9,10,10,11,11,12,12,13,13,14,14,15,15,17,17,18,18,21,21,22,22,23,23,24,24,25,25,26,26,27,27,28,28,29,29,30,30,32,32,34,34,37,37,38,38,39,39,40,40,41,41,42,42,43,43,44,44,45,45,46,46,47,47,48,48,49,49,50,50,51,51,52,52,53,53,55,55],"right_children":[2,4,6,8,10,12,14,16,18,20,22,24,26,28,30,32,-1,34,36,-1,-1,38,40,42,44,46,48,50,52,54,56,-1,58,-1,60,-1,-1,62,64,66,68,70,72,74,76,78,80,82,84,86,88,90,92,94,-1,96,-1,-1,-1,-1,-1,-1,-1,-1,-1,-1,-1,-1,-1,-1,-1,-1,-1,-1,-1,-1,-1,-1,-1,-1,-1,-1,-1,-1,-1,-1,-1,-1,-1,-1,-1,-1,-1,-1,-1,-1,-1],"split_conditions":[5E-1,1.0786446E2,8.5E0,2.26178E1,1.0974097E2,6.5E0,8.042358E0,1.0695572E2,2.3636425E1,9.0204796E1,1.1342237E2,2.2266895E1,7.4868256E1,7.8384633E0,5.7224274E1,9.091496E1,-1.2788545E-1,9.320145E1,2.3866398E1,4.721146E-1,2.03507E0,1.1290786E2,6.383147E0,1.7027428E1,9.21168E1,3.5476234E1,7.836056E1,7.630167E0,8.005338E0,5.3066322E1,6.537787E1,7.057526E-1,9.2673546E1,4.191124E-1,2.2942726E1,8.755591E-1,3.344437E-1,1.1057231E2,2.2832394E1,2.373254E1,2.2175827E1,8.172844E0,8.374743E1,7.539308E0,1.3492694E2,2.9629887E1,6.776384E1,1.7371596E2,8.218965E1,1.5777572E1,2.44865E1,1.2945531E1,2.86665E1,8.6282215E0,-1.0481563E0,2.9346573E1,-7.8991E-1,1.8566104E0,4.393021E-1,1.7211457E-1,-1.2788545E-1,2.0761108E-1,1.1753833E0,2.9486086E-2,1.7211457E-1,1.5130403E0,6.169853E-1,2.2114564E-2,7.452278E-1,4.6948245E-1,-3.4196517E-1,8.290237E-1,3.5138276E-1,-4.3577733E-3,4.9243823E-1,4.050503E-1,1.2147672E-1,1.2012137E0,1.8719815E0,-1.1177674E-1,9.595118E-1,6.6156894E-1,2.3519154E-1,-4.4918012E-2,4.37607E-1,-2.1302952E-1,2.0330131E-1,-6.801511E-1,2.821466E-1,2.8528834E-2,8.820109E-1,-3.201456E-1,5.161449E-1,-4.0776113E-1,2.9032844E-1,9.568624E-1,8.3633425E-4],"split_indices":[4,3,4,0,3,4,2,3,0,1,3,0,3,2,1,1,0,1,0,0,0,3,2,1,3,0,1,2,2,1,3,0,1,0,0,0,0,3,0,0,0,2,3,2,3,0,3,3,1,0,0,0,0,2,0,0,0,0,0,0,0,0,0,0,0,0,0,0,0,0,0,0,0,0,0,0,0,0,0,0,0,0,0,0,0,0,0,0,0,0,0,0,0,0,0,0,0],"split_type":[0,0,0,0,0,0,0,0,0,0,0,0,0,0,0,0,0,0,0,0,0,0,0,0,0,0,0,0,0,0,0,0,0,0,0,0,0,0,0,0,0,0,0,0,0,0,0,0,0,0,0,0,0,0,0,0,0,0,0,0,0,0,0,0,0,0,0,0,0,0,0,0,0,0,0,0,0,0,0,0,0,0,0,0,0,0,0,0,0,0,0,0,0,0,0,0,0],"sum_hessian":[1.76E3,7.7E1,1.683E3,2.5E1,5.2E1,6.35E2,1.048E3,1.2E1,1.3E1,9E0,4.3E1,4.72E2,1.63E2,1.018E3,3E1,1.1E1,1E0,7E0,6E0,1E0,8E0,9E0,3.4E1,7.9E1,3.93E2,8.5E1,7.8E1,1.007E3,1.1E1,1.7E1,1.3E1,4E0,7E0,5E0,2E0,4E0,2E0,6E0,3E0,3E1,4E0,3.8E1,4.1E1,1.58E2,2.35E2,7.3E1,1.2E1,3E1,4.8E1,9.83E2,2.4E1,9E0,2E0,1E1,7E0,1E1,3E0,6E0,1E0,1E0,1E0,2E0,4E0,2E0,1E0,2.7E1,3E0,1E0,3E0,3.2E1,6E0,2.8E1,1.3E1,1.37E2,2.1E1,1.05E2,1.3E2,6.2E1,1.1E1,2E0,1E1,1.7E1,1.3E1,2.2E1,2.6E1,2E1,9.63E2,1.3E1,1.1E1,1E0,8E0,1E0,1E0,4E0,6E0,6E0,4E0],"tree_param":{"num_deleted":"0","num_feature":"5","num_nodes":"97","size_leaf_vector":"0"}},{"base_weights":[7.1765107E-1,3.1149006E0,6.061884E-1,4.4616485E0,2.8272011E0,9.1246617E-1,4.199169E-1,1.874466E0,5.1157684E0,1.8552048E0,3.0957644E0,5.531755E-1,1.9431493E0,-2.643781E0,4.2829433E-1,2.516805E0,2.2280376E-1,1.969501E0,3.6009696E0,1.3307745E0,4.1707373E-1,2.9855762E0,7.837587E-1,1.0959685E0,3.9088207E-1,2.864203E0,5.1987714E-1,-3.4503937E-1,4.0538025E-1,3.5693638E0,1.0796027E0,3.8415E0,8.366165E-1,1.0533745E0,3.093889E0,6.0806245E-1,6.423371E-2,4.302419E0,2.6921327E0,6.298798E-1,1.9106085E0,-2.3289725E-1,1.4722309E0,2.3882525E-1,6.214486E-1,3.3409328E0,6.3818866E-1,5.897522E-2,7.2084045E-1,5.9454346E-1,8.1090294E-2,1.7513376E0,4.408512E-1,8.620987E-1,4.1299324E0,1.266571E0,2.71108E-1,8.019007E-1,3.7597961E0,3.2916126E0,7.560501E-1,4.6644256E-1,1.729821E0,-2.590271E0,1.5925738E-1,2.756342E0,5.454734E0,3.00208E0,8.6639404E-1,8.2367724E-1,-1.2596512E0,3.2327049E0,2.0639038E-1,1.4096756E0,-2.3841782E0,1.0902458E0,2.368172E0,1.4847262E-2,4.077477E-1,1.1907301E0,4.7261658E-1],"categories":[],"categories_nodes":[],"categories_segments":[],"categories_sizes":[],"default_left":[1,1,1,1,1,1,1,0,0,1,1,1,1,0,1,1,1,1,1,1,1,1,1,1,1,1,1,0,1,0,1,1,1,1,1,1,1,1,1,1,1,1,1,1,1,0,0,0,0,0,0,0,0,0,0,0,0,0,0,0,0,0,0,0,0,0,0,0,0,0,0,0,0,0,0,0,0,0,0,0,0],"id":12,"left_children":[1,3,5,7,9,11,13,-1,-1,15,17,19,21,-1,23,25,27,29,31,33,35,37,39,41,43,45,47,-1,49,-1,51,53,55,57,59,61,63,65,67,69,71,73,75,77,79,-1,-1,-1,-1,-1,-1,-1,-1,-1,-1,-1,-1,-1,-1,-1,-1,-1,-1,-1,-1,-1,-1,-1,-1,-1,-1,-1,-1,-1,-1,-1,-1,-1,-1,-1,-1],"loss_changes":[4.6865765E2,1.7607788E1,9.569043E1,1.0718597E1,1.1746582E1,2.3444531E2,2.8055893E1,0E0,0E0,1.7799194E1,2.1926605E1,4.95038E1,1.9586713E2,0E0,2.5724823E1,6.8357086E0,7.619209E-1,2.1773376E1,1.9393097E1,3.0977142E1,2.7185883E1,2.1649353E1,1.2495029E1,2.7843002E1,3.4665375E1,8.479927E0,2.3536134E-1,0E0,2.5850695E-1,0E0,4.805854E0,2.307965E1,6.2919426E-1,3.918186E1,1.6715927E0,4.081534E1,3.648295E1,9.90683E0,3.8708496E1,2.7036777E1,1.9611069E1,4.9298176E1,1.213427E1,2.2694893E1,3.281981E1,0E0,0E0,0E0,0E0,0E0,0E0,0E0,0E0,0E0,0E0,0E0,0E0,0E0,0E0,0E0,0E0,0E0,0E0,0E0,0E0,0E0,0E0,0E0,0E0,0E0,0E0,0E0,0E0,0E0,0E0,0E0,0E0,0E0,0E0,0E0,0E0],"parents":[2147483647,0,0,1,1,2,2,3,3,4,4,5,5,6,6,9,9,10,10,11,11,12,12,14,14,15,15,16,16,17,17,18,18,19,19,20,20,21,21,22,22,23,23,24,24,25,25,26,26,28,28,30,30,31,31,32,32,33,33,34,34,35,35,36,36,37,37,38,38,39,39,40,40,41,41,42,42,43,43,44,44],"right_children":[2,4,6,8,10,12,14,-1,-1,16,18,20,22,-1,24,26,28,30,32,34,36,38,40,42,44,46,48,-1,50,-1,52,54,56,58,60,62,64,66,68,70,72,74,76,78,80,-1,-1,-1,-1,-1,-1,-1,-1,-1,-1,-1,-1,-1,-1,-1,-1,-1,-1,-1,-1,-1,-1,-1,-1,-1,-1,-1,-1,-1,-1,-1,-1,-1,-1,-1,-1],"split_conditions":[5E-1,2.1318628E1,8.5E0,1.0518205E2,2.2337461E1,6.5E0,3.6258433E0,5.623398E-1,1.5347306E0,9.297627E1,1.0792106E2,1.9539967E1,7.4868256E1,-7.9313433E-1,2.6521444E1,2.2251816E1,2.1558905E1,1.02805695E2,1.2217012E2,2.023647E1,6.860322E0,1.2114464E1,1.9581085E2,9.074588E1,1.65E1,1.2141554E2,2.2315989E1,-1.0351182E-1,9.366571E1,1.0708092E0,5.810748E0,5.5789633E0,2.2482578E1,1.9081139E1,8.453477E0,6.725579E0,6.875971E0,8.079719E1,8.329004E1,1.914667E2,1.9689035E2,9.037926E1,6.575593E0,2.5276218E1,5.776226E1,1.0022799E0,1.914566E-1,1.7692566E-2,2.1625215E-1,1.7836304E-1,2.432709E-2,5.254013E-1,1.3225538E-1,2.5862962E-1,1.2389798E0,3.7997133E-1,8.13324E-2,2.4057022E-1,1.1279389E0,9.874838E-1,2.2681504E-1,1.3993277E-1,5.189463E-1,-7.770813E-1,4.7777217E-2,8.269026E-1,1.6364202E0,9.0062404E-1,2.599182E-1,2.4710318E-1,-3.7789539E-1,9.698115E-1,6.1917115E-2,4.229027E-1,-7.152535E-1,3.2707375E-1,7.104516E-1,4.4541787E-3,1.2232431E-1,3.5721904E-1,1.4178498E-1],"split_indices":[4,0,4,3,0,4,2,0,0,1,3,1,3,0,3,0,0,3,3,0,2,0,3,1,4,3,0,0,1,0,2,2,0,1,2,2,2,1,1,3,3,1,2,0,3,0,0,0,0,0,0,0,0,0,0,0,0,0,0,0,0,0,0,0,0,0,0,0,0,0,0,0,0,0,0,0,0,0,0,0,0],"split_type":[0,0,0,0,0,0,0,0,0,0,0,0,0,0,0,0,0,0,0,0,0,0,0,0,0,0,0,0,0,0,0,0,0,0,0,0,0,0,0,0,0,0,0,0,0,0,0,0,0,0,0,0,0,0,0,0,0,0,0,0,0,0,0,0,0,0,0,0,0,0,0,0,0,0,0,0,0,0,0,0,0],"sum_hessian":[1.76E3,7.7E1,1.683E3,1.1E1,6.6E1,6.35E2,1.048E3,3E0,8E0,1.6E1,5E1,4.72E2,1.63E2,2E0,1.046E3,1.1E1,5E0,1.7E1,3.3E1,6.9E1,4.03E2,8.5E1,7.8E1,5.4E1,9.92E2,9E0,2E0,1E0,4E0,5E0,1.2E1,3E1,3E0,6.1E1,8E0,2.61E2,1.42E2,1.3E1,7.2E1,7E1,8E0,1.2E1,4.2E1,5.99E2,3.93E2,7E0,2E0,1E0,1E0,2E0,2E0,5E0,7E0,3E0,2.7E1,1E0,2E0,5.7E1,4E0,7E0,1E0,2.33E2,2.8E1,4E0,1.38E2,7E0,6E0,6.1E1,1.1E1,6.4E1,6E0,4E0,4E0,7E0,5E0,3.1E1,1.1E1,2.58E2,3.41E2,8E1,3.13E2],"tree_param":{"num_deleted":"0","num_feature":"5","num_nodes":"81","size_leaf_vector":"0"}},{"base_weights":[5.10832E-1,2.274165E0,4.288541E-1,3.2979114E0,2.0568645E0,1.1833498E0,3.8450927E-1,1.452713E0,3.751565E0,2.2834623E0,1.3131561E0,2.0231118E0,2.8135154E-1,2.6610994E-1,5.583857E-1,4.028513E0,7.679901E-1,1.4299011E0,2.8522513E0,1.7616442E-1,2.205133E0,3.187647E0,1.4994946E0,-1.1065719E-1,2.4812083E0,-1.3567839E0,2.8658822E-1,2.4340775E0,4.974702E-1,-1.2259521E-1,1.7817111E0,3.0018106E-1,3.0301757E0,6.5766907E-1,-5.9013367E-1,3.0291965E0,2.1173859E-1,2.0328007E0,4.0520935E0,1.0917592E0,3.2882555E0,-6.625586E-1,6.75007E-1,3.0251398E0,1.3169746E0,7.560648E-2,-2.8017752E0,3.7577605E0,2.676991E-1,3.2985413E0,3.574246E-1,1.13584094E-1,6.4888597E-1,7.3121643E-1,-5.1885223E-1,2.258478E0,4.5176443E-1,7.4355316E-1,-2.9328156E-1,3.2091558E0,5.286153E-1,5.0498962E-2,-8.2051086E-1,3.2424977E0,8.746948E-1,1.2969971E-3,4.2153168E-1,-8.148575E-1,2.5560172E0,7.826189E-1,3.613149E0,4.023884E0,1.2113323E0,3.0557832E-1,-1.375912E0,1.8974448E0,-6.2243164E-1,-1.3540903E0,9.183033E-1,2.8937712E-1,-1.1775277E0,3.584802E0,1.0539856E0,-1.8670273E-1,1.8110943E0,7.016088E-1,-3.846799E-1,1.8841523E0,5.298024E-1],"categories":[],"categories_nodes":[],"categories_segments":[],"categories_sizes":[],"default_left":[1,1,1,1,1,1,1,0,1,1,1,1,1,1,1,0,0,1,1,1,1,1,1,1,1,1,1,1,1,1,1,1,1,0,1,1,1,1,0,1,1,1,1,0,0,1,0,0,1,1,1,1,1,0,0,0,0,0,0,0,0,0,0,0,0,0,0,0,0,0,0,0,0,0,0,0,0,0,0,0,0,0,0,0,0,0,0,0,0],"id":13,"left_children":[1,3,5,7,9,11,13,-1,15,17,19,21,23,25,27,-1,-1,29,31,33,35,37,39,41,43,45,47,49,51,53,55,57,59,-1,61,63,65,67,-1,69,71,73,75,-1,-1,77,-1,-1,79,81,83,85,87,-1,-1,-1,-1,-1,-1,-1,-1,-1,-1,-1,-1,-1,-1,-1,-1,-1,-1,-1,-1,-1,-1,-1,-1,-1,-1,-1,-1,-1,-1,-1,-1,-1,-1,-1,-1],"loss_changes":[2.535849E2,1.05685425E1,5.5888245E1,4.5950165E0,8.29248E0,6.987492E1,3.2625687E1,0E0,4.3427887E0,2.019635E1,1.78666E1,2.4489151E1,3.994326E1,3.1927956E1,7.237178E1,0E0,0E0,1.2234474E1,1.2258591E1,3.7088976E0,1.5785442E1,5.7391357E0,2.193695E1,1.7791597E1,4.4881058E-1,2.5049337E1,6.0496292E1,3.472486E1,3.625528E1,2.0710375E0,1.039304E1,1.0074447E0,1.0392288E1,0E0,6.3178337E-1,3.8071442E-1,1.7605004E-1,1.4002323E1,0E0,2.0556175E1,4.292801E0,1.6995419E1,2.8143677E1,0E0,0E0,9.677073E0,0E0,0E0,2.9602676E1,5.2170563E0,5.8750057E0,5.242239E1,6.490254E1,0E0,0E0,0E0,0E0,0E0,0E0,0E0,0E0,0E0,0E0,0E0,0E0,0E0,0E0,0E0,0E0,0E0,0E0,0E0,0E0,0E0,0E0,0E0,0E0,0E0,0E0,0E0,0E0,0E0,0E0,0E0,0E0,0E0,0E0,0E0,0E0],"parents":[2147483647,0,0,1,1,2,2,3,3,4,4,5,5,6,6,8,8,9,9,10,10,11,11,12,12,13,13,14,14,17,17,18,18,19,19,20,20,21,21,22,22,23,23,24,24,25,25,26,26,27,27,28,28,29,29,30,30,31,31,32,32,34,34,35,35,36,36,37,37,39,39,40,40,41,41,42,42,45,45,48,48,49,49,50,50,51,51,52,52],"right_children":[2,4,6,8,10,12,14,-1,16,18,20,22,24,26,28,-1,-1,30,32,34,36,38,40,42,44,46,48,50,52,54,56,58,60,-1,62,64,66,68,-1,70,72,74,76,-1,-1,78,-1,-1,80,82,84,86,88,-1,-1,-1,-1,-1,-1,-1,-1,-1,-1,-1,-1,-1,-1,-1,-1,-1,-1,-1,-1,-1,-1,-1,-1,-1,-1,-1,-1,-1,-1,-1,-1,-1,-1,-1,-1],"split_conditions":[5E-1,2.1318628E1,1.7928133E1,1.0518205E2,9.320126E1,8.489842E1,8.219842E1,4.3581393E-1,6.2986755E0,9.14791E1,9.4096855E1,1.2114464E1,1.2066712E2,1.8198204E1,8.252615E1,1.2085539E0,2.3039705E-1,5.6837173E0,2.1417706E1,9.3512764E1,6.054515E0,8.079719E1,1.7580376E1,1.5949557E1,5.8179607E0,1.8078932E1,1.4773741E1,6.9135194E0,2.4692974E1,5.540994E0,1.1296677E2,2.1395742E1,2.3805151E1,1.9730073E-1,2.2380878E1,2.3493698E1,9.4786545E1,9.693415E0,1.2156281E0,8.222578E1,1.7902143E1,1.0704028E2,6.797858E0,9.07542E-1,3.950924E-1,1.7999699E1,-8.405326E-1,1.1273282E0,8.197285E1,3.7385048E1,2.5455768E2,2.2653198E1,2.522254E1,2.1936494E-1,-1.5565568E-1,6.775434E-1,1.3552934E-1,2.2306596E-1,-8.798447E-2,9.627468E-1,1.585846E-1,1.5149689E-2,-2.4615327E-1,9.7274935E-1,2.6240847E-1,3.8909915E-4,1.2645951E-1,-2.4445726E-1,7.668052E-1,2.3478568E-1,1.0839447E0,1.2071652E0,3.633997E-1,9.16735E-2,-4.127736E-1,5.692335E-1,-1.8672949E-1,-4.062271E-1,2.75491E-1,8.681314E-2,-3.532583E-1,1.0754406E0,3.161957E-1,-5.601082E-2,5.433283E-1,2.1048264E-1,-1.1540398E-1,5.652457E-1,1.5894072E-1],"split_indices":[4,0,0,3,1,3,1,0,2,1,1,0,3,0,1,0,0,2,0,1,2,1,0,0,2,0,1,2,0,2,3,0,0,0,0,0,1,0,0,3,0,3,2,0,0,0,0,0,1,0,3,0,0,0,0,0,0,0,0,0,0,0,0,0,0,0,0,0,0,0,0,0,0,0,0,0,0,0,0,0,0,0,0,0,0,0,0,0,0],"split_type":[0,0,0,0,0,0,0,0,0,0,0,0,0,0,0,0,0,0,0,0,0,0,0,0,0,0,0,0,0,0,0,0,0,0,0,0,0,0,0,0,0,0,0,0,0,0,0,0,0,0,0,0,0,0,0,0,0,0,0,0,0,0,0,0,0,0,0,0,0,0,0,0,0,0,0,0,0,0,0,0,0,0,0,0,0,0,0,0,0],"sum_hessian":[1.76E3,7.7E1,1.683E3,1.1E1,6.6E1,9.2E1,1.591E3,3E0,8E0,4.9E1,1.7E1,4.7E1,4.5E1,9.48E2,6.43E2,7E0,1E0,2.1E1,2.8E1,8E0,9E0,1.3E1,3.4E1,3.9E1,6E0,1.1E1,9.37E2,1.9E1,6.24E2,4E0,1.7E1,2E0,2.6E1,5E0,3E0,6E0,3E0,7E0,6E0,2.9E1,5E0,2.3E1,1.6E1,3E0,3E0,6E0,5E0,4E0,9.33E2,1.3E1,6E0,1.77E2,4.47E2,1E0,3E0,1.2E1,5E0,1E0,1E0,2.4E1,2E0,1E0,2E0,5E0,1E0,2E0,1E0,1E0,6E0,2.7E1,2E0,3E0,2E0,1E1,1.3E1,8E0,8E0,2E0,4E0,9.2E2,1.3E1,1.1E1,2E0,5E0,1E0,8.1E1,9.6E1,3.8E1,4.09E2],"tree_param":{"num_deleted":"0","num_feature":"5","num_nodes":"89","size_leaf_vector":"0"}},{"base_weights":[3.654844E-1,1.6603278E0,3.0529243E-1,2.377895E0,1.4662054E0,5.026033E-1,1.8537346E-1,2.655143E0,1.2923706E0,-4.6278077E-1,1.6025175E0,2.711041E-1,1.1672162E0,-7.9080254E-1,2.0511526E-1,1.7401085E0,-2.4929047E-1,2.3644511E-1,-1.0077463E0,9.053276E-1,1.9035243E0,6.2737006E-1,9.54796E-2,1.7802716E0,4.339378E-1,1.1832597E0,-2.09663E0,2.2940819E-1,-5.8436036E-1,1.2773247E0,-4.6612853E-1,2.1778922E0,1.1450477E0,7.673614E-1,-1.1164728E0,-1.0075958E0,2.2242369E-1,3.1564286E0,1.5859987E0,-8.698358E-2,7.0655656E-1,-4.7425333E-1,1.7245854E0,-9.279104E-1,-2.9658313E0,1.5757819E-1,5.714544E-1,-1.3369968E0,4.250551E-1,1.9884415E0,7.7332234E-1,-1.0621237E0,2.852427E-1,1.4779663E0,3.0462902E0,4.8545837E-2,1.8242931E0,5.756077E-1,2.2774E0,-1.3043088E0,4.7486115E-1,-1.3160517E0,2.5156467E0,3.0730643E0,1.81346E-1,1.1202164E0,3.86906E0,8.3038986E-1,2.1264403E0,-1.9964567E0,4.3773565E-1,2.3379672E0,2.4025469E-1,1.4953995E-1,1.9621696E0,-1.5829258E0,4.730854E-1,2.0276952E-1,-1.67603E0,2.7459846E0,4.6321526E-1,1.4586575E-1,-2.5378735E0,1.3400534E0,-2.197454E0],"categories":[],"categories_nodes":[],"categories_segments":[],"categories_sizes":[],"default_left":[1,1,1,1,1,1,1,0,1,1,1,1,1,1,1,0,0,0,0,1,1,1,1,1,1,1,1,1,1,1,1,1,1,1,1,1,1,1,1,1,1,0,1,1,0,1,1,1,1,0,0,0,0,0,0,0,0,0,0,0,0,0,0,0,0,0,0,0,0,0,0,0,0,0,0,0,0,0,0,0,0,0,0,0,0],"id":14,"left_children":[1,3,5,7,9,11,13,-1,15,17,19,21,23,25,27,-1,-1,-1,-1,29,31,33,35,37,39,41,43,45,47,49,51,53,55,57,59,61,63,65,67,69,71,-1,73,75,-1,77,79,81,83,-1,-1,-1,-1,-1,-1,-1,-1,-1,-1,-1,-1,-1,-1,-1,-1,-1,-1,-1,-1,-1,-1,-1,-1,-1,-1,-1,-1,-1,-1,-1,-1,-1,-1,-1,-1],"loss_changes":[1.3674397E2,7.378601E0,3.9752487E1,1.0829697E0,1.7570038E1,9.7536835E1,2.037799E1,0E0,3.8850927E0,2.143547E0,1.0868225E1,2.9535248E1,7.29521E1,5.661434E1,1.9868908E1,0E0,0E0,0E0,0E0,1.079895E1,6.038376E0,3.8939915E1,4.4753304E1,1.8788055E1,1.0854443E1,8.893179E0,1.0454052E1,2.445456E1,2.4119709E1,4.196766E0,2.542031E0,1.3124298E1,9.59376E0,4.0674644E1,4.2062826E0,3.9173958E1,3.2932663E1,1.0176506E1,3.0903229E1,2.7926226E1,3.7474785E1,0E0,2.3260193E0,7.1725764E0,0E0,6.886769E1,3.94469E1,3.242342E1,3.6538986E1,0E0,0E0,0E0,0E0,0E0,0E0,0E0,0E0,0E0,0E0,0E0,0E0,0E0,0E0,0E0,0E0,0E0,0E0,0E0,0E0,0E0,0E0,0E0,0E0,0E0,0E0,0E0,0E0,0E0,0E0,0E0,0E0,0E0,0E0,0E0,0E0],"parents":[2147483647,0,0,1,1,2,2,3,3,4,4,5,5,6,6,8,8,9,9,10,10,11,11,12,12,13,13,14,14,19,19,20,20,21,21,22,22,23,23,24,24,25,25,26,26,27,27,28,28,29,29,30,30,31,31,32,32,33,33,34,34,35,35,36,36,37,37,38,38,39,39,40,40,42,42,43,43,45,45,46,46,47,47,48,48],"right_children":[2,4,6,8,10,12,14,-1,16,18,20,22,24,26,28,-1,-1,-1,-1,30,32,34,36,38,40,42,44,46,48,50,52,54,56,58,60,62,64,66,68,70,72,-1,74,76,-1,78,80,82,84,-1,-1,-1,-1,-1,-1,-1,-1,-1,-1,-1,-1,-1,-1,-1,-1,-1,-1,-1,-1,-1,-1,-1,-1,-1,-1,-1,-1,-1,-1,-1,-1,-1,-1,-1,-1],"split_conditions":[5E-1,2.1562971E1,8.5E0,1.1656959E2,2.2004585E1,6.5E0,4.6598225E0,7.9654294E-1,2.1300156E1,5.9041185E0,1.0792106E2,6.30247E1,1.5044128E2,2.8370863E1,8.042358E0,5.2203256E-1,-7.478714E-2,7.0933536E-2,-3.023239E-1,1.0636157E2,9.320126E1,1.9155292E2,6.569742E1,8.018503E1,1.6739035E2,3.625791E1,4.873802E1,6.978751E0,5.7224274E1,2.26178E1,2.2764816E1,9.191365E1,9.4096855E1,6.127813E1,1.9855876E2,7.611803E0,6.133072E1,1.2396447E1,8.162309E1,6.273029E0,1.7464742E2,-1.42276E-1,1.984174E1,4.6770317E1,-8.897494E-1,6.94358E0,6.990011E0,4.9887356E1,6.537787E1,5.9653246E-1,2.3199672E-1,-3.186371E-1,8.557282E-2,4.4338992E-1,9.138871E-1,1.4563751E-2,5.4728794E-1,1.7268232E-1,6.8322E-1,-3.9129266E-1,1.4245835E-1,-3.9481553E-1,7.5469404E-1,9.2191935E-1,5.44038E-2,3.3606493E-1,1.1607181E0,2.4911697E-1,6.379321E-1,-5.9893703E-1,1.313207E-1,7.0139015E-1,7.207641E-2,4.4861987E-2,5.8865094E-1,-4.7487774E-1,1.4192563E-1,6.0830858E-2,-5.0280905E-1,8.237954E-1,1.3896458E-1,4.3759726E-2,-7.613621E-1,4.0201604E-1,-6.592362E-1],"split_indices":[4,0,4,3,0,4,2,0,0,2,3,1,3,0,2,0,0,0,0,3,1,3,1,1,3,3,1,2,1,0,0,1,1,1,3,2,3,0,1,2,3,0,0,1,0,2,2,1,3,0,0,0,0,0,0,0,0,0,0,0,0,0,0,0,0,0,0,0,0,0,0,0,0,0,0,0,0,0,0,0,0,0,0,0,0],"split_type":[0,0,0,0,0,0,0,0,0,0,0,0,0,0,0,0,0,0,0,0,0,0,0,0,0,0,0,0,0,0,0,0,0,0,0,0,0,0,0,0,0,0,0,0,0,0,0,0,0,0,0,0,0,0,0,0,0,0,0,0,0,0,0,0,0,0,0,0,0,0,0,0,0,0,0,0,0,0,0,0,0,0,0,0,0],"sum_hessian":[1.76E3,7.7E1,1.683E3,1.4E1,6.3E1,6.35E2,1.048E3,1E1,4E0,4E0,5.9E1,4.72E2,1.63E2,2E1,1.028E3,3E0,1E0,2E0,2E0,1.9E1,4E1,1.55E2,3.17E2,8.8E1,7.5E1,8E0,1.2E1,9.98E2,3E1,1.5E1,4E0,2.8E1,1.2E1,1.44E2,1.1E1,3.2E1,2.85E2,9E0,7.9E1,2.6E1,4.9E1,2E0,6E0,6E0,6E0,8.26E2,1.72E2,1.7E1,1.3E1,5E0,1E1,2E0,2E0,1.7E1,1.1E1,5E0,7E0,1.29E2,1.5E1,1E1,1E0,3E1,2E0,3E0,2.82E2,3E0,6E0,3.4E1,4.5E1,5E0,2.1E1,1E1,3.9E1,1E0,5E0,4E0,2E0,8.07E2,1.9E1,7E0,1.65E2,8E0,9E0,1E1,3E0],"tree_param":{"num_deleted":"0","num_feature":"5","num_nodes":"85","size_leaf_vector":"0"}},{"base_weights":[2.5979972E-1,1.2074475E0,2.1575202E-1,9.730306E-1,1.7257041E0,3.267704E-1,8.8194944E-2,1.0755446E0,-6.285362E-1,2.5309465E0,1.1275116E0,6.439731E-1,1.9266962E-1,-1.9960027E0,1.3138841E-1,1.5910034E0,7.4069977E-1,2.9974518E0,-6.005478E-1,1.4161835E0,-2.0381927E-2,7.061724E-2,1.1045052E0,4.2531157E-1,-1.8091919E-1,-2.5966299E0,-5.621856E-1,-6.931847E-2,3.6136013E-1,6.7463344E-1,2.1456974E0,-3.0621338E-1,1.0234629E0,2.919515E-3,1.6985443E0,1.8529765E-1,-3.1871033E-1,-8.9355797E-1,3.4680992E-1,1.5056363E0,6.601772E-1,3.4763604E-1,2.349202E0,-2.6703045E-1,1.8607876E0,-3.066583E0,-1.0075665E0,1.2257209E0,-2.7586658E0,4.7083986E-3,-2.341736E0,1.528242E0,2.1025193E-1,-1.7717488E-1,9.4331795E-1,1.3070242E0,2.766533E0,8.167114E-1,-8.166402E-1,1.2873913E0,3.525628E-1,7.549057E-1,-7.505264E-1,5.670064E-1,1.910553E0,3.564453E-2,2.4230194E-1,1.2156205E0,-1.207856E0,4.6105993E-1,-1.779052E0,1.7121391E0,-8.0398285E-1,-1.2023305E0,9.799741E-1,2.5448522E-1,1.2798789E0,3.675101E0,3.0887413E-1,-1.3369067E0,-1.1585442E-1,1.320734E-1,2.5827975E0,-9.1055965E-1,-3.2445064E0,-4.0304884E-1,-1.4105597E0,-7.304264E-1,1.4171663E-1,-8.555862E-1,-3.4933524E0,1.2645994E-1,1.7649343E0,3.2144955E-1,-7.3130023E-1],"categories":[],"categories_nodes":[],"categories_segments":[],"categories_sizes":[],"default_left":[1,1,1,1,1,1,1,1,0,1,1,1,1,1,1,1,1,0,0,1,1,1,1,1,1,1,1,1,1,1,1,1,1,1,1,1,0,1,1,1,1,1,1,1,1,1,1,0,0,1,1,1,1,0,0,0,0,0,0,0,0,0,0,0,0,0,0,0,0,0,0,0,0,0,0,0,0,0,0,0,0,0,0,0,0,0,0,0,0,0,0,0,0,0,0],"id":15,"left_children":[1,3,5,7,9,11,13,15,-1,17,19,21,23,25,27,29,31,-1,-1,33,35,37,39,41,43,45,47,49,51,53,55,57,59,61,63,65,-1,67,69,71,73,75,77,79,81,83,85,-1,-1,87,89,91,93,-1,-1,-1,-1,-1,-1,-1,-1,-1,-1,-1,-1,-1,-1,-1,-1,-1,-1,-1,-1,-1,-1,-1,-1,-1,-1,-1,-1,-1,-1,-1,-1,-1,-1,-1,-1,-1,-1,-1,-1,-1,-1],"loss_changes":[7.324663E1,7.7969055E0,2.3818611E1,9.870262E0,8.225189E0,3.8159348E1,7.093087E1,7.9692726E0,0E0,1.4947842E1,4.9993324E0,7.042301E1,5.5179424E1,1.2319248E1,3.5565865E1,8.718536E0,1.0378366E1,0E0,0E0,4.7836456E0,3.0449653E-1,3.226567E1,2.5384628E1,5.761405E1,4.3395493E1,5.1248474E0,2.694396E1,6.931765E1,6.2979507E1,2.2269416E0,2.6322098E0,5.2523274E0,4.32699E0,2.2663195E0,1.3156624E0,1.6955875E-2,0E0,1.936689E1,2.3650944E1,3.810112E1,4.4063194E1,3.241267E1,3.9443886E1,3.7853928E1,1.2140369E1,1.145401E-1,4.059415E-1,0E0,0E0,4.0391315E1,1.92603E1,1.3380241E1,3.3633854E1,0E0,0E0,0E0,0E0,0E0,0E0,0E0,0E0,0E0,0E0,0E0,0E0,0E0,0E0,0E0,0E0,0E0,0E0,0E0,0E0,0E0,0E0,0E0,0E0,0E0,0E0,0E0,0E0,0E0,0E0,0E0,0E0,0E0,0E0,0E0,0E0,0E0,0E0,0E0,0E0,0E0,0E0],"parents":[2147483647,0,0,1,1,2,2,3,3,4,4,5,5,6,6,7,7,9,9,10,10,11,11,12,12,13,13,14,14,15,15,16,16,19,19,20,20,21,21,22,22,23,23,24,24,25,25,26,26,27,27,28,28,29,29,30,30,31,31,32,32,33,33,34,34,35,35,37,37,38,38,39,39,40,40,41,41,42,42,43,43,44,44,45,45,46,46,49,49,50,50,51,51,52,52],"right_children":[2,4,6,8,10,12,14,16,-1,18,20,22,24,26,28,30,32,-1,-1,34,36,38,40,42,44,46,48,50,52,54,56,58,60,62,64,66,-1,68,70,72,74,76,78,80,82,84,86,-1,-1,88,90,92,94,-1,-1,-1,-1,-1,-1,-1,-1,-1,-1,-1,-1,-1,-1,-1,-1,-1,-1,-1,-1,-1,-1,-1,-1,-1,-1,-1,-1,-1,-1,-1,-1,-1,-1,-1,-1,-1,-1,-1,-1,-1,-1],"split_conditions":[5E-1,6.0783873E0,9.5565765E1,6.0516014E0,6.2209005E0,6.233053E0,9.64709E1,2.2482578E1,-1.8856087E-1,1.1511009E2,9.366571E1,6.753056E1,2.7884768E1,2.9377258E1,2.5623093E1,1.1352243E2,2.2734196E1,8.9923555E-1,-1.8016434E-1,6.2702007E0,2.3286623E1,5.325846E1,8.316244E1,9.193415E1,9.442444E1,6.6473455E0,3.291901E1,2.5520437E1,2.6037346E1,9.050158E1,2.1914526E1,1.060399E2,5.8406296E0,2.226284E1,1.0519833E2,2.2533106E1,-9.56131E-2,4.593205E1,6.441488E1,9.027237E1,8.3581055E1,2.7449284E1,8.069921E1,2.818148E1,6.373453E0,5.19727E0,2.6292154E1,3.6771628E-1,-8.2759976E-1,1.056355E2,7.409459E1,1.0103197E2,7.131912E0,-5.3152468E-2,2.829954E-1,3.9210728E-1,8.299599E-1,2.4501343E-1,-2.4499206E-1,3.8621742E-1,1.0576884E-1,2.2647172E-1,-2.2515793E-1,1.7010193E-1,5.731659E-1,1.069336E-2,7.2690584E-2,3.6468616E-1,-3.6235684E-1,1.3831799E-1,-5.337156E-1,5.136418E-1,-2.4119486E-1,-3.6069915E-1,2.9399225E-1,7.634557E-2,3.8396367E-1,1.1025304E0,9.2662245E-2,-4.0107203E-1,-3.475633E-2,3.9622024E-2,7.748393E-1,-2.731679E-1,-9.7335196E-1,-1.2091466E-1,-4.231679E-1,-2.1912792E-1,4.251499E-2,-2.5667587E-1,-1.0480058E0,3.7937984E-2,5.2948034E-1,9.643487E-2,-2.1939008E-1],"split_indices":[4,2,3,2,2,2,3,0,0,3,1,1,0,0,0,3,0,0,0,2,0,3,1,3,1,2,0,0,0,1,0,3,2,0,3,0,0,1,1,3,1,0,1,0,2,2,0,0,0,3,1,3,2,0,0,0,0,0,0,0,0,0,0,0,0,0,0,0,0,0,0,0,0,0,0,0,0,0,0,0,0,0,0,0,0,0,0,0,0,0,0,0,0,0,0],"split_type":[0,0,0,0,0,0,0,0,0,0,0,0,0,0,0,0,0,0,0,0,0,0,0,0,0,0,0,0,0,0,0,0,0,0,0,0,0,0,0,0,0,0,0,0,0,0,0,0,0,0,0,0,0,0,0,0,0,0,0,0,0,0,0,0,0,0,0,0,0,0,0,0,0,0,0,0,0,0,0,0,0,0,0,0,0,0,0,0,0,0,0,0,0,0,0],"sum_hessian":[1.76E3,7.7E1,1.683E3,5.5E1,2.2E1,8.99E2,7.84E2,5.2E1,3E0,8E0,1.4E1,2.66E2,6.33E2,1.5E1,7.69E2,1.9E1,3.3E1,7E0,1E0,1.1E1,3E0,1.19E2,1.47E2,3.9E2,2.43E2,1E1,5E0,4.11E2,3.58E2,8E0,1.1E1,7E0,2.6E1,2E0,9E0,2E0,1E0,2.6E1,9.3E1,7.6E1,7.1E1,3.76E2,1.4E1,2.34E2,9E0,7E0,3E0,3E0,2E0,3.99E2,1.2E1,4E1,3.18E2,2E0,6E0,6E0,5E0,2E0,5E0,1.8E1,8E0,1E0,1E0,2E0,7E0,1E0,1E0,3E0,2.3E1,8.9E1,4E0,7E1,6E0,1E1,6.1E1,3.43E2,3.3E1,8E0,6E0,2.8E1,2.06E2,3E0,6E0,1E0,6E0,2E0,1E0,6.2E1,3.37E2,6E0,6E0,6E0,3.4E1,2.85E2,3.3E1],"tree_param":{"num_deleted":"0","num_feature":"5","num_nodes":"95","size_leaf_vector":"0"}},{"base_weights":[1.8286276E-1,8.863273E-1,1.501709E-1,1.0263158E0,3.976095E-1,1.2953037E-1,6.880647E-1,6.5789324E-1,1.2706778E0,2.195299E-1,1.8015213E0,2.3079121E-1,3.474726E-3,1.7459371E0,1.800295E-1,1.2808269E0,1.8850803E-1,2.0176115E0,8.9119995E-1,4.4706398E-1,-4.6147156E-1,1.6460321E0,2.081935E-1,-1.5378569E0,3.825305E-2,4.9203977E-1,2.9506307E0,6.094685E-1,-8.5786587E-1,1.7469788E-1,1.5072225E0,7.2587967E-1,-3.1010097E-1,1.0311633E0,-1.0139847E-1,-3.270111E-1,5.3176296E-1,-9.03389E-1,6.5309906E-1,4.419586E-1,2.0834656E0,1.8063013E-1,1.3940337E0,-1.9804229E0,-4.701767E-1,7.959931E-2,-9.0020406E-1,2.3021383E0,-4.7451448E-1,3.2189658E0,2.67807E-1,1.6171753E-1,2.1215122E0,2.0240238E-2,-1.6134197E0,4.7480774E-1,-2.1276093E-1,1.449585E-4,1.6955891E0,-1.6580963E-1,8.769509E-1,-5.2090675E-1,2.851461E-1,3.84552E-2,1.2496287E0,-5.1446533E-1,2.0777893E-1,6.2122726E-1,-2.7090454E-1,-1.1345825E0,-1.04904175E-1,4.676819E-3,1.0955429E0,9.304718E-1,2.6970494E0,1.3184759E-1,7.3486763E-1,-1.0157609E0,1.8790423E0,-2.037344E-1,-2.1377182E0,9.49934E-1,-2.206932E0,4.5673575E-2,1.484663E0,-1.5001384E0,1.2853142E0,4.3757248E-1,-8.514722E-1,-8.0707043E-1,1.4680904E0,2.6449342E0,5.4197186E-1,-1.759695E0,6.1017865E-1,-2.0451057E0,4.88348E-1],"categories":[],"categories_nodes":[],"categories_segments":[],"categories_sizes":[],"default_left":[1,1,1,1,1,1,1,1,1,1,0,1,1,1,1,1,1,0,1,1,1,1,1,1,1,1,1,1,1,1,1,1,1,1,1,0,1,1,0,1,1,1,1,1,1,1,1,0,1,0,0,1,1,1,1,0,0,0,0,0,0,0,0,0,0,0,0,0,0,0,0,0,0,0,0,0,0,0,0,0,0,0,0,0,0,0,0,0,0,0,0,0,0,0,0,0,0],"id":16,"left_children":[1,3,5,7,9,11,13,15,17,19,-1,21,23,25,27,29,31,-1,33,35,37,39,41,43,45,47,49,51,53,55,57,59,61,63,65,-1,67,69,-1,71,73,75,77,79,81,83,85,-1,87,-1,-1,89,91,93,95,-1,-1,-1,-1,-1,-1,-1,-1,-1,-1,-1,-1,-1,-1,-1,-1,-1,-1,-1,-1,-1,-1,-1,-1,-1,-1,-1,-1,-1,-1,-1,-1,-1,-1,-1,-1,-1,-1,-1,-1,-1,-1],"loss_changes":[4.036562E1,4.9282875E0,1.8607346E1,4.5657425E0,4.3546658E0,2.0715979E1,3.300674E1,7.3608475E0,8.122471E0,2.9954262E0,0E0,2.844038E1,3.88688E1,2.875941E1,1.9688492E1,2.4913406E0,4.5121098E0,0E0,3.5777435E0,1.091779E0,3.0527432E0,6.453026E0,2.8740448E1,6.6291504E0,2.758206E1,2.033754E1,6.336891E0,2.0644508E1,8.657588E0,4.4986117E-1,2.5547009E0,1.2230759E0,1.277868E0,4.723137E0,6.177388E-1,0E0,1.1018248E0,6.1939573E-1,0E0,1.4238789E0,4.565056E0,2.337133E1,2.5284073E1,2.638588E0,1.6894749E1,3.2346317E1,4.126317E1,0E0,3.1231265E0,0E0,0E0,3.282481E1,4.35388E0,8.424093E0,7.349848E0,0E0,0E0,0E0,0E0,0E0,0E0,0E0,0E0,0E0,0E0,0E0,0E0,0E0,0E0,0E0,0E0,0E0,0E0,0E0,0E0,0E0,0E0,0E0,0E0,0E0,0E0,0E0,0E0,0E0,0E0,0E0,0E0,0E0,0E0,0E0,0E0,0E0,0E0,0E0,0E0,0E0,0E0],"parents":[2147483647,0,0,1,1,2,2,3,3,4,4,5,5,6,6,7,7,8,8,9,9,11,11,12,12,13,13,14,14,15,15,16,16,18,18,19,19,20,20,21,21,22,22,23,23,24,24,25,25,26,26,27,27,28,28,29,29,30,30,31,31,32,32,33,33,34,34,36,36,37,37,39,39,40,40,41,41,42,42,43,43,44,44,45,45,46,46,48,48,51,51,52,52,53,53,54,54],"right_children":[2,4,6,8,10,12,14,16,18,20,-1,22,24,26,28,30,32,-1,34,36,38,40,42,44,46,48,50,52,54,56,58,60,62,64,66,-1,68,70,-1,72,74,76,78,80,82,84,86,-1,88,-1,-1,90,92,94,96,-1,-1,-1,-1,-1,-1,-1,-1,-1,-1,-1,-1,-1,-1,-1,-1,-1,-1,-1,-1,-1,-1,-1,-1,-1,-1,-1,-1,-1,-1,-1,-1,-1,-1,-1,-1,-1,-1,-1,-1,-1,-1],"split_conditions":[5E-1,2.3348461E1,2.246882E2,9.194065E1,1.2076486E2,9.5565765E1,2.4028033E2,9.0416214E1,9.271084E1,1.1641046E2,5.404564E-1,1.2114464E1,9.64709E1,2.4836668E1,8.375111E1,9.0067276E1,1.0615549E2,6.052835E-1,1.2141554E2,2.3381348E1,2.3901402E1,8.025452E1,9.430408E1,2.9377258E1,7.4674425E0,6.308709E0,3.8323128E1,8.322183E1,6.632867E0,2.2251816E1,2.1142838E1,1.0098241E2,2.27318E1,1.07007706E2,2.2253593E1,-9.810334E-2,6.4518766E0,9.2685196E1,1.9592972E-1,6.31651E0,1.0052253E1,3.1817133E1,5.6340547E0,2.2581749E1,3.291901E1,7.3779397E0,7.821689E0,6.906415E-1,2.1928114E1,9.656898E-1,8.034211E-2,6.763501E0,8.355293E1,8.394015E1,3.3991295E1,1.4244233E-1,-6.382828E-2,4.348755E-5,5.0867677E-1,-4.9742892E-2,2.6308528E-1,-1.5627202E-1,8.5543826E-2,1.153656E-2,3.748886E-1,-1.5433961E-1,6.233368E-2,1.8636818E-1,-8.1271365E-2,-3.4037477E-1,-3.1471252E-2,1.4030457E-3,3.2866287E-1,2.7914155E-1,8.091149E-1,3.955428E-2,2.204603E-1,-3.0472827E-1,5.637127E-1,-6.112032E-2,-6.4131546E-1,2.849802E-1,-6.6207963E-1,1.3702073E-2,4.4539893E-1,-4.5004153E-1,3.8559428E-1,1.3127175E-1,-2.5544167E-1,-2.4212115E-1,4.4042715E-1,7.934803E-1,1.6259156E-1,-5.2790856E-1,1.830536E-1,-6.135317E-1,1.465044E-1],"split_indices":[4,0,3,1,3,3,3,1,1,3,0,0,3,0,1,1,3,0,3,0,0,1,3,0,2,2,0,1,2,0,0,3,0,3,0,0,2,1,0,2,0,0,2,0,0,2,2,0,0,0,0,2,1,1,0,0,0,0,0,0,0,0,0,0,0,0,0,0,0,0,0,0,0,0,0,0,0,0,0,0,0,0,0,0,0,0,0,0,0,0,0,0,0,0,0,0,0],"split_type":[0,0,0,0,0,0,0,0,0,0,0,0,0,0,0,0,0,0,0,0,0,0,0,0,0,0,0,0,0,0,0,0,0,0,0,0,0,0,0,0,0,0,0,0,0,0,0,0,0,0,0,0,0,0,0,0,0,0,0,0,0,0,0,0,0,0,0,0,0,0,0,0,0,0,0,0,0,0,0,0,0,0,0,0,0,0,0,0,0,0,0,0,0,0,0,0,0],"sum_hessian":[1.76E3,7.7E1,1.683E3,5.9E1,1.8E1,1.622E3,6.1E1,2.5E1,3.4E1,1.7E1,1E0,8.99E2,7.23E2,1.9E1,4.2E1,1E1,1.5E1,1E1,2.4E1,1.3E1,4E0,1.3E1,8.86E2,1.5E1,7.08E2,1E1,9E0,3E1,1.2E1,2E0,8E0,7E0,8E0,2.1E1,3E0,1E0,1.2E1,3E0,1E0,4E0,9E0,8.67E2,1.9E1,1E1,5E0,6.79E2,2.9E1,3E0,7E0,8E0,1E0,2.4E1,6E0,6E0,6E0,1E0,1E0,1E0,7E0,1E0,6E0,6E0,2E0,4E0,1.7E1,1E0,2E0,1.1E1,1E0,2E0,1E0,3E0,1E0,4E0,5E0,7.98E2,6.9E1,3E0,1.6E1,1E0,9E0,3E0,2E0,6.64E2,1.5E1,2.3E1,6E0,2E0,5E0,1.4E1,1E1,4E0,2E0,1E0,5E0,5E0,1E0],"tree_param":{"num_deleted":"0","num_feature":"5","num_nodes":"97","size_leaf_vector":"0"}},{"base_weights":[1.3096161E-1,5.0709236E-1,9.408716E-2,3.1230152E-2,8.256891E-1,4.5633355E-1,6.971442E-2,-2.738791E-1,1.9262178E0,2.9760435E0,5.048464E-1,7.7598953E-1,-1.964E-1,-2.5763335E0,8.202437E-2,1.4649398E0,-6.380134E-1,1.1109136E0,2.6676197E0,3.4625847E0,3.6222458E-1,6.4608234E-1,-1.415362E0,5.111518E-1,1.6047652E0,-1.8806353E0,1.5883489E-1,2.21456E0,7.483728E-2,-1.6797892E0,2.4610958E0,3.2522216E-1,-1.747382E0,1.2923691E0,1.01818085E-1,3.728383E0,5.352001E-1,-1.7260208E0,2.2693577E0,1.2058647E0,5.4602814E-1,-1.8061775E0,2.6935768E-1,1.2937186E0,1.6819866E-1,5.525071E-2,2.5289488E0,1.9462585E-2,-2.2645473E0,-1.4512577E0,4.004324E-1,2.4612064E0,6.1398697E-1,2.1784465E0,7.056022E-2,9.6044064E-1,3.1694007E0,7.228144E-1,-2.9639232E0,-4.2742386E-1,-2.0169604E0,2.6867676E-1,1.5237255E0,3.7255362E-1,9.437393E-1,1.5259565E0,-1.0949249E0,-1.7055511E0,5.037835E-1,1.3576711E0,-7.3725164E-1,-8.446884E-2,2.828714E0,-1.6737086E0,-3.919525E-1,-5.1239822E-2,7.9124004E-1,5.1347308E-2,5.131783E-1],"categories":[],"categories_nodes":[],"categories_segments":[],"categories_sizes":[],"default_left":[1,1,1,1,1,1,1,1,1,1,1,1,1,0,1,1,1,1,0,1,1,1,1,1,1,1,1,1,1,0,1,1,1,0,0,0,0,0,0,1,1,0,0,1,1,1,1,0,0,1,1,0,0,0,1,0,0,0,0,0,0,0,0,0,0,0,0,0,0,0,0,0,0,0,0,0,0,0,0],"id":17,"left_children":[1,3,5,7,9,11,13,15,17,19,21,23,25,-1,27,29,31,33,-1,35,37,39,41,43,45,47,49,51,53,-1,55,57,59,-1,-1,-1,-1,-1,-1,61,63,-1,-1,65,67,69,71,-1,-1,73,75,-1,-1,-1,77,-1,-1,-1,-1,-1,-1,-1,-1,-1,-1,-1,-1,-1,-1,-1,-1,-1,-1,-1,-1,-1,-1,-1,-1],"loss_changes":[2.4376678E1,2.3776695E1,1.413863E1,3.7530964E1,6.3350548E1,2.1226076E1,4.9233276E1,3.6391815E1,2.476715E0,1.4006538E1,2.3424244E1,1.410511E1,2.0640879E1,0E0,2.2809036E1,3.5460526E1,5.0791702E1,9.670491E-1,0E0,5.7854996E0,1.5864645E1,3.7102318E0,4.4369955E0,1.4006737E1,2.2772846E1,4.4208965E0,1.1861967E1,4.627285E-1,1.3297225E1,0E0,5.4593506E0,3.614357E1,6.9662094E0,0E0,0E0,0E0,0E0,0E0,0E0,2.8674603E0,4.3399143E0,0E0,0E0,1.0546543E1,2.4753706E1,8.226145E0,8.073048E0,0E0,0E0,2.865591E-1,4.629984E0,0E0,0E0,0E0,1.2670091E1,0E0,0E0,0E0,0E0,0E0,0E0,0E0,0E0,0E0,0E0,0E0,0E0,0E0,0E0,0E0,0E0,0E0,0E0,0E0,0E0,0E0,0E0,0E0,0E0],"parents":[2147483647,0,0,1,1,2,2,3,3,4,4,5,5,6,6,7,7,8,8,9,9,10,10,11,11,12,12,14,14,15,15,16,16,17,17,19,19,20,20,21,21,22,22,23,23,24,24,25,25,26,26,27,27,28,28,30,30,31,31,32,32,39,39,40,40,43,43,44,44,45,45,46,46,49,49,50,50,54,54],"right_children":[2,4,6,8,10,12,14,16,18,20,22,24,26,-1,28,30,32,34,-1,36,38,40,42,44,46,48,50,52,54,-1,56,58,60,-1,-1,-1,-1,-1,-1,62,64,-1,-1,66,68,70,72,-1,-1,74,76,-1,-1,-1,78,-1,-1,-1,-1,-1,-1,-1,-1,-1,-1,-1,-1,-1,-1,-1,-1,-1,-1,-1,-1,-1,-1,-1,-1],"split_conditions":[1.5E0,8.332547E1,1.8082165E1,2.9144182E1,8.451398E1,6.730382E0,1.8198204E1,7.655331E1,2.9279987E1,2.8672455E1,2.4527443E1,6.329247E0,6.9616766E0,-7.729001E-1,1.4773741E1,2.6119507E1,2.7486658E1,2.9232624E1,8.0028594E-1,6.396004E0,2.940136E1,2.1242222E1,2.888563E1,5.690697E0,1.3319164E1,6.7907133E0,1.56685295E1,2.0373209E1,1.821899E1,-5.0393677E-1,6.035248E0,1.18951996E2,5.7417364E0,3.8771075E-1,3.0545427E-2,1.118515E0,1.6056004E-1,-5.178063E-1,6.8080735E-1,1.0518205E2,6.0840044E0,-5.4185325E-1,8.0807306E-2,8.325542E1,5.7783494E0,8.103601E1,4.76102E1,5.838776E-3,-6.793642E-1,1.775029E1,1.7116451E1,7.3836195E-1,1.841961E-1,6.53534E-1,2.246882E2,2.881322E-1,9.5082027E-1,2.1684432E-1,-8.89177E-1,-1.2822716E-1,-6.050881E-1,8.060303E-2,4.5711768E-1,1.1176609E-1,2.831218E-1,4.5778698E-1,-3.284775E-1,-5.1166534E-1,1.5113506E-1,4.0730137E-1,-2.211755E-1,-2.5340654E-2,8.486142E-1,-5.0211257E-1,-1.17585756E-1,-1.5371948E-2,2.3737203E-1,1.5404193E-2,1.539535E-1],"split_indices":[4,1,0,0,1,2,0,1,0,0,0,2,2,0,1,0,0,0,0,2,0,0,0,2,0,2,1,0,0,0,2,3,2,0,0,0,0,0,0,3,2,0,0,1,2,1,1,0,0,0,0,0,0,0,3,0,0,0,0,0,0,0,0,0,0,0,0,0,0,0,0,0,0,0,0,0,0,0,0],"split_type":[0,0,0,0,0,0,0,0,0,0,0,0,0,0,0,0,0,0,0,0,0,0,0,0,0,0,0,0,0,0,0,0,0,0,0,0,0,0,0,0,0,0,0,0,0,0,0,0,0,0,0,0,0,0,0,0,0,0,0,0,0,0,0,0,0,0,0,0,0,0,0,0,0,0,0,0,0,0,0],"sum_hessian":[1.76E3,1.56E2,1.604E3,6.3E1,9.3E1,1E2,1.504E3,5.5E1,8E0,1.1E1,8.2E1,6.7E1,3.3E1,6E0,1.498E3,9E0,4.6E1,5E0,3E0,9E0,2E0,7.7E1,5E0,5.2E1,1.5E1,5E0,2.8E1,4E0,1.494E3,2E0,7E0,2.5E1,2.1E1,4E0,1E0,8E0,1E0,1E0,1E0,1E1,6.7E1,4E0,1E0,1.5E1,3.7E1,6E0,9E0,1E0,4E0,3E0,2.5E1,3E0,1E0,2E0,1.492E3,3E0,4E0,2.3E1,2E0,4E0,1.7E1,3E0,7E0,4.8E1,1.9E1,1.4E1,1E0,5E0,3.2E1,2E0,4E0,1E0,8E0,2E0,1E0,1.2E1,1.3E1,1.431E3,6.1E1],"tree_param":{"num_deleted":"0","num_feature":"5","num_nodes":"79","size_leaf_vector":"0"}},{"base_weights":[9.345667E-2,3.7064138E-1,6.6284426E-2,4.282586E-1,-1.4665741E0,7.101769E-2,-1.4625633E0,-5.105324E-1,5.117765E-1,-3.718338E-1,-1.6473007E0,1.401361E-1,-1.2900787E-2,5.344353E-1,-2.0954218E0,1.9343008E0,-1.130893E0,2.2614746E0,3.609486E-1,-1.9350433E0,-3.9203644E-1,1.1457049E-1,9.1214275E-1,-5.666021E-1,6.659404E-2,1.4122518E0,-1.8529532E0,2.6495414E0,-8.09597E-1,2.540449E-1,1.3999068E0,1.3628963E-1,-2.1911187E0,2.4672744E-1,1.7788025E0,5.3374834E-2,-1.5152718E0,3.0837207E0,4.7362503E-2,2.0318317E0,8.6545944E-2,-2.1983023E0,4.5491982E-1,2.8497396E0,4.2387962E-1,-5.299978E-1,5.963727E-1,4.7006148E-1,1.8060718E0,-9.341651E-2,2.1792442E-1,-9.1455203E-1,-2.4642155E0,8.9132947E-1,-1.0835978E0,2.0190787E0,-4.3211746E-1,-4.9750564E-1,1.2439839E0,-3.3066273E-1,-1.8978947E0,-1.8781087E-1,2.0319495E-1],"categories":[],"categories_nodes":[],"categories_segments":[],"categories_sizes":[],"default_left":[1,1,1,1,1,1,1,1,1,0,1,1,1,0,0,0,1,1,1,0,0,1,1,1,1,1,1,1,0,1,1,1,1,1,1,1,1,0,1,0,0,0,0,0,0,0,0,0,0,0,0,0,0,0,0,0,0,0,0,0,0,0,0],"id":18,"left_children":[1,3,5,7,9,11,13,15,17,-1,19,21,23,-1,-1,-1,25,27,29,-1,-1,31,33,35,37,39,41,43,-1,45,47,49,51,53,55,57,59,-1,61,-1,-1,-1,-1,-1,-1,-1,-1,-1,-1,-1,-1,-1,-1,-1,-1,-1,-1,-1,-1,-1,-1,-1,-1],"loss_changes":[1.3238811E1,1.724735E1,1.1718351E1,1.2257374E1,3.7672138E-1,9.288106E0,7.4389534E0,2.1904305E1,3.6394093E1,0E0,6.8616486E-1,1.7224417E1,3.1905602E1,0E0,0E0,0E0,2.2816175E1,1.5254654E1,1.4194334E1,0E0,0E0,4.2914627E1,1.5708405E1,5.360283E1,3.6641155E1,2.2882953E0,8.173246E0,3.2477798E0,0E0,3.2524033E1,3.6830826E0,1.5847056E1,5.353584E-1,1.5543859E1,7.247257E0,3.734835E1,1.5689743E1,0E0,2.3162823E1,0E0,0E0,0E0,0E0,0E0,0E0,0E0,0E0,0E0,0E0,0E0,0E0,0E0,0E0,0E0,0E0,0E0,0E0,0E0,0E0,0E0,0E0,0E0,0E0],"parents":[2147483647,0,0,1,1,2,2,3,3,4,4,5,5,6,6,7,7,8,8,10,10,11,11,12,12,16,16,17,17,18,18,21,21,22,22,23,23,24,24,25,25,26,26,27,27,29,29,30,30,31,31,32,32,33,33,34,34,35,35,36,36,38,38],"right_children":[2,4,6,8,10,12,14,16,18,-1,20,22,24,-1,-1,-1,26,28,30,-1,-1,32,34,36,38,40,42,44,-1,46,48,50,52,54,56,58,60,-1,62,-1,-1,-1,-1,-1,-1,-1,-1,-1,-1,-1,-1,-1,-1,-1,-1,-1,-1,-1,-1,-1,-1,-1,-1],"split_conditions":[1.5E0,6.451049E0,9.411446E0,9.21168E1,2.55252E1,9.5565765E1,2.664217E1,9.033853E1,9.778195E1,-1.11550145E-1,2.7861185E1,9.3823975E1,1.0290212E2,1.603306E-1,-6.286266E-1,5.8029026E-1,7.763605E1,2.8809566E1,2.8884365E1,-5.80513E-1,-1.1761094E-1,9.332692E1,6.441697E0,6.5531845E1,1.0327086E2,2.7958023E1,6.4358516E0,6.359603E0,-2.4287911E-1,8.332547E1,5.7869034E0,4.8480762E1,2.7509611E1,2.724572E1,4.294162E1,5.262656E1,9.938228E1,9.2511624E-1,6.226303E0,6.095495E-1,2.5963785E-2,-6.594907E-1,1.3647595E-1,8.549219E-1,1.2716389E-1,-1.5899935E-1,1.7891182E-1,1.4101845E-1,5.4182154E-1,-2.8024955E-2,6.5377325E-2,-2.7436563E-1,-7.3926467E-1,2.6739886E-1,-3.2507935E-1,6.057236E-1,-1.2963524E-1,-1.492517E-1,3.7319517E-1,-9.9198826E-2,-5.693684E-1,-5.634326E-2,6.0958486E-2],"split_indices":[4,2,2,3,0,3,0,3,3,0,0,1,3,0,0,0,1,0,0,0,0,1,2,1,3,0,2,2,0,1,2,3,0,3,0,1,3,0,2,0,0,0,0,0,0,0,0,0,0,0,0,0,0,0,0,0,0,0,0,0,0,0,0],"split_type":[0,0,0,0,0,0,0,0,0,0,0,0,0,0,0,0,0,0,0,0,0,0,0,0,0,0,0,0,0,0,0,0,0,0,0,0,0,0,0,0,0,0,0,0,0,0,0,0,0,0,0,0,0,0,0,0,0,0,0,0,0,0,0],"sum_hessian":[1.76E3,1.56E2,1.604E3,1.52E2,4E0,1.6E3,4E0,1.2E1,1.4E2,1E0,3E0,8.77E2,7.23E2,1E0,3E0,2E0,1E1,1E1,1.3E2,2E0,1E0,8.5E2,2.7E1,9E1,6.33E2,2E0,8E0,9E0,1E0,1.19E2,1.1E1,8.43E2,7E0,1.6E1,1.1E1,5.5E1,3.5E1,3E0,6.3E2,1E0,1E0,7E0,1E0,8E0,1E0,3.6E1,8.3E1,4E0,7E0,2.21E2,6.22E2,2E0,5E0,1.1E1,5E0,1E1,1E0,3.8E1,1.7E1,9E0,2.6E1,2.51E2,3.79E2],"tree_param":{"num_deleted":"0","num_feature":"5","num_nodes":"63","size_leaf_vector":"0"}},{"base_weights":[6.586454E-2,1.18090264E-1,-5.934245E-2,6.2993206E-2,9.2910266E-1,-5.065681E-1,4.993113E-2,2.313281E-1,-4.5990374E-2,-1.1211967E0,1.0534012E0,-3.6907232E-1,-2.3198574E0,-2.8249273E-2,9.628919E-1,7.707629E-2,6.371577E-1,-2.93177E-1,3.9463054E-2,1.5171306E-1,-2.0203743E0,-1.7666231E-1,1.3141673E0,-1.6016312E-1,-1.4865044E0,2.9189806E0,-4.3486185E-2,1.7932818E0,-3.147751E-2,2.2321388E-1,-5.1749873E-1,4.1208786E-1,1.3436447E0,-1.8726494E0,-2.0018336E-1,9.950155E-2,-5.228473E-1,-1.6143799E-2,2.4371338E-1,-1.3644363E0,8.847227E-1,2.6200593E0,9.811305E-1,9.383612E-2,-1.1368564E0,-1.9109265E0,2.2277012E0,-3.8411188E-1,9.416087E-2,2.3046331E0,-5.726061E-1,1.4757426E0,-4.9281618E-1,1.9405627E0,1.9644932E-1,-1.4953327E0,-2.0058025E-1,5.6132197E-2,1.0700018E0,2.3107703E0,7.330322E-2,1.3093281E-1,-2.1098177E0,-1.6431079E0,-9.2064366E-2,3.3798058E-2,8.3653575E-1,-1.7304279E0,-1.9156585E-2,-1.7987175E0,2.078989E0,2.8503826E0,9.7896194E-1,2.0323508E0,3.9574528E-1,-1.2144507E-1,1.4707775E0,1.0022316E0,-1.333189E0,9.210587E-3,-2.2317169E0,-1.2195607E0,-1.638935E-1,1.4751418E0,-8.095982E-2,1.658086E0,3.2661102E0,1.5618324E0,-1.8046964E0,-4.7104836E-2,1.99906E0,-1.4099678E0,1.2566198E0],"categories":[],"categories_nodes":[],"categories_segments":[],"categories_sizes":[],"default_left":[1,1,1,1,1,1,1,1,1,1,1,1,0,1,1,1,1,1,1,1,0,1,1,1,1,0,1,1,1,1,1,1,1,1,1,1,1,0,0,0,1,1,1,1,1,1,0,1,1,1,1,1,1,0,0,0,0,0,0,0,0,0,0,0,0,0,0,0,0,0,0,0,0,0,0,0,0,0,0,0,0,0,0,0,0,0,0,0,0,0,0,0,0],"id":19,"left_children":[1,3,5,7,9,11,13,15,17,19,21,23,-1,25,27,29,31,33,35,37,-1,39,41,43,45,-1,47,49,51,53,55,57,59,61,63,65,67,-1,-1,-1,69,71,73,75,77,79,-1,81,83,85,87,89,91,-1,-1,-1,-1,-1,-1,-1,-1,-1,-1,-1,-1,-1,-1,-1,-1,-1,-1,-1,-1,-1,-1,-1,-1,-1,-1,-1,-1,-1,-1,-1,-1,-1,-1,-1,-1,-1,-1,-1,-1],"loss_changes":[1.1522232E1,5.5484177E1,2.5388796E1,2.1383427E1,2.1314163E1,2.4574404E1,2.9862219E1,2.8621662E1,1.4966616E1,6.029377E0,2.4289062E1,2.2172337E1,0E0,1.7460913E1,2.7305023E1,2.9049805E1,1.9481419E1,2.6357449E1,1.7843683E1,5.0263114E-2,0E0,1.8856745E1,2.4393806E1,2.0449186E1,2.7902824E1,0E0,1.8087326E1,2.3096039E1,1.1852693E1,1.1937154E1,2.0153044E1,2.2656193E1,3.6688007E1,5.0281067E0,2.683804E1,2.3070797E1,3.098745E1,0E0,0E0,0E0,2.9377453E1,1.7453766E0,3.0579521E1,1.974297E1,8.475695E0,8.64402E0,0E0,2.0222038E1,6.662497E1,3.909111E0,1.3337917E1,3.2818956E0,2.2630266E1,0E0,0E0,0E0,0E0,0E0,0E0,0E0,0E0,0E0,0E0,0E0,0E0,0E0,0E0,0E0,0E0,0E0,0E0,0E0,0E0,0E0,0E0,0E0,0E0,0E0,0E0,0E0,0E0,0E0,0E0,0E0,0E0,0E0,0E0,0E0,0E0,0E0,0E0,0E0,0E0],"parents":[2147483647,0,0,1,1,2,2,3,3,4,4,5,5,6,6,7,7,8,8,9,9,10,10,11,11,13,13,14,14,15,15,16,16,17,17,18,18,19,19,21,21,22,22,23,23,24,24,26,26,27,27,28,28,29,29,30,30,31,31,32,32,33,33,34,34,35,35,36,36,40,40,41,41,42,42,43,43,44,44,45,45,47,47,48,48,49,49,50,50,51,51,52,52],"right_children":[2,4,6,8,10,12,14,16,18,20,22,24,-1,26,28,30,32,34,36,38,-1,40,42,44,46,-1,48,50,52,54,56,58,60,62,64,66,68,-1,-1,-1,70,72,74,76,78,80,-1,82,84,86,88,90,92,-1,-1,-1,-1,-1,-1,-1,-1,-1,-1,-1,-1,-1,-1,-1,-1,-1,-1,-1,-1,-1,-1,-1,-1,-1,-1,-1,-1,-1,-1,-1,-1,-1,-1,-1,-1,-1,-1,-1,-1],"split_conditions":[6.819254E0,6.73342E0,6.953044E0,8.5E0,1.9423203E1,6.94358E0,9.197205E1,6.5E0,1.15E1,6.7831903E0,4.673314E1,1.7790411E2,-6.9595724E-1,6.956148E0,7.195417E0,4.5E0,2.787746E1,4.2338646E1,6.654953E0,1.8278122E1,-6.061123E-1,2.7333176E1,5.6547134E1,9.110464E1,6.938699E0,8.756942E-1,7.1640825E0,1.8435153E2,9.2462456E1,6.329808E1,6.1166687E0,6.3321357E0,3.5476234E1,2.0130766E1,5.5636187E0,6.58244E0,8.629666E1,-4.84314E-3,7.3114015E-2,-4.093309E-1,8.443283E1,8.9020386E1,6.7622375E0,8.906751E1,5.950457E1,5.1900158E1,6.683104E-1,4E0,7.233197E0,9.37044E1,6.988715E0,2.2274292E1,7.579936E0,5.821688E-1,5.89348E-2,-4.4859985E-1,-6.0174078E-2,1.683966E-2,3.2100058E-1,6.932311E-1,2.1990968E-2,3.9279845E-2,-6.3294536E-1,-4.9293238E-1,-2.7619312E-2,1.0139418E-2,2.5096074E-1,-5.191284E-1,-5.7469755E-3,-5.396153E-1,6.2369674E-1,8.551148E-1,2.936886E-1,6.0970527E-1,1.18723586E-1,-3.643352E-2,4.4123328E-1,3.006695E-1,-3.9995673E-1,2.763176E-3,-6.695151E-1,-3.6586824E-1,-4.9168054E-2,4.4254255E-1,-2.4287947E-2,4.974258E-1,9.7983307E-1,4.6854976E-1,-5.4140896E-1,-1.4131451E-2,5.9971803E-1,-4.2299035E-1,3.7698597E-1],"split_indices":[2,2,2,4,0,2,1,4,4,2,3,3,0,2,2,4,0,3,2,0,0,0,3,1,2,0,2,3,1,3,2,2,0,0,2,2,1,0,0,0,1,1,2,1,3,1,0,4,2,1,2,0,2,0,0,0,0,0,0,0,0,0,0,0,0,0,0,0,0,0,0,0,0,0,0,0,0,0,0,0,0,0,0,0,0,0,0,0,0,0,0,0,0],"split_type":[0,0,0,0,0,0,0,0,0,0,0,0,0,0,0,0,0,0,0,0,0,0,0,0,0,0,0,0,0,0,0,0,0,0,0,0,0,0,0,0,0,0,0,0,0,0,0,0,0,0,0,0,0,0,0,0,0,0,0,0,0,0,0,0,0,0,0,0,0,0,0,0,0,0,0,0,0,0,0,0,0,0,0,0,0,0,0,0,0,0,0,0,0],"sum_hessian":[1.76E3,1.242E3,5.18E2,1.164E3,7.8E1,1.01E2,4.17E2,4.57E2,7.07E2,4E0,7.4E1,9.5E1,6E0,3.85E2,3.2E1,3.32E2,1.25E2,1.81E2,5.26E2,2E0,2E0,1.3E1,6.1E1,8.1E1,1.4E1,1E0,3.84E2,1.7E1,1.5E1,2.67E2,6.5E1,9.6E1,2.9E1,9E0,1.72E2,4.76E2,5E1,1E0,1E0,6E0,7E0,1.1E1,5E1,6.5E1,1.6E1,1.3E1,1E0,1.1E2,2.74E2,1.4E1,3E0,3E0,1.2E1,3E0,2.64E2,1.5E1,5E1,6.3E1,3.3E1,1.6E1,1.3E1,1E0,8E0,1.1E1,1.61E2,4.38E2,3.8E1,1.4E1,3.6E1,2E0,5E0,9E0,2E0,1.7E1,3.3E1,5.7E1,8E0,1E0,1.5E1,2E0,1.1E1,2.2E1,8.8E1,3E1,2.44E2,1E1,4E0,1E0,2E0,1E0,2E0,8E0,4E0],"tree_param":{"num_deleted":"0","num_feature":"5","num_nodes":"93","size_leaf_vector":"0"}},{"base_weights":[4.795387E-2,-5.754256E-1,5.5445552E-2,9.472794E-1,-1.5853425E0,2.8830214E0,5.2163597E-2,-1.625468E-1,1.2875936E0,-1.7897935E0,4.3403435E-1,3.3810383E-1,3.4522057E-2,1.1439991E-1,1.4640592E0,-3.7403965E-1,-1.8844948E0,-1.0820833E0,5.790774E-1,-1.0590074E0,4.4588737E-2,1.7631721E0,5.7722217E-1,-1.3398372E0,3.9554405E-1,7.930981E-1,-8.2464314E-1,1.4678288E0,-1.3443406E0,2.3801365E0,4.0246844E-2,-1.6508646E0,-2.2730923E-1,5.429888E-1,5.03273E-2,3.5796508E-1,1.320087E0,-2.1013694E0,1.3830475E0,-2.169996E-1,-2.1627214E0,2.3881262E-3,1.7364208E-1],"categories":[],"categories_nodes":[],"categories_segments":[],"categories_sizes":[],"default_left":[1,1,1,1,1,0,1,0,1,1,0,1,1,0,1,0,0,1,1,1,1,0,0,1,1,1,1,0,1,0,1,0,0,0,0,0,0,0,0,0,0,0,0],"id":20,"left_children":[1,3,5,7,9,-1,11,-1,13,15,-1,17,19,-1,21,-1,-1,23,25,27,29,-1,-1,31,33,35,37,-1,39,-1,41,-1,-1,-1,-1,-1,-1,-1,-1,-1,-1,-1,-1],"loss_changes":[8.256058E0,3.3795677E1,1.6006039E1,3.6085005E0,6.144058E0,0E0,8.76563E0,0E0,1.2817106E0,9.0400696E-1,0E0,3.51916E1,1.8100685E1,0E0,5.738449E-1,0E0,0E0,6.2429256E0,2.6791012E1,1.2788115E1,1.6392979E1,0E0,0E0,4.1230927E0,1.2537402E-1,1.6955036E1,3.6729694E1,0E0,1.2447008E1,0E0,8.201065E0,0E0,0E0,0E0,0E0,0E0,0E0,0E0,0E0,0E0,0E0,0E0,0E0],"parents":[2147483647,0,0,1,1,2,2,3,3,4,4,6,6,8,8,9,9,11,11,12,12,14,14,17,17,18,18,19,19,20,20,23,23,24,24,25,25,26,26,28,28,30,30],"right_children":[2,4,6,8,10,-1,12,-1,14,16,-1,18,20,-1,22,-1,-1,24,26,28,30,-1,-1,32,34,36,38,-1,40,-1,42,-1,-1,-1,-1,-1,-1,-1,-1,-1,-1,-1,-1],"split_conditions":[4.6598225E0,2.8370863E1,4.6707726E0,3.625791E1,3.4882263E1,8.6490643E-1,5.551398E0,-4.8764043E-2,1.984174E1,2.8653034E1,1.3021031E-1,3.6533394E1,5.5639706E0,3.4319974E-2,5.130529E1,-1.122119E-1,-5.6534845E-1,5.5290027E0,3.440497E1,2.0090233E1,5.565779E0,5.2895164E-1,1.7316666E-1,2.89131E1,1.894152E1,2.7872442E1,5.517682E1,4.4034865E-1,5.560373E0,7.14041E-1,9.0739296E1,-4.952594E-1,-6.819277E-2,1.6289663E-1,1.5098191E-2,1.0738953E-1,3.960261E-1,-6.3041085E-1,4.1491425E-1,-6.509989E-2,-6.4881647E-1,7.164379E-4,5.2092627E-2],"split_indices":[2,0,2,3,0,0,2,0,0,0,0,1,2,0,1,0,0,2,0,0,2,0,0,0,0,0,1,0,2,0,1,0,0,0,0,0,0,0,0,0,0,0,0],"split_type":[0,0,0,0,0,0,0,0,0,0,0,0,0,0,0,0,0,0,0,0,0,0,0,0,0,0,0,0,0,0,0,0,0,0,0,0,0,0,0,0,0,0,0],"sum_hessian":[1.76E3,2E1,1.74E3,8E0,1.2E1,1E0,1.739E3,2E0,6E0,1.1E1,1E0,1E2,1.639E3,1E0,5E0,1E0,1E1,1.4E1,8.6E1,1.4E1,1.625E3,3E0,2E0,1.2E1,2E0,7.5E1,1.1E1,1E0,1.3E1,2E0,1.623E3,9E0,3E0,1E0,1E0,4.2E1,3.3E1,7E0,4E0,6E0,7E0,1.265E3,3.58E2],"tree_param":{"num_deleted":"0","num_feature":"5","num_nodes":"43","size_leaf_vector":"0"}},{"base_weights":[3.436257E-2,3.0060554E-1,1.9169142E-2,1.366437E-1,2.06661E0,-1.5963126E0,2.5965773E-2,1.9658172E-1,-2.5389824E0,-4.025472E-1,2.9567537E0,-2.6151967E0,-1.7835045E-1,1.9651626E0,2.0098573E-2,-7.852184E-3,1.1042479E0,3.6973062E-1,-9.1129684E-1,4.2778015E-2,2.4350643E0,-2.5389824E0,2.3177113E-2,2.839902E-1,-1.1357859E0,1.8836583E0,-5.087125E-1,3.298514E-2,-4.4569358E-1,-5.2949405E-1,8.737877E-1,-2.304914E0,1.7531538E-1,1.4028168E-1,2.0439677E0,-1.7730547E0,5.667224E-1,1.8859567E-2,5.915332E-1,-9.391586E-1,2.4197273E-1],"categories":[],"categories_nodes":[],"categories_segments":[],"categories_sizes":[],"default_left":[1,1,1,1,1,1,1,1,0,0,0,0,1,1,1,1,1,0,0,0,0,0,1,1,1,1,1,1,1,0,0,0,0,0,0,0,0,0,0,0,0],"id":21,"left_children":[1,3,5,7,9,11,13,15,-1,-1,-1,-1,17,19,21,23,25,-1,-1,-1,-1,-1,27,29,31,33,35,37,39,-1,-1,-1,-1,-1,-1,-1,-1,-1,-1,-1,-1],"loss_changes":[7.117734E0,2.7225563E1,1.8344833E1,1.4611831E1,1.8773472E1,9.646751E0,1.8858788E1,1.6152193E1,0E0,0E0,0E0,0E0,1.9437906E0,4.4124928E0,1.3113081E1,2.4023432E1,2.107277E1,0E0,0E0,0E0,0E0,0E0,7.6301417E0,2.8290545E1,2.3396769E1,2.787548E0,9.163136E0,1.2794005E1,1.1764787E1,0E0,0E0,0E0,0E0,0E0,0E0,0E0,0E0,0E0,0E0,0E0,0E0],"parents":[2147483647,0,0,1,1,2,2,3,3,4,4,5,5,6,6,7,7,12,12,13,13,14,14,15,15,16,16,22,22,23,23,24,24,25,25,26,26,27,27,28,28],"right_children":[2,4,6,8,10,12,14,16,-1,-1,-1,-1,18,20,22,24,26,-1,-1,-1,-1,-1,28,30,32,34,36,38,40,-1,-1,-1,-1,-1,-1,-1,-1,-1,-1,-1,-1],"split_conditions":[1.9719767E1,1.9414139E1,2.0215033E1,2.4775976E1,1.8671886E1,6.642707E0,2.0723595E1,2.023647E1,-7.616947E-1,-1.20764166E-1,8.8702613E-1,-7.845591E-1,2.0835144E1,5.5866776E0,2.0780735E1,1.9474298E1,2.1129757E1,1.1091919E-1,-2.7338907E-1,1.2833405E-2,7.305193E-1,-7.616947E-1,7.9945726E0,1.6974659E1,1.9720312E1,6.995061E1,2.2407522E1,7.6992617E0,5.7224274E1,-1.5884823E-1,2.621363E-1,-6.914742E-1,5.2594617E-2,4.2084504E-2,6.1319035E-1,-5.3191644E-1,1.7001672E-1,5.6578703E-3,1.7745996E-1,-2.817476E-1,7.259182E-2],"split_indices":[1,1,1,0,0,2,1,0,0,0,0,0,0,2,1,0,0,0,0,0,0,0,2,1,0,3,0,2,1,0,0,0,0,0,0,0,0,0,0,0,0],"split_type":[0,0,0,0,0,0,0,0,0,0,0,0,0,0,0,0,0,0,0,0,0,0,0,0,0,0,0,0,0,0,0,0,0,0,0,0,0,0,0,0,0],"sum_hessian":[1.76E3,9.4E1,1.666E3,8.7E1,7E0,6E0,1.66E3,8.6E1,1E0,2E0,5E0,3E0,3E0,4E0,1.656E3,7.1E1,1.5E1,2E0,1E0,1E0,3E0,1E0,1.655E3,5.7E1,1.4E1,1E1,5E0,1.622E3,3.3E1,2.4E1,3.3E1,7E0,7E0,1E0,9E0,2E0,3E0,1.583E3,3.9E1,1.9E1,1.4E1],"tree_param":{"num_deleted":"0","num_feature":"5","num_nodes":"41","size_leaf_vector":"0"}},{"base_weights":[2.3356114E-2,2.071364E-2,1.5649401E0,3.893941E-2,-2.582649E-1,2.2951921E-2,7.9908067E-1,-5.7092458E-2,-1.7239795E0,1.6811423E-1,-4.05689E-2,2.0649378E0,1.8560104E-1,-2.3368885E-1,2.2215886E0,-1.9175111E0,2.9920006E-1,1.1663713E-1,1.2648902E0,-9.802009E-1,1.5988447E-2,8.3476686E-1,4.0090456E0,-3.1477016E-1,1.4457554E0,-1.5930357E0,-9.985194E-2,-2.0246553E0,-3.6946297E-1,1.7003308E-1,-1.0986129E0,1.9292848E0,-4.3442455E-1,-7.3377424E-1,-2.6134658E0,2.844919E-1,-5.5951156E-2,-1.0915413E0,1.6587931E0,1.4927225E0,-1.1247845E0,-1.5800984E-1,2.1188636E0,8.9621544E-2,-1.8462183E0,1.0550478E0,-4.8323354E-1,-6.8224716E-1,-2.2471628E0],"categories":[],"categories_nodes":[],"categories_segments":[],"categories_sizes":[],"default_left":[1,1,0,1,1,1,1,1,1,1,1,1,1,1,0,1,0,1,1,1,1,1,0,1,1,1,1,1,0,0,0,0,0,0,0,0,0,0,0,0,0,0,0,0,0,0,0,0,0],"id":22,"left_children":[1,3,-1,5,7,9,11,13,15,17,19,21,23,25,-1,27,-1,29,31,33,35,37,-1,39,41,43,45,47,-1,-1,-1,-1,-1,-1,-1,-1,-1,-1,-1,-1,-1,-1,-1,-1,-1,-1,-1,-1,-1],"loss_changes":[7.1411805E0,8.953865E0,0E0,2.0058E1,3.1746605E1,1.4935342E1,2.6020384E1,3.9150223E1,5.6638603E0,2.7686674E1,5.990794E1,2.2960815E1,1.558816E1,1.62147E1,0E0,1.2423363E0,0E0,3.081461E1,2.5676468E1,2.3841026E1,2.0568174E1,1.4509268E1,0E0,2.8032698E1,7.8913527E0,3.573618E0,3.7259518E1,1.7525368E0,0E0,0E0,0E0,0E0,0E0,0E0,0E0,0E0,0E0,0E0,0E0,0E0,0E0,0E0,0E0,0E0,0E0,0E0,0E0,0E0,0E0],"parents":[2147483647,0,0,1,1,3,3,4,4,5,5,6,6,7,7,8,8,9,9,10,10,11,11,12,12,13,13,15,15,17,17,18,18,19,19,20,20,21,21,23,23,24,24,25,25,26,26,27,27],"right_children":[2,4,-1,6,8,10,12,14,16,18,20,22,24,26,-1,28,-1,30,32,34,36,38,-1,40,42,44,46,48,-1,-1,-1,-1,-1,-1,-1,-1,-1,-1,-1,-1,-1,-1,-1,-1,-1,-1,-1,-1,-1],"split_conditions":[4.319114E1,3.3351772E1,4.6948203E-1,3.2253666E1,6.991334E0,6.3484596E1,7.162164E1,6.9587994E0,7.6381154E0,6.2896942E1,6.6383514E1,7.425583E0,3.3028683E1,6.738039E1,6.664766E-1,3.8108078E1,8.976002E-2,6.235654E1,7.047174E1,7.5051074E0,2.2634958E1,6.8859344E1,1.2027137E0,3.2391106E1,6.4646194E1,6.430705E1,8.405072E1,3.3658127E1,-1.108389E-1,5.1009927E-2,-3.2958388E-1,5.787855E-1,-1.3032737E-1,-2.2013228E-1,-7.840398E-1,8.534757E-2,-1.6785348E-2,-3.274624E-1,4.9763796E-1,4.4781676E-1,-3.3743536E-1,-4.7402956E-2,6.356591E-1,2.6886465E-2,-5.5386555E-1,3.1651434E-1,-1.4497007E-1,-2.0467415E-1,-6.7414886E-1],"split_indices":[0,0,0,0,2,1,3,2,2,1,1,2,0,3,0,0,0,1,3,2,0,1,0,0,1,1,3,0,0,0,0,0,0,0,0,0,0,0,0,0,0,0,0,0,0,0,0,0,0],"split_type":[0,0,0,0,0,0,0,0,0,0,0,0,0,0,0,0,0,0,0,0,0,0,0,0,0,0,0,0,0,0,0,0,0,0,0,0,0,0,0,0,0,0,0,0,0,0,0,0,0],"sum_hessian":[1.76E3,1.758E3,2E0,1.651E3,1.07E2,1.618E3,3.3E1,9.5E1,1.2E1,4.92E2,1.126E3,1E1,2.3E1,8.9E1,6E0,1.1E1,1E0,4.71E2,2.1E1,6.3E1,1.063E3,7E0,3E0,1.7E1,6E0,7E0,8.2E1,1E1,1E0,4.52E2,1.9E1,1.5E1,6E0,5.6E1,7E0,2.24E2,8.39E2,2E0,5E0,5E0,1.2E1,2E0,4E0,1E0,6E0,2E1,6.2E1,2E0,8E0],"tree_param":{"num_deleted":"0","num_feature":"5","num_nodes":"49","size_leaf_vector":"0"}},{"base_weights":[1.7022973E-2,7.3316116E-3,4.4474587E-1,1.3656165E-2,-8.955823E-1,1.3533369E0,-4.8608246E-1,8.956355E-3,9.019695E-1,-4.481631E-1,-1.67838E0,1.7215077E0,-5.4972315E-1,-3.133442E0,3.7159753E-1,3.193663E-3,7.043675E-1,2.3835094E0,1.3817106E-1,-9.829875E-1,1.7629394E-1,6.3610077E-3,2.0885847E0,4.6685123E-1,-1.0441984E0,-3.73353E-1,-3.730126E0,7.1986824E-1,-1.3775316E0,1.4991479E-2,-1.0358032E0,1.4838371E0,-9.9544525E-1,-4.6760482E-1,1.1017405E0,-8.078003E-2,-1.1883444E0,2.7244425E-1,-1.0415363E-1,-5.36747E-1,3.6631265E-1,2.2100782E0,2.545843E-1,3.682157E-1,1.8865223E0,8.791636E-4,1.687238E0,1.7977194E0,-1.4749069E0,-7.62764E-1,1.8182111E0,-2.0505333E-1,-1.1417799E0,-7.25667E-1,2.8232193E-1,3.1692314E-1,6.9503784E-2,1.602551E0,-2.2129059E-1],"categories":[],"categories_nodes":[],"categories_segments":[],"categories_sizes":[],"default_left":[1,1,1,1,1,1,1,1,1,1,0,1,1,1,1,1,1,0,1,1,1,1,1,0,0,0,0,1,0,1,1,1,1,1,0,0,0,1,0,0,0,0,0,1,0,0,0,0,0,0,0,0,0,0,0,0,0,0,0],"id":23,"left_children":[1,3,5,7,9,11,13,15,17,19,-1,21,23,25,27,29,31,-1,33,35,37,39,41,-1,-1,-1,-1,43,-1,45,47,49,51,53,-1,-1,-1,55,-1,-1,-1,-1,-1,57,-1,-1,-1,-1,-1,-1,-1,-1,-1,-1,-1,-1,-1,-1,-1],"loss_changes":[7.296467E0,9.851469E0,3.3641785E1,7.1393566E0,3.450677E0,1.4959373E1,4.6576126E1,6.8264284E0,9.855048E0,3.1790686E0,0E0,1.0689762E1,2.4981687E0,6.8418503E0,1.073837E1,2.0743624E1,2.0026413E1,0E0,4.601129E0,8.3037806E-1,1.6320166E-1,9.785877E-1,2.556816E0,0E0,0E0,0E0,0E0,5.048949E0,0E0,3.9480095E1,2.6291468E1,8.898912E0,3.441825E-1,1.1725105E0,0E0,0E0,0E0,1.4078915E-2,0E0,0E0,0E0,0E0,0E0,9.08641E0,0E0,0E0,0E0,0E0,0E0,0E0,0E0,0E0,0E0,0E0,0E0,0E0,0E0,0E0,0E0],"parents":[2147483647,0,0,1,1,2,2,3,3,4,4,5,5,6,6,7,7,8,8,9,9,11,11,12,12,13,13,14,14,15,15,16,16,18,18,19,19,20,20,21,21,22,22,27,27,29,29,30,30,31,31,32,32,33,33,37,37,43,43],"right_children":[2,4,6,8,10,12,14,16,18,20,-1,22,24,26,28,30,32,-1,34,36,38,40,42,-1,-1,-1,-1,44,-1,46,48,50,52,54,-1,-1,-1,56,-1,-1,-1,-1,-1,58,-1,-1,-1,-1,-1,-1,-1,-1,-1,-1,-1,-1,-1,-1,-1],"split_conditions":[9.506726E1,9.4888E1,9.681574E1,9.4788956E1,2.754388E1,2.0839847E2,2.6240986E1,4.133718E1,2.3831001E1,2.3570496E1,-5.0351405E-1,5.646823E0,2.9083565E1,2.5471022E1,9.990789E1,3.8504356E1,1.8099106E2,7.1505284E-1,6.441697E0,6.3243914E0,9.499288E1,1.3771158E2,9.6683586E1,1.4005537E-1,-3.1325954E-1,-1.12005904E-1,-1.1190379E0,9.950332E1,-4.132595E-1,3.631159E1,8.1133896E1,8.168857E1,4.217147E1,2.8475182E1,3.3052215E-1,-2.423401E-2,-3.565033E-1,2.6406982E1,-3.124609E-2,-1.610241E-1,1.098938E-1,6.630235E-1,7.63753E-2,1.5598964E2,5.659567E-1,2.637491E-4,5.061714E-1,5.393158E-1,-4.424721E-1,-2.288292E-1,5.454633E-1,-6.1516E-2,-3.4253398E-1,-2.1770011E-1,8.469658E-2,9.507695E-2,2.0851135E-2,4.807653E-1,-6.638718E-2],"split_indices":[1,1,1,1,0,3,0,0,0,0,0,2,0,0,1,0,3,0,2,2,1,3,1,0,0,0,0,1,0,0,1,1,0,0,0,0,0,0,0,0,0,0,0,3,0,0,0,0,0,0,0,0,0,0,0,0,0,0,0],"split_type":[0,0,0,0,0,0,0,0,0,0,0,0,0,0,0,0,0,0,0,0,0,0,0,0,0,0,0,0,0,0,0,0,0,0,0,0,0,0,0,0,0,0,0,0,0,0,0,0,0,0,0,0,0,0,0,0,0,0,0],"sum_hessian":[1.76E3,1.722E3,3.8E1,1.711E3,1.1E1,1.9E1,1.9E1,1.703E3,8E0,8E0,3E0,1.6E1,3E0,4E0,1.5E1,1.69E3,1.3E1,2E0,6E0,4E0,4E0,3E0,1.3E1,1E0,2E0,1E0,3E0,1.3E1,2E0,1.672E3,1.8E1,9E0,4E0,4E0,2E0,1E0,3E0,3E0,1E0,1E0,2E0,1.2E1,1E0,1.1E1,2E0,1.659E3,1.3E1,2E0,1.6E1,1E0,8E0,1E0,3E0,3E0,1E0,2E0,1E0,3E0,8E0],"tree_param":{"num_deleted":"0","num_feature":"5","num_nodes":"59","size_leaf_vector":"0"}},{"base_weights":[1.2189258E-2,4.1106075E-1,3.6266877E-3,3.4436543E-2,1.2981328E0,-1.187104E0,7.0839957E-3,-2.3310738E0,5.4718065E-1,1.9395651E0,-1.0588747E0,-1.5610771E0,1.5439415E-1,1.0175494E-2,-1.0559533E0,1.9815527E0,3.8657717E-2,1.8743515E-1,2.1351519E0,6.604767E-2,-1.6543598E0,7.7615217E-3,1.3867708E0,2.3043568E-1,-1.9903578E0,2.274372E0,2.5872803E-1,-1.3553283E0,5.337486E-1,2.5722452E-2,-1.6816884E-1,5.812931E-1,-2.3563957E-1,4.1253662E-1,-1.9004288E0,-8.3700055E-1,8.3195686E-1,1.0173755E-2,1.1625141E0,-3.808596E-1,5.434294E-1],"categories":[],"categories_nodes":[],"categories_segments":[],"categories_sizes":[],"default_left":[1,1,1,1,1,1,1,0,1,1,1,0,0,1,1,1,1,0,0,0,0,1,0,1,0,0,0,1,1,1,1,0,0,0,0,0,0,0,0,0,0],"id":24,"left_children":[1,3,5,7,9,11,13,-1,15,17,19,-1,-1,21,23,25,27,-1,-1,-1,-1,29,-1,31,-1,-1,-1,33,35,37,39,-1,-1,-1,-1,-1,-1,-1,-1,-1,-1],"loss_changes":[6.0129676E0,1.23167305E1,7.109756E0,3.402386E1,1.8684223E1,2.7494416E0,5.6666E0,0E0,1.6699852E1,2.68404E0,2.11889E0,0E0,0E0,5.6949353E0,6.468687E0,2.4384155E0,1.3146102E1,0E0,0E0,0E0,0E0,5.4235077E0,0E0,6.275536E-1,0E0,0E0,0E0,5.602316E0,6.4191103E0,2.7509129E1,2.4271679E1,0E0,0E0,0E0,0E0,0E0,0E0,0E0,0E0,0E0,0E0],"parents":[2147483647,0,0,1,1,2,2,3,3,4,4,5,5,6,6,8,8,9,9,10,10,13,13,14,14,15,15,16,16,21,21,23,23,27,27,28,28,29,29,30,30],"right_children":[2,4,6,8,10,12,14,-1,16,18,20,-1,-1,22,24,26,28,-1,-1,-1,-1,30,-1,32,-1,-1,-1,34,36,38,40,-1,-1,-1,-1,-1,-1,-1,-1,-1,-1],"split_conditions":[2.4126076E1,2.914793E1,2.4485832E1,9.0751236E1,2.298487E1,2.9403936E1,9.411446E0,-6.9932216E-1,9.12977E1,2.0745228E1,2.9734356E1,-4.6832314E-1,4.6318248E-2,9.323392E0,2.8238205E1,2.3748032E1,9.158242E1,5.623055E-2,6.405456E-1,1.9814301E-2,-4.9630797E-1,7.456226E0,4.1603127E-1,2.664217E1,-5.9710735E-1,6.8231165E-1,7.761841E-2,2.7541168E1,2.071355E1,7.4044E0,2.8346643E1,1.7438793E-1,-7.0691876E-2,1.2376099E-1,-5.701287E-1,-2.5110018E-1,2.4958707E-1,3.0521266E-3,3.4875423E-1,-1.1425789E-1,1.6302882E-1],"split_indices":[3,0,3,1,3,0,2,0,1,3,0,0,0,2,0,3,1,0,0,0,0,2,0,0,0,0,0,0,3,2,0,0,0,0,0,0,0,0,0,0,0],"split_type":[0,0,0,0,0,0,0,0,0,0,0,0,0,0,0,0,0,0,0,0,0,0,0,0,0,0,0,0,0,0,0,0,0,0,0,0,0,0,0,0,0],"sum_hessian":[1.76E3,3.6E1,1.724E3,2.6E1,1E1,4E0,1.72E3,4E0,2.2E1,8E0,2E0,3E0,1E0,1.716E3,4E0,5E0,1.7E1,1E0,7E0,1E0,1E0,1.714E3,2E0,2E0,2E0,4E0,1E0,4E0,1.3E1,1.556E3,1.58E2,1E0,1E0,1E0,3E0,2E0,1.1E1,1.536E3,2E1,1.22E2,3.6E1],"tree_param":{"num_deleted":"0","num_feature":"5","num_nodes":"41","size_leaf_vector":"0"}},{"base_weights":[8.381851E-3,-2.3624543E-3,3.0284858E-1,2.8771933E-3,-1.4821692E0,1.0010786E0,-2.8952576E-2,3.631475E-2,-1.1613947E-1,-1.6018337E0,-4.4192314E-1,2.2442532E-1,1.9253854E0,1.277701E0,-2.345044E-1,6.5933275E-3,7.091749E-1,-1.7142338E0,-4.8855796E-2,1.4659531E0,-5.795827E-1,2.101554E0,2.580185E-1,2.0087013E0,4.100256E-1,7.534685E-1,-6.649181E-1,-6.4945675E-4,1.0206553E0,2.0461726E0,2.980352E-1,-1.2484741E-1,-2.2808428E0,-6.5293284E-3,-1.6894567E0,4.6679688E-1,-7.9575074E-1,8.6304474E-1,2.3705494E0,5.623805E-1,-2.3519516E-2,-4.269611E-1,2.0050583E0,-7.0007525E-2,-1.8469607E0,4.3963585E-2,-1.5783215E-1,-2.937266E-1,1.438154E0,2.9897516E0,8.102831E-1,-6.9944376E-1,6.1198324E-1,1.6945267E-1,-6.5102386E-1,-2.7105525E0,-8.512125E-1,2.0782433E0,-3.6637228E-2,-1.9023603E0,-6.295293E-1,-8.679517E-1,-1.812725E-1,1.6472836E0,-3.5271645E-1,8.0487823E-1,-1.0806725E0,5.0344723E-1,2.630002E0,-2.1290417E0,4.4912648E-1,-2.5227165E-1,-2.6022599E0],"categories":[],"categories_nodes":[],"categories_segments":[],"categories_sizes":[],"default_left":[1,1,1,1,1,1,1,1,1,0,0,1,1,1,1,1,1,1,1,0,1,1,0,0,1,1,1,1,1,1,1,1,1,1,1,0,1,1,0,0,0,1,1,1,1,0,0,0,0,0,0,0,0,0,0,0,0,0,0,0,0,0,0,0,0,0,0,0,0,0,0,0,0],"id":25,"left_children":[1,3,5,7,9,11,13,15,17,-1,-1,19,21,23,25,27,29,31,33,-1,35,37,-1,-1,39,41,43,45,47,49,51,53,55,57,59,-1,61,63,-1,-1,-1,65,67,69,71,-1,-1,-1,-1,-1,-1,-1,-1,-1,-1,-1,-1,-1,-1,-1,-1,-1,-1,-1,-1,-1,-1,-1,-1,-1,-1,-1,-1],"loss_changes":[5.5722384E0,1.3185495E1,1.4392742E1,6.749684E0,3.8996696E-2,1.3925213E1,1.18487835E1,2.6473148E1,3.991579E1,0E0,0E0,1.282802E1,2.1013985E0,2.982007E0,1.6660004E1,9.321001E0,3.017296E1,1.3223652E1,2.4848791E1,0E0,2.1810045E0,6.19339E-1,0E0,0E0,2.7743775E-1,1.8585043E1,1.885736E1,8.849572E0,5.3611984E0,1.273753E1,1.4206937E1,8.845866E-1,4.450329E0,2.2044985E1,8.333702E-1,0E0,1.532259E-1,3.4413657E0,0E0,0E0,0E0,6.5066814E0,4.306469E0,2.1265587E1,1.0183731E1,0E0,0E0,0E0,0E0,0E0,0E0,0E0,0E0,0E0,0E0,0E0,0E0,0E0,0E0,0E0,0E0,0E0,0E0,0E0,0E0,0E0,0E0,0E0,0E0,0E0,0E0,0E0,0E0],"parents":[2147483647,0,0,1,1,2,2,3,3,4,4,5,5,6,6,7,7,8,8,11,11,12,12,13,13,14,14,15,15,16,16,17,17,18,18,20,20,21,21,24,24,25,25,26,26,27,27,28,28,29,29,30,30,31,31,32,32,33,33,34,34,36,36,37,37,41,41,42,42,43,43,44,44],"right_children":[2,4,6,8,10,12,14,16,18,-1,-1,20,22,24,26,28,30,32,34,-1,36,38,-1,-1,40,42,44,46,48,50,52,54,56,58,60,-1,62,64,-1,-1,-1,66,68,70,72,-1,-1,-1,-1,-1,-1,-1,-1,-1,-1,-1,-1,-1,-1,-1,-1,-1,-1,-1,-1,-1,-1,-1,-1,-1,-1,-1,-1],"split_conditions":[2.246882E2,2.2371265E2,2.4028033E2,1.227238E2,2.2463304E2,2.5446442E1,8.103209E1,1.1729962E2,1.2670018E2,-4.8055014E-1,-1.3257694E-1,6.308709E0,3.8323128E1,6.0445414E0,2.2462639E1,4.1284203E1,6.130651E1,2.5E0,7.439379E0,4.3978596E-1,2.2843988E2,5.987896E0,7.740555E-2,6.026104E-1,2.5783367E1,2.081733E1,2.7182925E2,1.0137767E2,8.250951E1,1.2156127E2,2.1914526E1,2.2482578E1,1.25091095E2,1.27213135E2,7.715187E1,1.4003907E-1,8.945598E1,2.8311878E1,7.1116483E-1,1.6871415E-1,-7.055855E-3,2.0198626E1,2.7736722E2,2.2892899E1,2.3846989E1,1.3189076E-2,-4.7349647E-2,-8.811798E-2,4.3144622E-1,8.969255E-1,2.4308495E-1,-2.0983313E-1,1.8359497E-1,5.0835803E-2,-1.9530717E-1,-8.131658E-1,-2.5536376E-1,6.23473E-1,-1.0991169E-2,-5.707081E-1,-1.8885879E-1,-2.603855E-1,-5.4381754E-2,4.941851E-1,-1.0581494E-1,2.4146348E-1,-3.2420176E-1,1.5103418E-1,7.8900063E-1,-6.387125E-1,1.3473795E-1,-7.56815E-2,-7.80678E-1],"split_indices":[3,3,3,3,3,0,1,3,3,0,0,2,0,2,0,0,1,4,2,0,3,2,0,0,0,0,3,3,1,3,0,0,3,3,1,0,1,0,0,0,0,0,3,0,0,0,0,0,0,0,0,0,0,0,0,0,0,0,0,0,0,0,0,0,0,0,0,0,0,0,0,0,0],"split_type":[0,0,0,0,0,0,0,0,0,0,0,0,0,0,0,0,0,0,0,0,0,0,0,0,0,0,0,0,0,0,0,0,0,0,0,0,0,0,0,0,0,0,0,0,0,0,0,0,0,0,0,0,0,0,0,0,0,0,0,0,0,0,0,0,0,0,0,0,0,0,0,0,0],"sum_hessian":[1.76E3,1.699E3,6.1E1,1.694E3,5E0,1.9E1,4.2E1,1.323E3,3.71E2,4E0,1E0,1.1E1,8E0,5E0,3.7E1,1.268E3,5.5E1,1.4E1,3.57E2,4E0,7E0,7E0,1E0,2E0,3E0,1.1E1,2.6E1,1.26E3,8E0,1.2E1,4.3E1,4E0,1E1,3.49E2,8E0,1E0,6E0,2E0,5E0,2E0,1E0,6E0,5E0,1.8E1,8E0,9.82E2,2.78E2,2E0,6E0,6E0,6E0,1E1,3.3E1,3E0,1E0,7E0,3E0,4E0,3.45E2,6E0,2E0,5E0,1E0,1E0,1E0,2E0,4E0,2E0,3E0,3E0,1.5E1,3E0,5E0],"tree_param":{"num_deleted":"0","num_feature":"5","num_nodes":"73","size_leaf_vector":"0"}},{"base_weights":[6.5222196E-3,4.7785595E-2,-8.229059E-2,2.6288837E-1,-4.2573344E-2,-1.3870525E0,-4.129014E-2,2.2300968E-1,2.5519779E0,-2.139896E0,-2.508661E-2,-2.2074559E0,-7.3888206E-1,4.0135664E-1,-1.7878446E-1,1.4698397E-1,1.4107001E0,2.639004E-1,-1.018518E-1,-6.226724E-1,-2.7168345E0,-1.5708251E0,1.1097245E0,2.1646547E-1,1.5294929E0,-3.9088672E-1,1.2615025E-1,-5.16648E-1,2.5862956E-1,6.764397E-1,2.314554E0,3.4360796E-1,-4.1701546E-1,-2.9556286E-1,9.406799E-3,-2.33067E0,-2.2831249E-1,1.1049968E0,-2.5570687E-2,-1.3703346E0,1.9776173E0,-3.026282E-1,-1.9426825E0,5.4444957E-1,-2.7456897E-1,-1.601941E0,-2.5954086E-1,1.1921098E0,1.559211E-1,1.2688828E-1,2.4659817E0,2.5949564E0,3.566742E-2,-1.7485347E-1,4.7562072E-1,9.168053E-2,-2.3475456E0,-7.8368E-1,1.8209502E-3,6.181037E-2,-9.5095897E-1,-1.1281961E0,1.2356691E0,2.575542E0,3.479758E-1,1.6721393E0,-1.6844296E-1,2.8754897E0,1.1513449E0,5.042257E-1,-4.1529226E-1,-3.1239426E0,-1.0705733E0,2.770289E-1,1.8617651E0,-5.4231787E-1,2.6115608E-1],"categories":[],"categories_nodes":[],"categories_segments":[],"categories_sizes":[],"default_left":[1,1,1,1,1,1,1,1,0,0,1,1,1,1,1,1,1,1,1,0,0,1,0,1,1,1,1,1,1,1,1,1,1,1,1,0,1,1,1,0,1,1,1,1,1,0,0,0,0,0,0,0,0,0,0,0,0,0,0,0,0,0,0,0,0,0,0,0,0,0,0,0,0,0,0,0,0],"id":26,"left_children":[1,3,5,7,9,11,13,15,-1,-1,17,19,21,23,25,27,29,31,33,-1,-1,35,-1,37,39,41,43,45,47,49,51,53,55,57,59,-1,61,63,65,-1,67,69,71,73,75,-1,-1,-1,-1,-1,-1,-1,-1,-1,-1,-1,-1,-1,-1,-1,-1,-1,-1,-1,-1,-1,-1,-1,-1,-1,-1,-1,-1,-1,-1,-1,-1],"loss_changes":[6.4574976E0,2.3393253E1,2.9846893E1,3.1928669E1,3.1046993E1,7.40889E0,3.3119507E1,3.1486198E1,0E0,0E0,1.8705925E1,3.9590874E0,1.8660473E1,2.6576048E1,2.6890408E1,2.4657934E1,1.2371288E1,9.749813E0,1.4356428E1,0E0,0E0,7.6286907E0,0E0,2.4114607E1,2.6100697E1,3.2967087E1,2.8812607E1,1.2977985E1,2.7043E1,1.2471886E1,5.658489E0,1.0965685E1,1.8874231E1,3.5274857E1,2.1397255E1,0E0,6.663729E0,2.5821384E1,2.1869118E1,0E0,8.559513E0,2.1389904E1,1.0048031E1,2.9075542E1,1.2764328E1,0E0,0E0,0E0,0E0,0E0,0E0,0E0,0E0,0E0,0E0,0E0,0E0,0E0,0E0,0E0,0E0,0E0,0E0,0E0,0E0,0E0,0E0,0E0,0E0,0E0,0E0,0E0,0E0,0E0,0E0,0E0,0E0],"parents":[2147483647,0,0,1,1,2,2,3,3,4,4,5,5,6,6,7,7,10,10,11,11,12,12,13,13,14,14,15,15,16,16,17,17,18,18,21,21,23,23,24,24,25,25,26,26,27,27,28,28,29,29,30,30,31,31,32,32,33,33,34,34,36,36,37,37,38,38,40,40,41,41,42,42,43,43,44,44],"right_children":[2,4,6,8,10,12,14,16,-1,-1,18,20,22,24,26,28,30,32,34,-1,-1,36,-1,38,40,42,44,46,48,50,52,54,56,58,60,-1,62,64,66,-1,68,70,72,74,76,-1,-1,-1,-1,-1,-1,-1,-1,-1,-1,-1,-1,-1,-1,-1,-1,-1,-1,-1,-1,-1,-1,-1,-1,-1,-1,-1,-1,-1,-1,-1,-1],"split_conditions":[2.773802E1,7.335011E1,2.7826385E1,7.294704E1,7.367003E1,6.3345675E0,5.9407253E0,2.7449284E1,7.655934E-1,-6.419688E-1,3.5E0,5.6029673E0,7.7819885E1,5.84151E0,8.950966E1,4.18288E1,6.737501E0,1.1916034E2,1.08356285E2,-1.8680172E-1,-8.150504E-1,7.4009404E0,3.3291736E-1,4.7212887E1,4.830922E1,8.755124E1,9.212645E1,2.2986397E1,4.6101074E1,5.450029E1,6.898693E1,5.7396173E0,2.3760345E1,6.1065702E0,2.7149906E1,-6.9920105E-1,2.7796791E1,1.25E1,2.799665E1,-4.1110042E-1,9.0380005E1,4.310557E1,6.454198E0,9.1760864E1,9.4299324E1,-4.8058233E-1,-7.786226E-2,3.5763296E-1,4.6776332E-2,3.8066484E-2,7.3979455E-1,7.7848697E-1,1.0700226E-2,-5.2456044E-2,1.4268622E-1,2.750416E-2,-7.042637E-1,-2.3510401E-1,5.4628507E-4,1.8543111E-2,-2.852877E-1,-3.3845884E-1,3.7070075E-1,7.7266264E-1,1.04392745E-1,5.016418E-1,-5.0532892E-2,8.6264694E-1,3.454035E-1,1.512677E-1,-1.24587685E-1,-9.3718284E-1,-3.21172E-1,8.310867E-2,5.5852956E-1,-1.6269536E-1,7.8346826E-2],"split_indices":[0,3,0,3,3,2,2,0,0,0,4,2,1,2,1,3,2,3,3,0,0,2,0,1,1,1,1,0,3,3,3,2,0,2,0,0,0,4,0,0,3,3,2,1,1,0,0,0,0,0,0,0,0,0,0,0,0,0,0,0,0,0,0,0,0,0,0,0,0,0,0,0,0,0,0,0,0],"split_type":[0,0,0,0,0,0,0,0,0,0,0,0,0,0,0,0,0,0,0,0,0,0,0,0,0,0,0,0,0,0,0,0,0,0,0,0,0,0,0,0,0,0,0,0,0,0,0,0,0,0,0,0,0,0,0,0,0,0,0,0,0,0,0,0,0,0,0,0,0,0,0,0,0,0,0,0,0],"sum_hessian":[1.76E3,1.202E3,5.58E2,3.55E2,8.47E2,1.6E1,5.42E2,3.5E2,5E0,6E0,8.41E2,6E0,1E1,1.28E2,4.14E2,3.3E2,2E1,1.76E2,6.65E2,2E0,4E0,7E0,3E0,1.11E2,1.7E1,2.44E2,1.7E2,4.7E1,2.83E2,1.2E1,8E0,1.58E2,1.8E1,2.42E2,4.23E2,4E0,3E0,2.3E1,8.8E1,2E0,1.5E1,2.32E2,1.2E1,8.3E1,8.7E1,8E0,3.9E1,2.7E1,2.56E2,1E1,2E0,7E0,1E0,3.2E1,1.26E2,1.5E1,3E0,9.1E1,1.51E2,4.02E2,2.1E1,2E0,1E0,7E0,1.6E1,6E0,8.2E1,6E0,9E0,2.8E1,2.04E2,4E0,8E0,7E1,1.3E1,5.8E1,2.9E1],"tree_param":{"num_deleted":"0","num_feature":"5","num_nodes":"77","size_leaf_vector":"0"}},{"base_weights":[4.8857774E-3,-1.349558E-1,2.8112348E-2,-2.3761466E-2,-1.7666373E0,1.7172503E0,7.74247E-3,-7.5512934E-1,4.7453746E-2,2.4792814E-1,