{"learner":{"attributes":{"best_iteration":"99","best_ntree_limit":"100","scikit_learn":"{\"n_estimators\": 100, \"objective\": \"reg:squarederror\", \"max_depth\": null, \"max_leaves\": null, \"max_bin\": null, \"grow_policy\": null, \"learning_rate\": null, \"verbosity\": null, \"booster\": null, \"tree_method\": null, \"gamma\": null, \"min_child_weight\": null, \"max_delta_step\": null, \"subsample\": null, \"sampling_method\": null, \"colsample_bytree\": null, \"colsample_bylevel\": null, \"colsample_bynode\": null, \"reg_alpha\": null, \"reg_lambda\": null, \"scale_pos_weight\": null, \"base_score\": null, \"missing\": NaN, \"num_parallel_tree\": null, \"random_state\": 42, \"n_jobs\": null, \"monotone_constraints\": null, \"interaction_constraints\": null, \"importance_type\": null, \"gpu_id\": null, \"validate_parameters\": null, \"predictor\": null, \"enable_categorical\": false, \"max_cat_to_onehot\": null, \"eval_metric\": null, \"early_stopping_rounds\": null, \"callbacks\": null, \"_estimator_type\": \"regressor\"}"},"feature_names":["temperature","humidity","ph","rainfall","label"],"feature_types":["float","float","float","float","int"],"gradient_booster":{"model":{"gbtree_model_param":{"num_parallel_tree":"1","num_trees":"100","size_leaf_vector":"0"},"tree_info":[0,0,0,0,0,0,0,0,0,0,0,0,0,0,0,0,0,0,0,0,0,0,0,0,0,0,0,0,0,0,0,0,0,0,0,0,0,0,0,0,0,0,0,0,0,0,0,0,0,0,0,0,0,0,0,0,0,0,0,0,0,0,0,0,0,0,0,0,0,0,0,0,0,0,0,0,0,0,0,0,0,0,0,0,0,0,0,0,0,0,0,0,0,0,0,0,0,0,0,0],"trees":[{"base_weights":[5.0157864E1,4.6242653E1,8.825767E1,6.415182E1,3.681762E1,9.786539E1,7.851744E1,4.4665363E1,1.0857485E2,9.86131E1,3.1411583E1,6.026282E1,2.0198675E1,1.1629651E2,9.9152435E1,2.6763514E1,5.5775974E1,4.015484E1,9.846875E1,6.428571E0,2.0724138E1,3.380597E1,2.1792707E1,7.749359E1,3.305195E1,1.5875E1,4.0529606E1,3.3333334E-1,8.8E0,2.0850695E1,1.25E0,2.0466797E1,7.606875E1,2.0916489E1,4.9464287E1,2.155814E1,4.6228573E1],"categories":[],"categories_nodes":[],"categories_segments":[],"categories_sizes":[],"default_left":[1,1,1,1,1,0,0,1,1,0,1,1,1,0,0,1,1,1,0,1,1,1,1,0,1,0,0,0,0,0,0,0,0,0,0,0,0],"id":0,"left_children":[1,3,5,7,9,-1,-1,11,13,-1,15,17,19,-1,-1,21,23,25,-1,27,29,31,33,-1,35,-1,-1,-1,-1,-1,-1,-1,-1,-1,-1,-1,-1],"loss_changes":[2.58605E5,2.6754025E5,7.569625E3,4.7125625E5,3.476745E5,0E0,0E0,1.4532412E5,6.1925E2,0E0,1.0801744E5,1.7581506E5,9.593594E2,0E0,0E0,2.775875E4,7.343947E4,7.669844E2,0E0,9.824765E1,3.3130078E2,1.872995E5,1.0603641E4,0E0,1.0665008E4,0E0,0E0,0E0,0E0,0E0,0E0,0E0,0E0,0E0,0E0,0E0,0E0],"parents":[2147483647,0,0,1,1,2,2,3,3,4,4,7,7,8,8,10,10,11,11,12,12,15,15,16,16,17,17,19,19,20,20,21,21,22,22,24,24],"right_children":[2,4,6,8,10,-1,-1,12,14,-1,16,18,20,-1,-1,22,24,26,-1,28,30,32,34,-1,36,-1,-1,-1,-1,-1,-1,-1,-1,-1,-1,-1,-1],"split_conditions":[1.95E1,6.5E0,5.867383E1,4.5E0,3.0393478E1,2.9359617E1,2.3555233E1,8.750212E1,1.1627196E2,2.9583931E1,1.4979646E2,7.249646E1,5.5425215E0,3.4888954E1,2.9745731E1,1.15E1,1.25E1,6.133072E1,2.9540627E1,2.2724344E1,2.2523196E2,1.05E1,3.758502E1,2.3248077E1,9.026284E1,4.7625003E0,1.2158882E1,1.0000001E-1,2.64E0,6.2552085E0,3.75E-1,6.1400394E0,2.2820625E1,6.2749467E0,1.4839287E1,6.467442E0,1.3868572E1],"split_indices":[4,4,3,4,3,0,0,1,3,0,3,1,2,0,0,4,4,3,0,0,3,4,0,0,1,0,0,0,0,0,0,0,0,0,0,0,0],"split_type":[0,0,0,0,0,0,0,0,0,0,0,0,0,0,0,0,0,0,0,0,0,0,0,0,0,0,0,0,0,0,0,0,0,0,0,0,0],"sum_hessian":[1.76E3,1.598E3,1.62E2,5.49E2,1.049E3,7.7E1,8.5E1,3.83E2,1.66E2,8.3E1,9.66E2,2.33E2,1.5E2,8.5E1,8.1E1,8.13E2,1.53E2,1.54E2,7.9E1,6E0,1.44E2,3.34E2,4.79E2,7.7E1,7.6E1,3E0,1.51E2,2E0,4E0,1.43E2,1E0,2.55E2,7.9E1,4.66E2,1.3E1,4.2E1,3.4E1],"tree_param":{"num_deleted":"0","num_feature":"5","num_nodes":"37","size_leaf_vector":"0"}},{"base_weights":[3.5278946E1,3.252227E1,6.2104996E1,4.27325E1,2.4278284E1,6.868696E1,5.4933384E1,5.0308884E1,1.4201127E1,6.9381355E1,1.9535826E1,3.0616444E1,6.266348E1,6.297437E0,1.4657717E1,2.6351421E1,1.6448381E1,3.9925148E1,1.6033985E1,2.7738403E1,6.862756E1,1.1149917E1,1.2041318E0,1.3813016E1,1.863731E1,1.3404902E1,5.3533382E1,1.4015764E1,2.4079819E1,2.818581E1,7.929068E1,8.962463E0,1.738274E1,1.5969883E1,2.9515182E1,7.337376E1,5.4543564E1,-3E-1,1.4087396E1,2.796E0,-3.3776042E0,1.4437315E1,4.4398146E0,1.942361E1,1.0625E0,1.5001456E1,1.0526211E1,1.1093106E1,1.612636E1,1.5253547E1,3.4247654E1],"categories":[],"categories_nodes":[],"categories_segments":[],"categories_sizes":[],"default_left":[1,1,1,1,1,0,0,1,1,0,1,1,1,1,1,1,1,1,1,1,1,1,1,1,1,1,0,1,1,0,0,0,0,0,0,0,0,0,0,0,0,0,0,0,0,0,0,0,0,0,0],"id":1,"left_children":[1,3,5,7,9,-1,-1,11,13,-1,15,17,19,21,23,25,27,29,31,33,35,37,39,41,43,45,-1,47,49,-1,-1,-1,-1,-1,-1,-1,-1,-1,-1,-1,-1,-1,-1,-1,-1,-1,-1,-1,-1,-1,-1],"loss_changes":[1.2820725E5,1.3355512E5,3.920875E3,1.53411E5,1.8837334E5,0E0,0E0,1.3505488E5,4.5261523E2,0E0,1.6484938E4,2.9087734E4,6.99585E4,2.3372562E2,2.199043E2,8.690842E4,9.984297E3,5.922778E4,6.7399023E2,6.1596875E2,1.5650375E4,1.7239563E2,5.32049E1,6.439551E2,2.8338184E2,6.2341016E2,0E0,2.4365703E3,1.14135625E4,0E0,0E0,0E0,0E0,0E0,0E0,0E0,0E0,0E0,0E0,0E0,0E0,0E0,0E0,0E0,0E0,0E0,0E0,0E0,0E0,0E0,0E0],"parents":[2147483647,0,0,1,1,2,2,3,3,4,4,7,7,8,8,10,10,11,11,12,12,13,13,14,14,15,15,16,16,17,17,18,18,19,19,20,20,21,21,22,22,23,23,24,24,25,25,27,27,28,28],"right_children":[2,4,6,8,10,-1,-1,12,14,-1,16,18,20,22,24,26,28,30,32,34,36,38,40,42,44,46,-1,48,50,-1,-1,-1,-1,-1,-1,-1,-1,-1,-1,-1,-1,-1,-1,-1,-1,-1,-1,-1,-1,-1,-1],"split_conditions":[1.95E1,8.5E0,5.9719536E1,8.9958405E1,3.0393478E1,2.0606089E1,1.6480017E1,7.4928215E1,5.549948E0,2.0814407E1,1.15E1,6.5E0,2.1469963E1,9.2233665E1,9.642375E1,1.05E1,3.1256014E1,7.267926E1,6.658554E1,6.566333E0,7E0,2.198796E1,5.545051E0,9.562016E1,2.234291E2,6.549806E0,1.6060015E1,6.487673E0,9.016211E1,8.455744E0,2.3787205E1,2.688739E0,5.2148223E0,4.790965E0,8.854555E0,2.2012127E1,1.636307E1,-9E-2,4.2262187E0,8.388E-1,-1.0132813E0,4.331195E0,1.3319445E0,5.8270836E0,3.1875002E-1,4.5004373E0,3.1578634E0,3.3279321E0,4.8379083E0,4.576064E0,1.0274297E1],"split_indices":[4,4,3,1,3,0,0,3,2,0,4,4,0,1,1,4,0,1,3,2,4,0,2,1,3,2,0,2,1,0,0,0,0,0,0,0,0,0,0,0,0,0,0,0,0,0,0,0,0,0,0],"split_type":[0,0,0,0,0,0,0,0,0,0,0,0,0,0,0,0,0,0,0,0,0,0,0,0,0,0,0,0,0,0,0,0,0,0,0,0,0,0,0,0,0,0,0,0,0,0,0,0,0,0,0],"sum_hessian":[1.76E3,1.598E3,1.62E2,7.12E2,8.86E2,8E1,8.2E1,5.62E2,1.5E2,8.3E1,8.03E2,2.18E2,3.44E2,9E0,1.41E2,2.48E2,5.55E2,1.32E2,8.6E1,5.1E1,2.93E2,4E0,5E0,1.2E2,2.1E1,1.69E2,7.9E1,4.23E2,1.32E2,1.03E2,2.9E1,1.5E1,7.1E1,8E0,4.3E1,2.16E2,7.7E1,1E0,3E0,4E0,1E0,1.12E2,8E0,2E1,1E0,1.06E2,6.3E1,1.8E2,2.43E2,7.2E1,6E1],"tree_param":{"num_deleted":"0","num_feature":"5","num_nodes":"51","size_leaf_vector":"0"}},{"base_weights":[2.4815973E1,2.2875336E1,4.370102E1,3.0064135E1,1.7070953E1,4.888314E1,3.9063705E1,3.5379925E1,1.0045231E1,4.9040195E1,1.3753539E1,3.928147E1,9.732376E0,2.1614828E1,4.401522E1,7.2143006E0,1.1069861E1,1.854125E1,1.158856E1,2.8190031E1,1.1314633E1,1.9679296E1,4.8169823E1,-2.7743062E-1,8.436674E0,1.2561998E1,7.5561438E0,9.42848E0,3.7674118E1,8.848602E0,1.5388722E1,1.9811373E1,5.629638E1,1.6277275E1,9.488986E0,1.0185844E1,2.0696142E1,5.1463066E1,3.839028E1,8.467866E0,-5.4691224E0,1.817168E1,5.9662957E0,1.30056925E1,1.4350104E0,2.1755738E0,1.3125243E1,1.5479589E0,9.808086E0,9.350636E0,2.9427283E0,3.0011782E1,7.9307404E0],"categories":[],"categories_nodes":[],"categories_segments":[],"categories_sizes":[],"default_left":[1,1,1,1,1,0,1,1,1,0,1,0,0,1,1,1,1,1,1,1,1,1,1,1,1,1,1,1,0,1,1,0,0,0,0,0,0,0,0,0,0,0,0,0,0,0,0,0,0,0,0,0,0],"id":2,"left_children":[1,3,5,7,9,-1,11,13,15,-1,17,-1,-1,19,21,23,25,27,29,31,33,35,37,39,41,43,45,47,-1,49,51,-1,-1,-1,-1,-1,-1,-1,-1,-1,-1,-1,-1,-1,-1,-1,-1,-1,-1,-1,-1,-1,-1],"loss_changes":[6.353925E4,6.62075E4,2.0075E3,7.5519375E4,9.3396484E4,0E0,1.9895312E2,6.597E4,3.581377E2,0E0,8.129203E3,0E0,0E0,1.4513E4,3.3933688E4,3.9612134E2,4.7656152E2,4.3058797E4,5.6634688E3,3.020532E4,6.3376855E2,2.9116797E2,7.493E3,3.6413193E2,7.814011E2,3.5160938E2,1.02021765E3,4.9337207E2,0E0,9.3905664E2,2.5063559E4,0E0,0E0,0E0,0E0,0E0,0E0,0E0,0E0,0E0,0E0,0E0,0E0,0E0,0E0,0E0,0E0,0E0,0E0,0E0,0E0,0E0,0E0],"parents":[2147483647,0,0,1,1,2,2,3,3,4,4,6,6,7,7,8,8,10,10,13,13,14,14,15,15,16,16,17,17,18,18,19,19,20,20,21,21,22,22,23,23,24,24,25,25,26,26,27,27,29,29,30,30],"right_children":[2,4,6,8,10,-1,12,14,16,-1,18,-1,-1,20,22,24,26,28,30,32,34,36,38,40,42,44,46,48,-1,50,52,-1,-1,-1,-1,-1,-1,-1,-1,-1,-1,-1,-1,-1,-1,-1,-1,-1,-1,-1,-1,-1,-1],"split_conditions":[1.95E1,8.5E0,5.765071E1,8.9958405E1,2.9653446E1,1.4664943E1,7.811129E0,7.4928215E1,5.7096195E0,1.4712059E1,1.15E1,1.1784442E1,2.919713E0,6.5E0,2.1469963E1,9.069138E1,6.173659E0,1.05E1,1.65E1,7.267926E1,8.0749756E1,6.4817066E0,7E0,9.02499E1,9.130197E1,2.9364481E1,6.3348866E0,3.6920547E1,1.1302236E1,9.3077126E1,1.75E1,5.943412E0,1.6888914E1,4.8831825E0,2.846696E0,3.0557535E0,6.2088428E0,1.543892E1,1.1517085E1,2.54036E0,-1.6407368E0,5.451504E0,1.7898887E0,3.901708E0,4.3050316E-1,6.526722E-1,3.9375732E0,4.6438769E-1,2.942426E0,2.8051908E0,8.828185E-1,9.003535E0,2.3792222E0],"split_indices":[4,4,3,1,3,0,2,3,2,0,4,0,0,4,0,1,2,4,4,1,1,2,4,1,1,0,2,3,0,1,4,0,0,0,0,0,0,0,0,0,0,0,0,0,0,0,0,0,0,0,0,0,0],"split_type":[0,0,0,0,0,0,0,0,0,0,0,0,0,0,0,0,0,0,0,0,0,0,0,0,0,0,0,0,0,0,0,0,0,0,0,0,0,0,0,0,0,0,0,0,0,0,0,0,0,0,0,0,0],"sum_hessian":[1.76E3,1.598E3,1.62E2,7.12E2,8.86E2,7.2E1,9E1,5.62E2,1.5E2,8.2E1,8.04E2,8.9E1,1E0,2.18E2,3.44E2,4.2E1,1.08E2,2.48E2,5.56E2,1.32E2,8.6E1,5.1E1,2.93E2,6E0,3.6E1,7.4E1,3.4E1,1.69E2,7.9E1,3.25E2,2.31E2,1.03E2,2.9E1,2.1E1,6.5E1,6E0,4.5E1,2.16E2,7.7E1,2E0,4E0,6E0,3E1,7.1E1,3E0,1.8E1,1.6E1,8E0,1.61E2,2.99E2,2.6E1,7.7E1,1.54E2],"tree_param":{"num_deleted":"0","num_feature":"5","num_nodes":"53","size_leaf_vector":"0"}},{"base_weights":[1.7460737E1,1.6092997E1,3.0770893E1,2.1162489E1,1.1999827E1,3.346575E1,2.571612E1,2.4884567E1,7.144665E0,3.4333363E1,9.6208105E0,9.340155E0,3.3610706E1,1.272027E1,2.7165207E1,1.5269933E1,3.091564E1,6.547112E0,1.0350901E1,1.6217785E1,3.479835E1,1.3037948E1,8.070381E0,2.237971E1,3.0518919E1,1.9904694E1,8.009092E0,1.3953672E1,3.381056E1,6.937746E0,-2.7727127E-1,1.1542076E0,1.1212859E1,3.5000927E1,9.194801E0,6.6199765E0,2.6513163E1,6.075773E0,1.0821169E1,2.360466E1,5.1202064E0,1.1944247E1,3.3013096E1,1.3925109E1,3.9970432E1,5.911844E0,1.0557865E1,8.5185995E0,1.5546937E1,4.0391075E1,3.084971E1,6.1446605E0,1.1222709E1,-5.5595207E0,4.0039825E0,1.1861884E1,3.58109E0,7.3250313E0,3.0855522E0,6.1585636E0,2.669286E1,2.8148735E0,6.852102E0,2.1123676E1,5.566868E0,2.657529E1,1.5700801E1],"categories":[],"categories_nodes":[],"categories_segments":[],"categories_sizes":[],"default_left":[1,1,1,1,1,1,1,1,1,1,1,0,0,0,1,1,1,1,1,0,1,1,1,1,1,1,1,1,1,1,1,0,1,0,0,1,1,1,1,1,0,0,0,0,0,0,0,0,0,0,0,0,0,0,0,0,0,0,0,0,0,0,0,0,0,0,0],"id":3,"left_children":[1,3,5,7,9,11,13,15,17,19,21,-1,-1,-1,23,25,27,29,31,-1,33,35,37,39,41,43,45,47,49,51,53,-1,55,-1,-1,57,59,61,63,65,-1,-1,-1,-1,-1,-1,-1,-1,-1,-1,-1,-1,-1,-1,-1,-1,-1,-1,-1,-1,-1,-1,-1,-1,-1,-1,-1],"loss_changes":[3.15635E4,3.292578E4,1.3597656E3,3.702325E4,4.6797633E4,4.6273438E1,8.0321094E2,3.2174344E4,2.2153174E2,1.5164062E2,4.1490938E3,0E0,0E0,0E0,1.8365234E2,7.210426E3,1.6468938E4,3.4848242E2,1.6145581E2,0E0,1.03484375E2,2.1358883E4,2.9793984E3,4.2883203E2,9.4921094E2,1.5401383E4,4.0263477E2,3.1785645E2,4.4822188E3,3.4903613E2,2.0317741E2,0E0,5.6585693E1,0E0,0E0,4.0103223E2,1.2822266E2,8.0092773E2,1.2441143E4,1.4625293E2,0E0,0E0,0E0,0E0,0E0,0E0,0E0,0E0,0E0,0E0,0E0,0E0,0E0,0E0,0E0,0E0,0E0,0E0,0E0,0E0,0E0,0E0,0E0,0E0,0E0,0E0,0E0],"parents":[2147483647,0,0,1,1,2,2,3,3,4,4,5,5,6,6,7,7,8,8,9,9,10,10,14,14,15,15,16,16,17,17,18,18,20,20,21,21,22,22,23,23,24,24,25,25,26,26,27,27,28,28,29,29,30,30,32,32,35,35,36,36,37,37,38,38,39,39],"right_children":[2,4,6,8,10,12,14,16,18,20,22,-1,-1,-1,24,26,28,30,32,-1,34,36,38,40,42,44,46,48,50,52,54,-1,56,-1,-1,58,60,62,64,66,-1,-1,-1,-1,-1,-1,-1,-1,-1,-1,-1,-1,-1,-1,-1,-1,-1,-1,-1,-1,-1,-1,-1,-1,-1,-1,-1],"split_conditions":[1.95E1,8.5E0,2.0974359E2,8.9958405E1,3.1376034E1,2.0579967E1,2.2371265E2,7.4928215E1,2.8283546E1,9.004848E1,1.15E1,2.8020465E0,1.0083212E1,3.8160813E0,2.346529E1,6.5E0,2.1469963E1,2.7696323E1,5.5425215E0,4.8653355E0,6.7790194E0,1.05E1,1.65E1,2.8575525E2,8.053444E1,7.267926E1,8.224504E1,1.5885651E1,1.0008842E2,9.642375E1,5.9119997E0,3.4626228E-1,2.9700478E1,1.0500278E1,2.7584405E0,6.638019E1,5.5589188E1,4.954499E1,1.75E1,2.2462639E1,1.536062E0,3.5832744E0,9.903929E0,4.1775327E0,1.199113E1,1.7735533E0,3.1673596E0,2.55558E0,4.664081E0,1.2117323E1,9.254913E0,1.8433982E0,3.3668127E0,-1.6678563E0,1.2011948E0,3.5585654E0,1.074327E0,2.1975095E0,9.256657E-1,1.8475691E0,8.007858E0,8.444621E-1,2.0556307E0,6.3371034E0,1.6700604E0,7.9725876E0,4.7102404E0],"split_indices":[4,4,3,1,3,0,3,3,0,1,4,0,0,0,0,4,0,0,2,0,2,4,4,3,1,1,1,1,3,1,2,0,0,0,0,1,1,1,4,0,0,0,0,0,0,0,0,0,0,0,0,0,0,0,0,0,0,0,0,0,0,0,0,0,0,0,0],"split_type":[0,0,0,0,0,0,0,0,0,0,0,0,0,0,0,0,0,0,0,0,0,0,0,0,0,0,0,0,0,0,0,0,0,0,0,0,0,0,0,0,0,0,0,0,0,0,0,0,0,0,0,0,0,0,0,0,0,0,0,0,0,0,0,0,0,0,0],"sum_hessian":[1.76E3,1.598E3,1.62E2,7.12E2,8.86E2,1.02E2,6E1,5.62E2,1.5E2,8.4E1,8.02E2,1E0,1.01E2,7E0,5.3E1,2.18E2,3.44E2,1.29E2,2.1E1,3E0,8.1E1,2.48E2,5.54E2,2.5E1,2.8E1,1.32E2,8.6E1,5.1E1,2.93E2,1.22E2,7E0,2E0,1.9E1,8E1,1E0,1.69E2,7.9E1,3.23E2,2.31E2,2.3E1,2E0,4E0,2.4E1,1.03E2,2.9E1,4.9E1,3.7E1,1.3E1,3.8E1,8.7E1,2.06E2,1.05E2,1.7E1,3E0,4E0,1.7E1,2E0,1.4E2,2.9E1,1E0,7.8E1,6.3E1,2.6E2,7.7E1,1.54E2,1.5E1,8E0],"tree_param":{"num_deleted":"0","num_feature":"5","num_nodes":"67","size_leaf_vector":"0"}},{"base_weights":[1.2305333E1,1.1328533E1,2.1812063E1,1.5879873E1,8.933709E0,1.7502897E1,2.3210323E1,1.0566491E1,2.8002382E1,2.405761E1,7.559526E0,1.8807892E1,9.27944E0,2.4546494E1,1.7698826E1,1.407102E1,5.065654E0,3.1457518E1,2.2375946E1,2.6575401E1,1.9936935E1,6.462475E0,1.3200261E1,1.59150305E1,2.350843E1,3.2682521E0,1.8722542E1,9.890702E0,2.1994497E1,4.689189E0,9.430737E0,2.5602264E1,3.3460297E1,6.755694E0,2.3801617E1,2.4624004E1,1.5193262E1,8.270863E0,5.179988E0,1.7857183E1,8.314402E0,2.4744053E1,1.3185024E1,8.010031E0,2.7784561E1,1.4107818E1,2.189707E1,7.7566056E0,1.2181653E1,1.5282379E1,2.318673E1,5.559548E0,-8.544611E-1,1.0260548E1,5.663128E-1,6.3655396E0,2.6748976E1,3.3677444E1,9.021336E0,3.4386475E0,1.0032207E1,2.4398338E1,1.2238647E1,1.2304245E1,2.8731884E1,5.57444E0,1.785074E1,4.9720607E0,1.8682407E1,1.8513511E0,6.4121E0,1.8900227E1,1.1107866E1,9.074181E0,1.4811838E0,1.3671451E1,1.485035E0,4.0963783E0,1.6701612E1,2.4897514E1,8.921693E0],"categories":[],"categories_nodes":[],"categories_segments":[],"categories_sizes":[],"default_left":[1,1,1,1,1,1,1,1,1,1,1,1,0,0,1,1,1,1,1,0,1,1,1,1,1,0,1,1,1,1,1,1,1,1,1,1,1,1,1,1,1,0,1,0,0,1,1,0,0,0,0,0,0,0,0,0,0,0,0,0,0,0,0,0,0,0,0,0,0,0,0,0,0,0,0,0,0,0,0,0,0],"id":4,"left_children":[1,3,5,7,9,11,13,15,17,19,21,23,-1,-1,25,27,29,31,33,-1,35,37,39,41,43,-1,45,47,49,51,53,55,57,59,61,63,65,67,69,71,73,-1,75,-1,-1,77,79,-1,-1,-1,-1,-1,-1,-1,-1,-1,-1,-1,-1,-1,-1,-1,-1,-1,-1,-1,-1,-1,-1,-1,-1,-1,-1,-1,-1,-1,-1,-1,-1,-1,-1],"loss_changes":[1.6105844E4,1.7286688E4,5.758828E2,3.5130453E4,2.1640305E4,2.976621E2,4.4926953E2,7.331414E3,2.5426016E3,3.7279688E2,5.8800938E3,1.2898828E2,0E0,0E0,3.3767578E2,7.53316E3,2.0391577E2,3.2775E2,1.3312461E3,0E0,4.4853613E2,1.833418E3,3.4010078E3,3.0043457E2,5.7272314E2,0E0,5.7319336E1,6.633242E2,2.8583984E2,6.850708E2,7.510315E1,4.9149805E2,7.827344E1,4.1581207E1,1.2228906E2,5.0681348E2,4.3729053E2,1.1378547E4,1.9403262E3,3.4620703E2,3.9151514E2,0E0,1.0490332E2,0E0,0E0,2.6916284E2,2.8398633E2,0E0,0E0,0E0,0E0,0E0,0E0,0E0,0E0,0E0,0E0,0E0,0E0,0E0,0E0,0E0,0E0,0E0,0E0,0E0,0E0,0E0,0E0,0E0,0E0,0E0,0E0,0E0,0E0,0E0,0E0,0E0,0E0,0E0,0E0],"parents":[2147483647,0,0,1,1,2,2,3,3,4,4,5,5,6,6,7,7,8,8,9,9,10,10,11,11,14,14,15,15,16,16,17,17,18,18,20,20,21,21,22,22,23,23,24,24,26,26,27,27,28,28,29,29,30,30,31,31,32,32,33,33,34,34,35,35,36,36,37,37,38,38,39,39,40,40,42,42,45,45,46,46],"right_children":[2,4,6,8,10,12,14,16,18,20,22,24,-1,-1,26,28,30,32,34,-1,36,38,40,42,44,-1,46,48,50,52,54,56,58,60,62,64,66,68,70,72,74,-1,76,-1,-1,78,80,-1,-1,-1,-1,-1,-1,-1,-1,-1,-1,-1,-1,-1,-1,-1,-1,-1,-1,-1,-1,-1,-1,-1,-1,-1,-1,-1,-1,-1,-1,-1,-1,-1,-1],"split_conditions":[1.95E1,6.5E0,6.112136E0,4.5E0,3.1962212E1,8.47908E1,2.307663E2,8.750212E1,1.3050871E2,6.4289513E0,1.4920998E2,2.5692543E1,2.783832E0,7.3639483E0,2.3239093E2,7.249646E1,6.3931713E0,2.346978E1,1.3721846E2,7.9726205E0,2.8026413E1,1.15E1,1.3E1,2.1276066E1,8.089406E1,9.8047566E-1,2.5887744E2,7.2563963E0,5.6988125E0,6.2209005E0,2.12192E2,6.3882565E1,8.454564E1,2.5978756E1,7.442492E0,2.7290592E1,2.8943619E1,1.05E1,2.4366789E1,1.9236237E2,4.062712E1,7.4232163E0,6.0204773E0,2.4030094E0,8.335369E0,2.2919693E1,7.2436028E0,2.3269818E0,3.654496E0,4.584714E0,6.956019E0,1.6678644E0,-2.5633833E-1,3.0781643E0,1.6989385E-1,1.9096619E0,8.0246935E0,1.0103233E1,2.7064009E0,1.0315943E0,3.0096622E0,7.319502E0,3.6715944E0,3.6912737E0,8.619566E0,1.672332E0,5.355222E0,1.4916183E0,5.6047225E0,5.554054E-1,1.92363E0,5.6700683E0,3.33236E0,2.7222543E0,4.4435516E-1,4.101435E0,4.455105E-1,1.2289135E0,5.0104837E0,7.4692545E0,2.676508E0],"split_indices":[4,4,2,4,3,1,3,1,3,2,3,0,0,0,3,1,2,0,3,0,0,4,4,0,1,0,3,2,2,2,3,1,1,0,2,0,0,4,0,3,0,0,2,0,0,0,2,0,0,0,0,0,0,0,0,0,0,0,0,0,0,0,0,0,0,0,0,0,0,0,0,0,0,0,0,0,0,0,0,0,0],"split_type":[0,0,0,0,0,0,0,0,0,0,0,0,0,0,0,0,0,0,0,0,0,0,0,0,0,0,0,0,0,0,0,0,0,0,0,0,0,0,0,0,0,0,0,0,0,0,0,0,0,0,0,0,0,0,0,0,0,0,0,0,0,0,0,0,0,0,0,0,0,0,0,0,0,0,0,0,0,0,0,0,0],"sum_hessian":[1.76E3,1.598E3,1.62E2,5.49E2,1.049E3,4.3E1,1.19E2,3.83E2,1.66E2,8.6E1,9.63E2,3.6E1,7E0,9.3E1,2.6E1,2.33E2,1.5E2,1E2,6.6E1,5E1,3.6E1,8.08E2,1.55E2,2.5E1,1.1E1,2E0,2.4E1,1.54E2,7.9E1,1.4E2,1E1,2.9E1,7.1E1,6E0,6E1,1.6E1,2E1,3.33E2,4.75E2,7.8E1,7.7E1,4E0,2.1E1,3E0,8E0,1.2E1,1.2E1,8.2E1,7.2E1,1.4E1,6.5E1,1.21E2,1.9E1,9E0,1E0,2E0,2.7E1,7E1,1E0,4E0,2E0,5.6E1,4E0,5E0,1.1E1,5E0,1.5E1,2.54E2,7.9E1,1.29E2,3.46E2,6.6E1,1.2E1,6.9E1,8E0,2E1,1E0,3E0,9E0,9E0,3E0],"tree_param":{"num_deleted":"0","num_feature":"5","num_nodes":"81","size_leaf_vector":"0"}},{"base_weights":[8.704156E0,7.9981494E0,1.5576556E1,1.1224926E1,6.3003154E0,1.3895456E1,1.7777903E1,7.4543095E0,1.9827871E1,1.7154247E1,5.314224E0,1.2528945E1,2.0030357E1,2.0473019E1,1.30268755E1,9.914282E0,3.5506573E0,2.224545E1,1.5887525E1,1.2450134E1,1.8372637E1,4.535568E0,9.318188E0,1.2893138E1,-1.3591753E0,2.2354033E1,2.509758E0,2.3649773E1,1.5099957E1,-1.2889023E0,1.3627055E1,7.2962112E0,1.6370096E1,1.681216E0,4.335835E0,1.8993258E1,2.4066671E1,5.7341213E0,1.6976519E1,1.4195084E1,4.0272827E0,8.861568E0,1.8996729E1,4.992596E0,1.7055063E0,1.261398E1,5.860678E0,1.3063656E1,-2.8890228E-1,9.784322E0,2.489265E1,3.5535393E0,2.1109772E-1,2.4273367E1,4.6535645E0,2.7110977E0,1.5669238E1,1.4033428E1,1.7338715E0,1.7583644E0,8.070106E0,1.7026579E1,1.7738538E0,-3.7533422E0,2.7528892E0,1.1256844E1,3.7266114E0,1.9422073E1,9.202843E-1,2.4864357E1,1.43610325E1,6.8065896E0,1.6778107E0,1.8897923E1,1.3737072E1,1.6511768E1,7.1958675E0,4.6505775E0,7.670517E-1,1.2013662E1,1.7049204E0,1.9800533E1,1.2063163E1,4.1903615E0,1.7384762E1,9.502359E0,1.0274196E0,1.4122566E1,8.0634365E0,3.1955938E0,7.9556165E0,1.3489084E1,5.6394324E0,6.2110977E0,2.4812056E1,7.1183715E0,1.5011611E1],"categories":[],"categories_nodes":[],"categories_segments":[],"categories_sizes":[],"default_left":[1,1,1,1,1,1,1,1,1,1,1,1,1,1,1,1,1,1,1,1,1,1,1,1,0,1,1,1,1,0,1,1,1,1,1,1,1,1,1,1,1,1,1,1,1,1,1,1,0,0,0,0,0,1,0,0,0,1,0,0,0,0,0,0,0,0,0,0,0,0,0,0,0,0,0,0,0,0,0,0,0,0,0,0,0,0,0,0,0,0,0,0,0,0,0,0,0],"id":5,"left_children":[1,3,5,7,9,11,13,15,17,19,21,23,25,27,29,31,33,35,37,39,41,43,45,47,-1,49,51,53,55,-1,57,59,61,63,65,67,69,71,73,75,77,79,81,83,85,87,89,91,-1,-1,-1,-1,-1,93,-1,-1,-1,95,-1,-1,-1,-1,-1,-1,-1,-1,-1,-1,-1,-1,-1,-1,-1,-1,-1,-1,-1,-1,-1,-1,-1,-1,-1,-1,-1,-1,-1,-1,-1,-1,-1,-1,-1,-1,-1,-1,-1],"loss_changes":[8.419719E3,8.689453E3,3.561797E2,1.7693328E4,1.1146957E4,5.6223047E2,5.91209E2,3.6523027E3,1.2374297E3,2.6989453E2,2.963209E3,4.3227637E2,5.95291E2,3.4271484E2,2.4954932E2,3.8524785E3,2.1288696E2,1.4111719E2,6.434746E2,2.5147876E2,2.2935547E2,1.0378594E3,1.7037305E3,1.8359668E2,0E0,2.0317822E2,6.447752E0,1.7134375E2,8.446826E1,0E0,1.0132764E2,7.100947E2,6.1180273E2,2.7823975E2,4.007765E2,2.9987598E2,1.151875E2,2.3381989E1,1.1385547E2,1.5683813E2,6.5931854E0,1.14868225E2,1.0668359E2,6.846383E3,5.929485E2,4.2844922E2,4.1006567E2,1.7344824E2,0E0,0E0,0E0,0E0,0E0,6.967871E1,0E0,0E0,0E0,6.2246582E1,0E0,0E0,0E0,0E0,0E0,0E0,0E0,0E0,0E0,0E0,0E0,0E0,0E0,0E0,0E0,0E0,0E0,0E0,0E0,0E0,0E0,0E0,0E0,0E0,0E0,0E0,0E0,0E0,0E0,0E0,0E0,0E0,0E0,0E0,0E0,0E0,0E0,0E0,0E0],"parents":[2147483647,0,0,1,1,2,2,3,3,4,4,5,5,6,6,7,7,8,8,9,9,10,10,11,11,12,12,13,13,14,14,15,15,16,16,17,17,18,18,19,19,20,20,21,21,22,22,23,23,25,25,26,26,27,27,28,28,30,30,31,31,32,32,33,33,34,34,35,35,36,36,37,37,38,38,39,39,40,40,41,41,42,42,43,43,44,44,45,45,46,46,47,47,53,53,57,57],"right_children":[2,4,6,8,10,12,14,16,18,20,22,24,26,28,30,32,34,36,38,40,42,44,46,48,-1,50,52,54,56,-1,58,60,62,64,66,68,70,72,74,76,78,80,82,84,86,88,90,92,-1,-1,-1,-1,-1,94,-1,-1,-1,96,-1,-1,-1,-1,-1,-1,-1,-1,-1,-1,-1,-1,-1,-1,-1,-1,-1,-1,-1,-1,-1,-1,-1,-1,-1,-1,-1,-1,-1,-1,-1,-1,-1,-1,-1,-1,-1,-1,-1],"split_conditions":[1.95E1,6.5E0,6.51643E0,4.5E0,3.1962212E1,2.6456749E1,6.93966E0,9.003076E1,1.3050871E2,9.077742E1,1.4920998E2,2.6381252E1,6.3716507E0,2.5402512E1,6.942438E0,9.4354744E1,5.7310467E0,2.379443E1,1.3853574E2,9.071385E1,2.7408234E1,1.75E1,1.3E1,6.507591E0,-4.077526E-1,8.090469E1,2.6852505E1,2.875773E2,4.1520473E1,-3.866707E-1,2.9454062E2,1.5896261E1,8.460896E1,9.069138E1,5.764714E0,2.3759596E1,2.6533758E1,5.765855E1,2.61339E1,2.959229E1,6.686243E0,2.7101715E1,2.9690426E1,1.65E1,3.799384E1,2.5821157E1,6.1519463E1,8.87135E1,-8.667069E-2,2.9352965E0,7.4677954E0,1.0660619E0,6.332932E-2,4.022406E1,1.3960694E0,8.1332934E-1,4.700772E0,1.935242E2,5.2016145E-1,5.2750933E-1,2.4210317E0,5.107974E0,5.3215617E-1,-1.1260027E0,8.2586676E-1,3.3770533E0,1.1179835E0,5.826622E0,2.760853E-1,7.459307E0,4.30831E0,2.041977E0,5.033432E-1,5.669377E0,4.121122E0,4.953531E0,2.1587603E0,1.3951733E0,2.3011552E-1,3.6040988E0,5.1147616E-1,5.9401603E0,3.618949E0,1.2571084E0,5.215429E0,2.850708E0,3.0822587E-1,4.23677E0,2.4190311E0,9.586782E-1,2.3866851E0,4.0467253E0,1.6918298E0,1.8633294E0,7.443617E0,2.1355116E0,4.5034833E0],"split_indices":[4,4,2,4,3,0,2,1,3,1,3,0,2,0,2,3,2,0,3,1,0,4,4,2,0,1,0,3,3,0,3,1,1,1,2,0,0,1,0,0,2,0,0,4,1,0,1,1,0,0,0,0,0,3,0,0,0,3,0,0,0,0,0,0,0,0,0,0,0,0,0,0,0,0,0,0,0,0,0,0,0,0,0,0,0,0,0,0,0,0,0,0,0,0,0,0,0],"split_type":[0,0,0,0,0,0,0,0,0,0,0,0,0,0,0,0,0,0,0,0,0,0,0,0,0,0,0,0,0,0,0,0,0,0,0,0,0,0,0,0,0,0,0,0,0,0,0,0,0,0,0,0,0,0,0,0,0,0,0,0,0,0,0,0,0,0,0,0,0,0,0,0,0,0,0,0,0,0,0,0,0,0,0,0,0,0,0,0,0,0,0,0,0,0,0,0,0],"sum_hessian":[1.76E3,1.598E3,1.62E2,5.49E2,1.049E3,9.6E1,6.6E1,3.83E2,1.66E2,8.6E1,9.63E2,8.1E1,1.5E1,4E1,2.6E1,2.34E2,1.49E2,1E2,6.6E1,2E1,6.6E1,8.08E2,1.55E2,7.9E1,2E0,1.3E1,2E0,2.3E1,1.7E1,1E0,2.5E1,1.68E2,6.6E1,4.5E1,1.04E2,4E1,6E1,7E0,5.9E1,1.6E1,4E0,5E0,6.1E1,6.95E2,1.13E2,7.8E1,7.7E1,7.8E1,1E0,3E0,1E1,1E0,1E0,2.2E1,1E0,1E0,1.6E1,2.4E1,1E0,2.1E1,1.47E2,6.3E1,3E0,7E0,3.8E1,7E0,9.7E1,3.9E1,1E0,5.4E1,6E0,5E0,2E0,3.4E1,2.5E1,1.1E1,5E0,3E0,1E0,3E0,2E0,5.3E1,8E0,6.54E2,4.1E1,8E0,1.05E2,5.7E1,2.1E1,3.5E1,4.2E1,7.3E1,5E0,1E0,2.1E1,4E0,2E1],"tree_param":{"num_deleted":"0","num_feature":"5","num_nodes":"97","size_leaf_vector":"0"}},{"base_weights":[6.163779E0,2.3747396E0,6.833378E0,3.3543184E0,-1.8206283E0,6.301111E0,1.1147553E1,3.0899267E0,1.0806882E1,1.5667511E0,-4.056575E0,7.1055536E0,3.1046946E0,1.047256E1,1.6003195E1,4.375016E0,1.2586093E0,3.631401E-1,1.2486982E1,-6.248611E0,3.7732253E0,-6.944007E0,3.7731485E0,5.325148E0,8.775525E0,1.4778889E1,1.8001539E0,1.0829408E1,1.8395331E0,3.8736522E0,1.7277283E1,-2.7392616E0,4.7632637E0,-3.6187232E0,2.8413363E0,1.3639123E1,3.36314E0,3.5333652E0,-9.577446E0,7.8797836E0,-7.525802E-1,-2.846613E-1,-9.839679E0,1.0004373E1,-6.5169744E0,3.9453633E0,1.2613452E1,1.1194561E1,2.6251645E0,1.9650888E1,8.020513E0,-1.7963489E0,2.8317723E0,9.401577E0,1.2743588E1,4.4867783E0,-3.1857197E0,1.8284306E1,6.8187537E0,-5.190949E0,5.9854307E0,4.2089267E0,1.0273775E1,7.728146E0,-5.8170786E0,2.3089318E0,1.0649474E1,-5.507896E0,1.0241731E1,4.9227605E0,-9.077446E0,-7.199952E0,5.3045034E0,-4.9062886E0,-1.2309084E1,7.783766E-1,1.1693896E1,1.3074125E0,5.4643693E0,1.4015317E1,1.0222133E1,1.2181257E1,3.0914133E0,2.2212405E0,6.020672E0,-4.6276093E-2,2.1061134E1,1.0994085E1,1.0639786E0,-3.4539528E0,3.304773E0,1.2530333E1,2.4474154E0,8.361876E0,1.3297691E1,1.5271102E1,9.369643E0,4.0385437E-1,7.0741096E0],"categories":[],"categories_nodes":[],"categories_segments":[],"categories_sizes":[],"default_left":[1,1,1,1,1,1,1,1,1,1,1,1,1,1,1,1,1,0,1,1,1,1,1,1,1,1,1,1,1,0,1,1,1,1,1,0,0,0,0,1,1,1,1,1,0,1,1,1,1,1,1,1,1,1,1,1,0,0,0,0,0,0,0,0,0,0,0,0,0,0,0,0,0,0,0,0,0,0,0,0,0,0,0,0,0,0,0,0,0,0,0,0,0,0,0,0,0,0,0],"id":6,"left_children":[1,3,5,7,9,11,13,15,17,19,21,23,25,27,29,31,33,-1,35,37,39,41,43,45,47,49,51,53,55,-1,57,59,61,63,65,-1,-1,-1,-1,67,69,71,73,75,-1,77,79,81,83,85,87,89,91,93,95,97,-1,-1,-1,-1,-1,-1,-1,-1,-1,-1,-1,-1,-1,-1,-1,-1,-1,-1,-1,-1,-1,-1,-1,-1,-1,-1,-1,-1,-1,-1,-1,-1,-1,-1,-1,-1,-1,-1,-1,-1,-1,-1,-1],"loss_changes":[4.451672E3,1.0992855E3,3.3650078E3,3.9221313E2,3.9262958E2,3.4081016E3,3.6664258E2,4.887091E2,1.182912E2,3.8570972E2,7.2704236E2,3.1197578E3,4.0853503E3,4.2985742E2,2.1124805E2,3.527859E2,6.8959674E2,0E0,1.7201416E1,1.9665353E2,3.2188342E2,4.407146E2,6.4227875E2,5.1593945E3,8.1237188E3,7.314136E2,9.103802E2,2.6282812E2,1.07415146E2,0E0,4.383545E1,1.8080157E2,3.14156E2,5.9373315E2,2.5393597E2,0E0,0E0,0E0,0E0,3.4099927E2,4.6990417E2,3.4739777E2,1.3452881E2,8.442297E1,0E0,1.7439429E3,1.3162207E2,3.1045156E3,2.0058484E2,4.176421E2,2.572174E2,4.7647467E2,6.775978E2,2.2907324E2,3.4299414E2,4.9962463E1,0E0,0E0,0E0,0E0,0E0,0E0,0E0,0E0,0E0,0E0,0E0,0E0,0E0,0E0,0E0,0E0,0E0,0E0,0E0,0E0,0E0,0E0,0E0,0E0,0E0,0E0,0E0,0E0,0E0,0E0,0E0,0E0,0E0,0E0,0E0,0E0,0E0,0E0,0E0,0E0,0E0,0E0,0E0],"parents":[2147483647,0,0,1,1,2,2,3,3,4,4,5,5,6,6,7,7,8,8,9,9,10,10,11,11,12,12,13,13,14,14,15,15,16,16,18,18,19,19,20,20,21,21,22,22,23,23,24,24,25,25,26,26,27,27,28,28,30,30,31,31,32,32,33,33,34,34,39,39,40,40,41,41,42,42,43,43,45,45,46,46,47,47,48,48,49,49,50,50,51,51,52,52,53,53,54,54,55,55],"right_children":[2,4,6,8,10,12,14,16,18,20,22,24,26,28,30,32,34,-1,36,38,40,42,44,46,48,50,52,54,56,-1,58,60,62,64,66,-1,-1,-1,-1,68,70,72,74,76,-1,78,80,82,84,86,88,90,92,94,96,98,-1,-1,-1,-1,-1,-1,-1,-1,-1,-1,-1,-1,-1,-1,-1,-1,-1,-1,-1,-1,-1,-1,-1,-1,-1,-1,-1,-1,-1,-1,-1,-1,-1,-1,-1,-1,-1,-1,-1,-1,-1,-1,-1],"split_conditions":[4.954499E1,4.5947952E1,1.95E1,3.5012657E1,2.8815441E1,1.55E1,8.773256E1,2.2321207E1,4.8817825E0,5.9762E1,6.6509514E0,7.462452E1,9.5270676E1,8.72138E1,6.104909E0,1.6478199E1,2.4496204E1,1.0894204E-1,3.6593826E1,3.6637596E1,5.9813304E0,9.09946E1,4.8737175E1,9.004848E1,8.834899E1,3.21919E1,1.05898834E2,6.51643E0,6.6587687E0,1.1620957E0,5.867383E1,2.1397873E1,2.118425E1,1.768731E1,4.5889923E1,4.0917373E0,1.0089421E0,1.0600096E0,-2.8732338E0,1.964856E1,2.7301973E1,9.033564E1,5.541531E0,4.6804886E1,-1.9550924E0,5.258008E1,6.4289513E0,1.15E1,6.3840322E0,4.6653156E1,6.8720865E0,2.5275429E1,1.0627404E2,2.6412604E2,6.93966E0,6.4416084E0,-9.5571595E-1,5.485292E0,2.0456262E0,-1.5572847E0,1.7956293E0,1.262678E0,3.0821326E0,2.318444E0,-1.7451236E0,6.926796E-1,3.1948423E0,-1.6523689E0,3.0725193E0,1.4768282E0,-2.723234E0,-2.1599858E0,1.5913512E0,-1.4718866E0,-3.6927254E0,2.3351298E-1,3.508169E0,3.9222378E-1,1.6393108E0,4.204595E0,3.06664E0,3.6543772E0,9.27424E-1,6.663722E-1,1.8062016E0,-1.3882828E-2,6.318341E0,3.2982256E0,3.1919357E-1,-1.0361859E0,9.9143195E-1,3.7591E0,7.342246E-1,2.5085628E0,3.9893076E0,4.581331E0,2.810893E0,1.2115631E-1,2.122233E0],"split_indices":[1,1,4,0,0,4,1,1,2,3,2,3,3,1,2,0,1,0,0,3,2,3,1,1,1,0,3,2,2,0,3,1,1,0,1,0,0,0,0,0,0,3,2,1,0,3,2,4,2,3,2,0,3,3,2,2,0,0,0,0,0,0,0,0,0,0,0,0,0,0,0,0,0,0,0,0,0,0,0,0,0,0,0,0,0,0,0,0,0,0,0,0,0,0,0,0,0,0,0],"split_type":[0,0,0,0,0,0,0,0,0,0,0,0,0,0,0,0,0,0,0,0,0,0,0,0,0,0,0,0,0,0,0,0,0,0,0,0,0,0,0,0,0,0,0,0,0,0,0,0,0,0,0,0,0,0,0,0,0,0,0,0,0,0,0,0,0,0,0,0,0,0,0,0,0,0,0,0,0,0,0,0,0,0,0,0,0,0,0,0,0,0,0,0,0,0,0,0,0,0,0],"sum_hessian":[1.76E3,2.65E2,1.495E3,2.15E2,5E1,1.333E3,1.62E2,2.09E2,6E0,2E1,3E1,1.064E3,2.69E2,1.45E2,1.7E1,1.22E2,8.7E1,1E0,5E0,4E0,1.6E1,2.2E1,8E0,5.17E2,5.47E2,2.6E1,2.43E2,1.39E2,6E0,2E0,1.5E1,6E0,1.16E2,2.1E1,6.6E1,4E0,1E0,1E0,3E0,8E0,8E0,7E0,1.5E1,5E0,3E0,4.36E2,8.1E1,3.92E2,1.55E2,1.4E1,1.2E1,5.4E1,1.89E2,8.3E1,5.6E1,4E0,2E0,1.3E1,2E0,5E0,1E0,1.07E2,9E0,3E0,1.8E1,6.3E1,3E0,1E0,7E0,5E0,3E0,3E0,4E0,6E0,9E0,1E0,4E0,1.6E2,2.76E2,4.8E1,3.3E1,3.49E2,4.3E1,1.4E2,1.5E1,1E0,1.3E1,8E0,4E0,4.1E1,1.3E1,6E0,1.83E2,6.8E1,1.5E1,3E1,2.6E1,2E0,2E0],"tree_param":{"num_deleted":"0","num_feature":"5","num_nodes":"99","size_leaf_vector":"0"}},{"base_weights":[4.35057E0,3.9809554E0,7.9497356E0,5.791733E0,3.0286615E0,1.1295325E1,7.2024837E0,3.6134744E0,1.0765742E1,8.747657E0,2.4964168E0,1.20666065E1,8.457794E-1,2.663536E0,7.5806026E0,4.80475E0,1.616787E0,9.178898E0,1.47402935E1,2.851701E0,9.064657E0,3.5727372E0,1.6870877E0,1.265589E1,3.3301315E0,5.1360054E0,-1.8251221E0,7.064265E0,1.2812066E1,3.5184274E0,8.362857E0,-3.412393E0,1.9353697E0,1.632466E1,8.601985E0,1.5641425E1,4.2227297E0,7.2883706E0,-1.1887264E0,9.732865E0,4.6665335E0,2.2877169E0,8.876975E0,5.8260447E-1,3.2032409E0,1.058302E1,1.7110666E1,-1.0748482E0,6.0700455E0,-2.8682582E0,8.282136E0,-4.0052757E0,3.4477463E0,9.716897E0,5.5402884E0,1.6381336E1,7.70233E0,-5.4351463E0,3.9167323E0,3.9359365E0,1.08099375E1,-7.3729744E0,-2.0327346E-1,5.697915E0,1.460788E0,1.7516413E1,3.9911919E0,5.8081527E0,1.0516847E1,1.6077997E1,-1.1290245E0,-8.4595233E-1,7.883835E0,6.783015E-1,-3.394905E0,7.036084E0,1.1104175E1,8.422639E0,1.2661381E0,1.2206573E0,5.5390735E0,1.0927747E1,6.6597114E0,1.12481E0,-2.8440669E0,1.0586184E1,1.9690391E0,1.2577038E1,-3.8808823E-2,5.671158E-1,1.1997868E1,-5.2960052E0,-6.654358E-2,4.032242E0,1.0972806E1,2.4660478E0,6.998915E0,1.3239743E1,1.6236877E0],"categories":[],"categories_nodes":[],"categories_segments":[],"categories_sizes":[],"default_left":[1,1,1,1,1,1,1,1,1,1,1,1,0,1,1,1,1,1,1,1,1,1,1,1,1,1,1,1,1,1,1,1,1,1,1,1,1,0,1,1,1,1,1,1,1,1,0,0,0,0,1,1,0,1,1,0,1,0,0,0,0,0,0,0,0,0,0,0,0,0,0,0,0,0,0,0,0,0,0,0,0,0,0,0,0,0,0,0,0,0,0,0,0,0,0,0,0,0,0],"id":7,"left_children":[1,3,5,7,9,11,13,15,17,19,21,23,-1,25,27,29,31,33,35,37,39,41,43,45,47,49,51,53,55,57,59,61,63,65,67,69,71,-1,73,75,77,79,81,83,85,87,-1,-1,-1,-1,89,91,-1,93,95,-1,97,-1,-1,-1,-1,-1,-1,-1,-1,-1,-1,-1,-1,-1,-1,-1,-1,-1,-1,-1,-1,-1,-1,-1,-1,-1,-1,-1,-1,-1,-1,-1,-1,-1,-1,-1,-1,-1,-1,-1,-1,-1,-1],"loss_changes":[2.3110195E3,2.7397637E3,3.261455E2,5.92017E3,3.1742617E3,2.1546143E2,2.132207E2,9.056167E2,9.1796875E2,1.4049316E2,8.3196826E2,9.1708984E1,0E0,1.4255066E2,2.4714258E2,1.0690254E3,2.3892468E2,3.6251855E2,3.6992578E2,1.1622012E2,2.0144482E2,2.7879062E3,9.208196E2,4.0537598E1,4.2732174E1,2.25215E2,7.128749E1,4.1510156E2,5.620569E1,6.5608105E2,6.399341E2,1.1289109E2,2.363086E2,4.767627E1,5.5414355E2,3.2565625E2,9.945425E1,0E0,1.8778757E1,1.8813477E2,1.5537494E2,1.1485458E3,2.9099268E2,5.9774634E2,2.093149E3,4.029104E2,0E0,0E0,0E0,0E0,1.6519745E2,1.9982933E1,0E0,2.484707E2,3.2353735E2,0E0,1.8046255E2,0E0,0E0,0E0,0E0,0E0,0E0,0E0,0E0,0E0,0E0,0E0,0E0,0E0,0E0,0E0,0E0,0E0,0E0,0E0,0E0,0E0,0E0,0E0,0E0,0E0,0E0,0E0,0E0,0E0,0E0,0E0,0E0,0E0,0E0,0E0,0E0,0E0,0E0,0E0,0E0,0E0,0E0],"parents":[2147483647,0,0,1,1,2,2,3,3,4,4,5,5,6,6,7,7,8,8,9,9,10,10,11,11,13,13,14,14,15,15,16,16,17,17,18,18,19,19,20,20,21,21,22,22,23,23,24,24,25,25,26,26,27,27,28,28,29,29,30,30,31,31,32,32,33,33,34,34,35,35,36,36,38,38,39,39,40,40,41,41,42,42,43,43,44,44,45,45,50,50,51,51,53,53,54,54,56,56],"right_children":[2,4,6,8,10,12,14,16,18,20,22,24,-1,26,28,30,32,34,36,38,40,42,44,46,48,50,52,54,56,58,60,62,64,66,68,70,72,-1,74,76,78,80,82,84,86,88,-1,-1,-1,-1,90,92,-1,94,96,-1,98,-1,-1,-1,-1,-1,-1,-1,-1,-1,-1,-1,-1,-1,-1,-1,-1,-1,-1,-1,-1,-1,-1,-1,-1,-1,-1,-1,-1,-1,-1,-1,-1,-1,-1,-1,-1,-1,-1,-1,-1,-1,-1],"split_conditions":[1.95E1,6.5E0,4.8061935E1,4.5E0,3.2619057E1,6.903631E0,4.9205376E1,9.025458E1,7.91205E1,2.0943151E1,1.15E1,2.687058E1,2.5373384E-1,4.8670506E1,8.779002E1,9.806484E1,9.054875E1,5.129093E1,7.819372E0,2.0575817E1,2.9690426E1,1.05E1,1.65E1,6.724828E0,2.6939816E1,8.306789E1,2.5575005E1,8.187895E1,5.7656013E1,6.2312298E1,5.8080807E0,5.7199774E0,9.111615E1,7.057584E0,6.1071045E1,2.5908884E1,2.4406004E1,2.1865113E0,6.569012E0,9.146799E1,6.1613836E0,1.4235205E2,6.259181E0,9.196324E1,1.0050707E2,6.642706E0,5.1332E0,-3.2245445E-1,1.8210137E0,-8.604775E-1,4.8318237E1,6.274125E0,1.0343239E0,8.030995E1,2.3513102E1,4.914401E0,6.4108233E0,-1.630544E0,1.1750197E0,1.180781E0,3.2429814E0,-2.2118924E0,-6.098204E-2,1.7093745E0,4.3823642E-1,5.254924E0,1.1973577E0,1.7424458E0,3.155054E0,4.8233995E0,-3.3870736E-1,-2.537857E-1,2.3651505E0,2.0349047E-1,-1.0184716E0,2.1108253E0,3.3312526E0,2.5267918E0,3.7984145E-1,3.6619723E-1,1.6617221E0,3.2783241E0,1.9979135E0,3.37443E-1,-8.532201E-1,3.1758552E0,5.907118E-1,3.7731116E0,-1.1642647E-2,1.7013474E-1,3.5993605E0,-1.5888016E0,-1.9963074E-2,1.2096726E0,3.291842E0,7.3981434E-1,2.0996747E0,3.971923E0,4.8710635E-1],"split_indices":[4,4,3,4,3,2,3,1,1,3,4,0,0,3,1,3,1,1,2,3,0,4,4,2,0,1,0,1,3,3,2,2,1,2,1,0,0,0,2,1,2,3,2,1,3,2,0,0,0,0,3,2,0,1,0,0,2,0,0,0,0,0,0,0,0,0,0,0,0,0,0,0,0,0,0,0,0,0,0,0,0,0,0,0,0,0,0,0,0,0,0,0,0,0,0,0,0,0,0],"split_type":[0,0,0,0,0,0,0,0,0,0,0,0,0,0,0,0,0,0,0,0,0,0,0,0,0,0,0,0,0,0,0,0,0,0,0,0,0,0,0,0,0,0,0,0,0,0,0,0,0,0,0,0,0,0,0,0,0,0,0,0,0,0,0,0,0,0,0,0,0,0,0,0,0,0,0,0,0,0,0,0,0,0,0,0,0,0,0,0,0,0,0,0,0,0,0,0,0,0,0],"sum_hessian":[1.76E3,1.598E3,1.62E2,5.49E2,1.049E3,2.7E1,1.35E2,3.83E2,1.66E2,8.8E1,9.61E2,2.5E1,2E0,1.1E1,1.24E2,2.39E2,1.44E2,1.21E2,4.5E1,5E0,8.3E1,4.11E2,5.5E2,2.3E1,2E0,7E0,4E0,1.15E2,9E0,1.77E2,6.2E1,8E0,1.36E2,7E0,1.14E2,4.1E1,4E0,2E0,3E0,7.1E1,1.2E1,3.32E2,7.9E1,3.19E2,2.31E2,1.8E1,5E0,1E0,1E0,2E0,5E0,3E0,1E0,4E1,7.5E1,4E0,5E0,7E0,1.7E2,2.3E1,3.9E1,3E0,5E0,1.4E1,1.22E2,6E0,1E0,4.8E1,6.6E1,4E1,1E0,2E0,2E0,2E0,1E0,2.6E1,4.5E1,5E0,7E0,2.51E2,8.1E1,3.9E1,4E1,2.76E2,4.3E1,3.2E1,1.99E2,1.5E1,3E0,2E0,3E0,2E0,1E0,8E0,3.2E1,2.5E1,5E1,2E0,3E0],"tree_param":{"num_deleted":"0","num_feature":"5","num_nodes":"99","size_leaf_vector":"0"}},{"base_weights":[3.086149E0,1.0130119E0,3.4527051E0,-4.2810416E0,1.41452E0,3.2569234E0,6.789028E0,-1.3377551E0,-9.135568E0,8.277251E-1,5.4953833E0,4.3388906E0,2.705569E0,7.0541997E0,-1.4536858E-1,-7.6140037E0,5.1296015E0,5.852979E-1,9.295939E0,8.965988E0,2.392989E-4,2.54468E0,7.64348E0,6.2325754E0,2.333962E0,-2.6163826E0,7.2117248E0,-2.0707703E0,1.1866888E0,1.1055095E1,-2.0782924E0,9.121528E-1,-7.9043803E0,-1.1544895E0,1.1616922E1,-2.4012096E0,1.3197216E1,9.997897E0,-2.7264166E0,1.7353581E-1,3.49879E0,9.164151E0,5.17754E0,5.5902743E0,1.0278869E1,1.811358E0,4.4198713E0,7.307314E0,-7.431412E-2,2.8346395E0,1.2850367E1,1.5041428E0,-6.412799E0,1.5249114E0,-1.37857E0,-1.1555265E1,-3.4027963E0,4.1572443E-1,-3.9136076E0,-7.606383E0,4.6508193E0,1.2003264E0,-4.0003114E0,5.8060036E0,2.297839E0,7.2257605E0,1.1035563E1,-2.3048346E0,5.9641914E0,7.0985894E0,2.5894644E0,1.5412055E1,3.4325373E0,2.3552747E0,3.322237E-2,4.829177E0,-4.4722104E0,6.092819E0,8.664092E0],"categories":[],"categories_nodes":[],"categories_segments":[],"categories_sizes":[],"default_left":[1,1,1,1,1,1,1,1,0,1,1,1,1,1,1,0,1,1,1,1,1,1,1,1,1,0,1,0,0,1,1,1,1,0,0,1,0,0,1,1,1,1,1,1,1,1,1,1,0,0,0,0,0,0,0,0,0,0,0,0,0,0,0,0,0,0,0,0,0,0,0,0,0,0,0,0,0,0,0],"id":8,"left_children":[1,3,5,7,9,11,13,15,-1,17,19,21,23,25,27,-1,29,31,33,35,37,39,41,43,45,-1,47,-1,-1,49,51,53,55,-1,-1,57,-1,-1,59,61,63,65,67,69,71,73,75,77,-1,-1,-1,-1,-1,-1,-1,-1,-1,-1,-1,-1,-1,-1,-1,-1,-1,-1,-1,-1,-1,-1,-1,-1,-1,-1,-1,-1,-1,-1,-1],"loss_changes":[1.3347246E3,5.7146655E2,9.550625E2,2.592558E2,5.8931946E2,8.32375E2,1.5180737E2,5.667363E2,0E0,4.42097E2,5.9121344E2,2.8028154E3,1.2174736E3,1.3921411E2,1.2716341E1,0E0,3.21948E2,5.982623E2,1.589433E2,9.45536E2,3.816407E2,7.007157E2,5.787832E2,1.73844E2,9.207632E2,0E0,5.4867676E1,0E0,0E0,2.2605652E1,7.175812E1,2.912562E2,9.215787E1,0E0,0E0,2.7188938E1,0E0,0E0,4.313832E2,3.905117E2,5.990166E2,2.9026758E2,4.0222363E2,3.3918555E2,3.336759E2,6.604905E2,6.403252E2,7.40918E1,0E0,0E0,0E0,0E0,0E0,0E0,0E0,0E0,0E0,0E0,0E0,0E0,0E0,0E0,0E0,0E0,0E0,0E0,0E0,0E0,0E0,0E0,0E0,0E0,0E0,0E0,0E0,0E0,0E0,0E0,0E0],"parents":[2147483647,0,0,1,1,2,2,3,3,4,4,5,5,6,6,7,7,9,9,10,10,11,11,12,12,13,13,14,14,16,16,17,17,18,18,19,19,20,20,21,21,22,22,23,23,24,24,26,26,29,29,30,30,31,31,32,32,35,35,38,38,39,39,40,40,41,41,42,42,43,43,44,44,45,45,46,46,47,47],"right_children":[2,4,6,8,10,12,14,16,-1,18,20,22,24,26,28,-1,30,32,34,36,38,40,42,44,46,-1,48,-1,-1,50,52,54,56,-1,-1,58,-1,-1,60,62,64,66,68,70,72,74,76,78,-1,-1,-1,-1,-1,-1,-1,-1,-1,-1,-1,-1,-1,-1,-1,-1,-1,-1,-1,-1,-1,-1,-1,-1,-1,-1,-1,-1,-1,-1,-1],"split_conditions":[4.954499E1,6.1492218E1,2.05E1,5.3677765E1,7.7818155E0,6.5E0,6.9386168E0,5.895447E0,-2.7406704E0,1.8977936E2,8.402029E0,4.5E0,3.2619057E1,2.4055435E1,2.588963E1,-2.2842011E0,7.5539484E0,1.76515E2,2.0197273E1,1.6556808E1,6.923756E1,2.5155132E1,1.3187488E2,6.7190514E0,1.692668E2,-7.849148E-1,5.9719536E1,-6.212311E-1,3.5600665E-1,2.8620548E1,4.7715084E1,4.564543E1,2.957788E1,-3.4634686E-1,3.485077E0,1.5709485E1,3.9591649E0,2.9993691E0,1.9941399E1,1.20882996E2,1.5E0,8.603585E1,1.3853574E2,6.4289513E0,6.7767606E0,6.990011E0,4.062712E1,6.51643E0,-2.2294236E-2,8.503919E-1,3.8551102E0,4.5124283E-1,-1.9238397E0,4.5747343E-1,-4.13571E-1,-3.4665797E0,-1.020839E0,1.2471733E-1,-1.1740823E0,-2.281915E0,1.3952458E0,3.6009794E-1,-1.2000935E0,1.7418011E0,6.893517E-1,2.1677282E0,3.3106692E0,-6.914504E-1,1.7892575E0,2.129577E0,7.768394E-1,4.6236167E0,1.0297612E0,7.065824E-1,9.9667115E-3,1.4487531E0,-1.3416631E0,1.8278458E0,2.5992277E0],"split_indices":[1,3,4,3,2,4,2,2,0,3,2,4,3,0,0,0,2,3,0,1,3,0,3,2,3,0,3,0,0,0,1,1,0,0,0,1,0,0,0,3,4,3,3,2,2,2,0,2,0,0,0,0,0,0,0,0,0,0,0,0,0,0,0,0,0,0,0,0,0,0,0,0,0,0,0,0,0,0,0],"split_type":[0,0,0,0,0,0,0,0,0,0,0,0,0,0,0,0,0,0,0,0,0,0,0,0,0,0,0,0,0,0,0,0,0,0,0,0,0,0,0,0,0,0,0,0,0,0,0,0,0,0,0,0,0,0,0,0,0,0,0,0,0,0,0,0,0,0,0,0,0,0,0,0,0,0,0,0,0,0,0],"sum_hessian":[1.76E3,2.65E2,1.495E3,1.8E1,2.47E2,1.414E3,8.1E1,1.2E1,6E0,2.17E2,3E1,4.75E2,9.39E2,7.8E1,3E0,6E0,6E0,2.12E2,5E0,1.8E1,1.2E1,3.09E2,1.66E2,8.8E1,8.51E2,1E0,7.7E1,1E0,2E0,3E0,3E0,2.05E2,7E0,1E0,4E0,5E0,1.3E1,2E0,1E1,8.9E1,2.2E2,1.01E2,6.5E1,7.8E1,1E1,6.82E2,1.69E2,7.6E1,1E0,1E0,2E0,2E0,1E0,1.62E2,4.3E1,3E0,4E0,2E0,3E0,6E0,4E0,7.2E1,1.7E1,7.4E1,1.46E2,5.2E1,4.9E1,6E0,5.9E1,5.1E1,2.7E1,5E0,5E0,5.22E2,1.6E2,1.62E2,7E0,4.3E1,3.3E1],"tree_param":{"num_deleted":"0","num_feature":"5","num_nodes":"79","size_leaf_vector":"0"}},{"base_weights":[2.1732693E0,5.61656E-1,2.4345863E0,2.1458423E0,-1.2753739E0,1.1187953E0,2.8057594E0,1.3365849E0,8.92906E0,-6.9640245E0,-5.450066E-1,-3.8222355E-1,2.6131546E0,1.3508841E1,2.702822E0,1.0682998E0,1.1443608E1,9.642433E0,-1.7240143E-1,2.7796738E0,-8.988304E0,-2.7849932E0,2.7746167E0,5.2120823E-2,-8.061432E0,8.885928E0,2.1170628E0,1.4823838E1,1.7943287E-1,-2.660005E0,2.8173537E0,1.4684956E0,-8.269827E0,3.2663715E0,1.1228615E1,-2.057744E0,-9.475586E0,2.4072237E0,-4.07927E0,1.1080273E1,1.3527638E0,4.9415237E-1,-6.6277676E0,-1.7980833E0,-1.0893426E1,-6.7852783E-1,9.817108E0,5.8237636E-1,4.459205E0,5.978995E0,1.6287674E1,5.28242E0,-5.4461617E0,3.3855317E0,1.9583298E0,3.8670713E-1,5.1150603E0,-2.1542358E-1,-1.0229572E1,-2.3227525E0,5.9036636E0,2.0325289E0,1.2024566E1,-2.5763779E0,1.0896262E1,-3.0263565E0,-1.2950218E1,-7.194782E-1,5.7298913E0,1.3069348E0,-2.4517646E0,1.6507006E0,-1.0411497E1,7.95358E-1,-4.7892036E0,1.4852295E0,1.0501773E1,-7.869873E-1,4.5028486E0,6.237244E0,4.1346073E-1,7.544277E0,1.4242153E0,2.584355E0,8.018388E0,-7.0502625E0,5.45913E0,4.1890316E0,1.2220083E0,8.352986E-1,3.617115E0],"categories":[],"categories_nodes":[],"categories_segments":[],"categories_sizes":[],"default_left":[1,1,1,1,1,1,1,1,1,1,1,1,1,1,1,1,0,1,0,0,1,1,1,1,1,1,1,1,0,1,1,1,1,1,1,0,0,1,1,0,1,1,1,1,0,0,1,1,1,1,0,1,1,1,1,0,0,0,0,0,0,0,0,0,0,0,0,0,0,0,0,0,0,0,0,0,0,0,0,0,0,0,0,0,0,0,0,0,0,0,0],"id":9,"left_children":[1,3,5,7,9,11,13,15,17,19,21,23,25,27,29,31,-1,33,-1,-1,35,37,39,41,43,45,47,49,-1,51,53,55,57,59,61,-1,-1,63,65,-1,67,69,71,73,-1,-1,75,77,79,81,-1,83,85,87,89,-1,-1,-1,-1,-1,-1,-1,-1,-1,-1,-1,-1,-1,-1,-1,-1,-1,-1,-1,-1,-1,-1,-1,-1,-1,-1,-1,-1,-1,-1,-1,-1,-1,-1,-1,-1],"loss_changes":[7.402637E2,7.2155554E2,7.367656E2,7.181516E2,4.7400708E2,7.524245E2,1.2646514E3,3.131626E2,9.256079E1,2.8139612E2,7.7362616E2,5.607708E2,5.039823E2,1.9014966E2,7.267383E2,4.5311963E2,0E0,9.479993E1,0E0,0E0,1.7650146E1,4.264699E2,4.8100668E2,4.7571054E2,1.4005261E2,1.1353595E2,5.617324E2,3.2090088E1,0E0,5.819899E2,5.531963E2,4.477305E2,7.671918E1,7.2673355E1,4.875598E1,0E0,0E0,5.780507E2,4.2782495E2,0E0,3.397298E2,3.6475714E2,3.304211E2,3.483831E1,0E0,0E0,4.7152588E1,5.1892474E2,4.434176E2,1.0643875E1,0E0,3.0950363E1,3.7085883E2,1.1926318E3,8.520349E2,0E0,0E0,0E0,0E0,0E0,0E0,0E0,0E0,0E0,0E0,0E0,0E0,0E0,0E0,0E0,0E0,0E0,0E0,0E0,0E0,0E0,0E0,0E0,0E0,0E0,0E0,0E0,0E0,0E0,0E0,0E0,0E0,0E0,0E0,0E0,0E0],"parents":[2147483647,0,0,1,1,2,2,3,3,4,4,5,5,6,6,7,7,8,8,9,9,10,10,11,11,12,12,13,13,14,14,15,15,17,17,20,20,21,21,22,22,23,23,24,24,25,25,26,26,27,27,29,29,30,30,31,31,32,32,33,33,34,34,37,37,38,38,40,40,41,41,42,42,43,43,46,46,47,47,48,48,49,49,51,51,52,52,53,53,54,54],"right_children":[2,4,6,8,10,12,14,16,18,20,22,24,26,28,30,32,-1,34,-1,-1,36,38,40,42,44,46,48,50,-1,52,54,56,58,60,62,-1,-1,64,66,-1,68,70,72,74,-1,-1,76,78,80,82,-1,84,86,88,90,-1,-1,-1,-1,-1,-1,-1,-1,-1,-1,-1,-1,-1,-1,-1,-1,-1,-1,-1,-1,-1,-1,-1,-1,-1,-1,-1,-1,-1,-1,-1,-1,-1,-1,-1,-1],"split_conditions":[5.7131195E0,5.562213E0,6.1186035E1,5.548259E0,5.5708456E0,6.7223654E0,6.1406292E1,3.6596066E1,3.741465E1,1.779066E1,2.486414E1,6.0279648E1,1.7496365E1,8.347748E0,1.292905E1,3.566311E1,3.4330826E0,2E0,-5.172043E-2,8.339022E-1,3.5797333E1,5.6062775E0,2.5827854E1,3.4815254E1,7.5E0,1.7058014E1,9.185333E1,1.9720802E1,5.3829864E-2,6.1236467E0,2.6801422E1,3.1273129E1,4.615561E1,2.1458042E1,3.7259743E1,-6.173232E-1,-2.842676E0,5.5932617E0,9.2609E1,3.324082E0,2.92025E1,6.4324074E0,4.6776703E1,2.6326057E1,-3.268028E0,-2.0355836E-1,6.829076E0,2.859105E1,2.754907E1,1.9123089E1,4.8863025E0,6.905464E1,7.346264E0,8.939671E1,1.45E1,1.1601214E-1,1.5345181E0,-6.462708E-2,-3.0688717E0,-6.9682574E-1,1.7710992E0,6.097587E-1,3.60737E0,-7.729134E-1,3.2688787E0,-9.0790695E-1,-3.8850656E0,-2.1584347E-1,1.7189674E0,3.9208046E-1,-7.355294E-1,4.952102E-1,-3.1234493E0,2.386074E-1,-1.4367611E0,4.4556886E-1,3.150532E0,-2.360962E-1,1.3508546E0,1.8711733E0,1.2403823E-1,2.2632833E0,4.272646E-1,7.753066E-1,2.4055164E0,-2.115079E0,1.6377391E0,1.2567096E0,3.666025E-1,2.5058958E-1,1.0851345E0],"split_indices":[2,2,1,2,2,2,1,0,0,0,0,1,0,2,0,0,0,4,0,0,1,2,0,0,4,0,3,0,0,2,0,0,1,0,1,0,0,2,1,0,0,2,1,0,0,0,2,0,0,0,0,3,2,1,4,0,0,0,0,0,0,0,0,0,0,0,0,0,0,0,0,0,0,0,0,0,0,0,0,0,0,0,0,0,0,0,0,0,0,0,0],"split_type":[0,0,0,0,0,0,0,0,0,0,0,0,0,0,0,0,0,0,0,0,0,0,0,0,0,0,0,0,0,0,0,0,0,0,0,0,0,0,0,0,0,0,0,0,0,0,0,0,0,0,0,0,0,0,0,0,0,0,0,0,0,0,0,0,0,0,0,0,0,0,0,0,0,0,0,0,0,0,0,0,0,0,0,0,0,0,0,0,0,0,0],"sum_hessian":[1.76E3,2.46E2,1.514E3,1.32E2,1.14E2,3.34E2,1.18E3,1.19E2,1.3E1,1.2E1,1.02E2,1.67E2,1.67E2,1E1,1.17E3,1.17E2,2E0,1.2E1,1E0,2E0,1E1,6.1E1,4.1E1,1.59E2,8E0,1.1E1,1.56E2,9E0,1E0,2.4E1,1.146E3,1.13E2,4E0,3E0,9E0,1E0,9E0,1.2E1,4.9E1,5E0,3.6E1,1.5E2,9E0,3E0,5E0,1E0,1E1,9.5E1,6.1E1,2E0,7E0,6E0,1.8E1,6.88E2,4.58E2,8.8E1,2.5E1,1E0,3E0,1E0,2E0,1E0,8E0,8E0,4E0,4.5E1,4E0,2.5E1,1.1E1,1.18E2,3.2E1,3E0,6E0,2E0,1E0,1E0,9E0,7.1E1,2.4E1,4.2E1,1.9E1,1E0,1E0,4E0,2E0,1.6E1,2E0,5.01E2,1.87E2,2.74E2,1.84E2],"tree_param":{"num_deleted":"0","num_feature":"5","num_nodes":"91","size_leaf_vector":"0"}},{"base_weights":[1.5323349E0,2.2974844E0,1.1838493E0,1.7411767E0,5.3629394E0,9.1510665E-1,2.9077513E0,-4.8308697E0,1.851688E0,1.595665E1,4.909963E0,3.4437792E0,6.8021375E-1,2.7219052E0,9.614651E0,-8.182003E0,-1.183789E0,1.3282852E1,1.7475822E0,-5.8637543E0,5.2526026E0,2.899621E0,7.0387545E0,-7.7057755E-1,9.8594046E-1,7.9396195E0,2.5023687E0,7.370096E0,-5.1647844E0,2.13871E0,1.5097202E-1,3.4536994E0,6.64594E0,-2.970609E-1,3.716192E0,1.3086826E1,3.134874E0,2.3220973E0,-1.8530345E0,5.7204995E0,8.626452E-1,4.0379715E-1,9.366025E0,2.0912716E0,5.1727095E0,5.8572054E-1,2.6561258E0,8.716688E0,-4.483916E-1,6.790108E0,1.7809836E0,1.4202131E1,5.079117E0,6.2986274E0,-2.1603246E0,4.8300714E0,1.5690072E0,-9.343891E-1,5.76331E0,-6.4786267E0,3.3641355E0,-2.9338896E0,2.8178093E0,-7.3276834E0,6.7929134E0,1.1711369E0,-3.8086715E-1,6.604425E-1,3.471056E0,7.2917967E0,-9.871273E-1],"categories":[],"categories_nodes":[],"categories_segments":[],"categories_sizes":[],"default_left":[1,1,1,1,1,1,1,1,1,0,1,1,1,1,0,0,1,0,1,0,1,1,1,1,1,1,1,0,0,1,1,1,1,1,1,0,1,1,1,1,1,0,0,1,1,0,0,0,0,0,0,0,0,0,0,0,0,0,0,0,0,0,0,0,0,0,0,0,0,0,0],"id":10,"left_children":[1,3,5,7,9,11,13,15,17,-1,19,21,23,25,-1,-1,27,-1,29,-1,31,33,35,37,39,41,43,-1,-1,45,47,49,51,53,55,-1,57,59,61,63,65,-1,-1,67,69,-1,-1,-1,-1,-1,-1,-1,-1,-1,-1,-1,-1,-1,-1,-1,-1,-1,-1,-1,-1,-1,-1,-1,-1,-1,-1],"loss_changes":[4.6683936E2,9.2859717E2,5.588418E2,3.4812048E2,3.2474414E2,6.213232E2,1.770011E2,8.808905E1,5.242103E2,0E0,3.335033E2,1.5369519E2,4.2745068E2,1.6340894E2,0E0,0E0,2.0832983E2,0E0,2.8506396E2,0E0,1.7756543E2,2.0731903E2,2.1869495E2,5.6671436E2,4.591455E2,6.071283E1,1.5933667E2,0E0,0E0,2.9334387E2,4.7110056E2,1.943989E2,4.4879114E2,2.225287E2,1.43099E2,0E0,9.0951546E1,4.2530536E2,6.3933026E2,3.296374E2,2.9812982E2,0E0,0E0,2.662036E2,2.682625E2,0E0,0E0,0E0,0E0,0E0,0E0,0E0,0E0,0E0,0E0,0E0,0E0,0E0,0E0,0E0,0E0,0E0,0E0,0E0,0E0,0E0,0E0,0E0,0E0,0E0,0E0],"parents":[2147483647,0,0,1,1,2,2,3,3,4,4,5,5,6,6,7,7,8,8,10,10,11,11,12,12,13,13,16,16,18,18,20,20,21,21,22,22,23,23,24,24,25,25,26,26,29,29,30,30,31,31,32,32,33,33,34,34,36,36,37,37,38,38,39,39,40,40,43,43,44,44],"right_children":[2,4,6,8,10,12,14,16,18,-1,20,22,24,26,-1,-1,28,-1,30,-1,32,34,36,38,40,42,44,-1,-1,46,48,50,52,54,56,-1,58,60,62,64,66,-1,-1,68,70,-1,-1,-1,-1,-1,-1,-1,-1,-1,-1,-1,-1,-1,-1,-1,-1,-1,-1,-1,-1,-1,-1,-1,-1,-1,-1],"split_conditions":[6.5E0,5.5E0,1.95E1,6.2312298E1,5.903112E0,3.2619057E1,2.6917154E1,3.1758936E1,6.29282E1,4.786995E0,6.002258E0,6.7190514E0,5.258008E1,4.0979927E1,2.8843954E0,-2.454601E0,3.241185E1,3.984856E0,9.2518295E1,-1.7591263E0,2.379443E1,9.077742E1,6.7438393E0,6.451977E0,5.3677765E1,4.0177574E1,2.6428955E2,2.211029E0,-1.5494354E0,2.2482578E1,2.1417706E1,7.175975E1,2.4174942E1,6.072158E0,6.4289513E0,3.926048E0,2.6702065E1,4.7394028E1,2.9340305E1,1.9974146E1,1.75E1,1.2113915E-1,2.8098075E0,6.436243E0,2.8704254E2,1.7571616E-1,7.9683775E-1,2.6150064E0,-1.3451748E-1,2.0370326E0,5.342951E-1,4.2606397E0,1.5237352E0,1.8895882E0,-6.480974E-1,1.4490215E0,4.7070217E-1,-2.8031674E-1,1.728993E0,-1.9435881E0,1.0092407E0,-8.8016695E-1,8.453428E-1,-2.1983051E0,2.0378742E0,3.5134107E-1,-1.1426015E-1,1.9813275E-1,1.0413169E0,2.187539E0,-2.961382E-1],"split_indices":[4,4,4,3,2,3,0,0,3,0,2,2,3,3,0,0,0,0,1,0,0,1,2,2,3,3,3,0,0,0,0,3,0,2,2,0,3,1,0,0,4,0,0,2,3,0,0,0,0,0,0,0,0,0,0,0,0,0,0,0,0,0,0,0,0,0,0,0,0,0,0],"split_type":[0,0,0,0,0,0,0,0,0,0,0,0,0,0,0,0,0,0,0,0,0,0,0,0,0,0,0,0,0,0,0,0,0,0,0,0,0,0,0,0,0,0,0,0,0,0,0,0,0,0,0,0,0,0,0,0,0,0,0,0,0,0,0,0,0,0,0,0,0,0,0],"sum_hessian":[1.76E3,5.49E2,1.211E3,4.66E2,8.3E1,1.049E3,1.62E2,7E0,4.59E2,2E0,8.1E1,8.8E1,9.61E2,1.59E2,3E0,3E0,4E0,3E0,4.56E2,2E0,7.9E1,7.8E1,1E1,1.67E2,7.94E2,5E0,1.54E2,1E0,3E0,3.66E2,9E1,3.6E1,4.3E1,1.6E1,6.2E1,3E0,7E0,4.3E1,1.24E2,1.9E1,7.75E2,1E0,4E0,1.35E2,1.9E1,9.2E1,2.74E2,5E0,8.5E1,1.1E1,2.5E1,6E0,3.7E1,3E0,1.3E1,4E1,2.2E1,3E0,4E0,4E0,3.9E1,1.01E2,2.3E1,1E0,1.8E1,6.21E2,1.54E2,6.7E1,6.8E1,1.4E1,5E0],"tree_param":{"num_deleted":"0","num_feature":"5","num_nodes":"71","size_leaf_vector":"0"}},{"base_weights":[1.0917249E0,2.332524E-2,1.2482135E0,9.844508E-1,-2.3724544E0,4.0083393E-1,1.4887723E0,-1.8310384E0,1.6121217E0,-9.465203E0,-1.4907306E0,-7.1184856E-1,1.5508692E0,7.6249094E0,1.3779324E0,1.7355385E0,-1.0345888E1,3.2490373E0,5.2115065E-1,-1.1939804E1,-4.624302E0,6.554423E0,-2.195004E0,7.499538E-1,-2.0533822E0,1.910653E0,-5.017605E0,5.231363E0,1.2736882E1,-1.1935944E1,1.4221588E0,-1.7929373E0,8.134488E0,-6.305041E0,-1.3820688E1,1.8720992E0,8.982662E0,9.347814E-2,8.730477E0,1.7205391E0,-7.312762E0,8.580809E0,-7.755604E-1,-4.6128078E0,6.791928E-1,-1.7044466E0,2.7184062E0,2.1631265E0,-2.9140499E0,1.5957755E0,1.13527E1,-7.1018896E0,5.828335E0,7.039144E0,-4.948736E0,1.7339355E0,2.2800115E-1,5.1032186E0,-5.751337E0,9.379878E0,-2.916212E-1,-1.037441E1,-1.6767535E0,2.8825886E0,-3.8808577E0,-4.7255554E0,1.1030859E1,-3.9413828E-1,7.2915053E0,7.205391E-1,1.0960719E1,-9.4391555E-1,-6.6872234E0,-1.2458277E0,7.3035655E0,-2.5392118E-1,-1.122713E1,5.5656457E0,-7.700771E-1,-6.848446E0,5.7376876E0,-1.4238919E0,-6.7490406E0,4.6710224E0,9.1590965E-1,1.9149069E0,-1.042664E1,4.259809E0,8.591169E0,-7.399952E0,-2.3152351E-2,1.6697174E0,9.963017E0,-7.6322966E0,6.674661E-1],"categories":[],"categories_nodes":[],"categories_segments":[],"categories_sizes":[],"default_left":[1,1,1,1,1,1,1,1,1,1,1,1,1,1,1,1,1,1,1,0,1,1,1,1,1,1,1,1,0,0,1,1,1,1,0,1,1,1,0,0,0,1,0,1,1,1,1,1,1,1,0,1,0,1,1,1,1,0,0,0,0,0,0,0,0,0,0,0,0,0,0,0,0,0,0,0,0,0,0,0,0,0,0,0,0,0,0,0,0,0,0,0,0,0,0],"id":11,"left_children":[1,3,5,7,9,11,13,15,17,19,21,23,25,27,29,31,33,35,37,-1,39,41,43,45,47,49,51,53,-1,-1,55,57,59,61,-1,63,65,67,-1,-1,-1,69,-1,71,73,75,77,79,81,83,-1,85,-1,87,89,91,93,-1,-1,-1,-1,-1,-1,-1,-1,-1,-1,-1,-1,-1,-1,-1,-1,-1,-1,-1,-1,-1,-1,-1,-1,-1,-1,-1,-1,-1,-1,-1,-1,-1,-1,-1,-1,-1,-1],"loss_changes":[2.9439673E2,5.2273334E2,3.1250854E2,2.8923834E2,3.923898E2,4.374558E2,8.02927E2,9.290217E2,2.3582187E2,2.8641846E1,3.4868024E2,3.4276382E2,4.0660956E2,1.9031946E2,7.0943286E2,5.113125E2,3.9230286E1,4.016104E2,2.8356708E2,0E0,8.08133E1,8.092183E1,3.853414E2,4.1046848E2,3.3654367E2,4.575777E2,2.4484637E2,3.292891E2,0E0,0E0,4.3632495E2,4.3881647E2,8.668573E1,9.560994E1,0E0,2.6697223E2,3.3289825E2,2.766442E2,0E0,0E0,0E0,6.692932E1,0E0,2.2201208E2,3.4065237E2,5.220392E2,4.711157E2,5.5469293E2,4.247105E2,3.2187955E2,0E0,2.5979477E2,0E0,2.379364E1,3.6049683E1,4.748286E2,8.479497E2,0E0,0E0,0E0,0E0,0E0,0E0,0E0,0E0,0E0,0E0,0E0,0E0,0E0,0E0,0E0,0E0,0E0,0E0,0E0,0E0,0E0,0E0,0E0,0E0,0E0,0E0,0E0,0E0,0E0,0E0,0E0,0E0,0E0,0E0,0E0,0E0,0E0,0E0],"parents":[2147483647,0,0,1,1,2,2,3,3,4,4,5,5,6,6,7,7,8,8,9,9,10,10,11,11,12,12,13,13,14,14,15,15,16,16,17,17,18,18,20,20,21,21,22,22,23,23,24,24,25,25,26,26,27,27,30,30,31,31,32,32,33,33,35,35,36,36,37,37,41,41,43,43,44,44,45,45,46,46,47,47,48,48,49,49,51,51,53,53,54,54,55,55,56,56],"right_children":[2,4,6,8,10,12,14,16,18,20,22,24,26,28,30,32,34,36,38,-1,40,42,44,46,48,50,52,54,-1,-1,56,58,60,62,-1,64,66,68,-1,-1,-1,70,-1,72,74,76,78,80,82,84,-1,86,-1,88,90,92,94,-1,-1,-1,-1,-1,-1,-1,-1,-1,-1,-1,-1,-1,-1,-1,-1,-1,-1,-1,-1,-1,-1,-1,-1,-1,-1,-1,-1,-1,-1,-1,-1,-1,-1,-1,-1,-1,-1],"split_conditions":[5.6916766E0,5.6062775E0,6.1186035E1,4.7517695E0,1.7399204E1,6.7223654E0,6.178058E1,5.292303E1,9.9628555E1,1.6495117E1,1.9215178E1,2.4174688E1,6.06762E1,7.91198E1,6.1889767E1,4.885916E1,3.0774796E1,9.774838E1,5.59319E0,-3.5819414E0,1.6736862E1,2.2225342E1,2.6385838E1,2.044169E1,4.5947952E1,6.0450035E1,9.387874E0,6.9375786E1,3.8210647E0,-3.5807831E0,7.009181E0,3.8475227E1,4.69982E0,2.8084888E1,-4.146207E0,9.5458176E1,2.5773016E1,2.6752832E2,2.6191432E0,5.1616174E-1,-2.1938286E0,5.6329484E0,-2.3266812E-1,2.1585545E1,1.6758307E2,1.961909E1,5.9332294E0,3.612407E1,6.426425E0,6.908474E0,3.40581E0,7.5E0,1.7485005E0,7.2429924E0,2.33135E1,6.991434E0,7.0405607E0,1.5309657E0,-1.7254012E0,2.8139634E0,-8.7486364E-2,-3.112323E0,-5.0302607E-1,8.647766E-1,-1.1642574E0,-1.4176667E0,3.3092577E0,-1.1824149E-1,2.1874516E0,2.1616174E-1,3.2882159E0,-2.8317466E-1,-2.0061672E0,-3.737483E-1,2.1910698E0,-7.617636E-2,-3.368139E0,1.6696938E0,-2.3102315E-1,-2.054534E0,1.7213063E0,-4.271676E-1,-2.0247123E0,1.4013067E0,2.747729E-1,5.7447207E-1,-3.127992E0,1.2779428E0,2.5773509E0,-2.2199857E0,-6.9457055E-3,5.009152E-1,2.9889054E0,-2.289689E0,2.0023984E-1],"split_indices":[2,2,1,2,0,2,1,1,3,0,0,0,1,3,1,1,0,3,2,0,0,1,0,1,1,1,2,3,0,0,2,1,2,0,0,3,0,3,0,0,0,2,0,0,3,1,2,1,2,2,0,4,0,2,0,2,2,0,0,0,0,0,0,0,0,0,0,0,0,0,0,0,0,0,0,0,0,0,0,0,0,0,0,0,0,0,0,0,0,0,0,0,0,0,0],"split_type":[0,0,0,0,0,0,0,0,0,0,0,0,0,0,0,0,0,0,0,0,0,0,0,0,0,0,0,0,0,0,0,0,0,0,0,0,0,0,0,0,0,0,0,0,0,0,0,0,0,0,0,0,0,0,0,0,0,0,0,0,0,0,0,0,0,0,0,0,0,0,0,0,0,0,0,0,0,0,0,0,0,0,0,0,0,0,0,0,0,0,0,0,0,0,0],"sum_hessian":[1.76E3,2.25E2,1.535E3,1.61E2,6.4E1,3.4E2,1.195E3,2.9E1,1.32E2,6E0,5.8E1,1.73E2,1.67E2,2E1,1.175E3,2.1E1,8E0,5.2E1,8E1,3E0,3E0,4E0,5.4E1,8.3E1,9E1,1.59E2,8E0,1.5E1,5E0,3E0,1.172E3,1.4E1,7E0,5E0,3E0,4.3E1,9E0,7.7E1,3E0,1E0,2E0,3E0,1E0,2.9E1,2.5E1,3.7E1,4.6E1,1.5E1,7.5E1,1.55E2,4E0,7E0,1E0,1.3E1,2E0,9.29E2,2.43E2,5E0,9E0,6E0,1E0,2E0,3E0,3.7E1,6E0,1E0,8E0,7.3E1,4E0,1E0,2E0,1.1E1,1.8E1,2E1,5E0,3.3E1,4E0,2.5E1,2.1E1,4E0,1.1E1,5.5E1,2E1,2.7E1,1.28E2,2E0,5E0,6E0,7E0,1E0,1E0,9.23E2,6E0,1.2E1,2.31E2],"tree_param":{"num_deleted":"0","num_feature":"5","num_nodes":"95","size_leaf_vector":"0"}},{"base_weights":[7.649717E-1,1.3349838E0,5.056717E-1,9.3718857E-1,3.5306432E0,3.7613186E-1,2.2862062E0,1.112968E0,-3.0471292E0,2.0004694E0,5.9546614E0,1.9241581E0,2.1915632E-1,8.539144E0,2.0231435E0,9.800463E-1,1.2693819E1,7.1623E0,-6.9277587E0,4.2603636E0,-1.6696798E-2,7.6137805E0,-2.5038185E0,-3.398529E-1,2.9812315E0,-1.2712603E0,4.325392E-1,1.0669392E1,2.1393242E0,-1.8520956E0,2.4201128E0,6.346058E-1,3.1802883E0,-1.4418869E0,9.1715145E0,-9.769065E-1,-9.805494E0,1.0210704E0,1.2444107E1,-2.0289981E0,4.6805286E0,3.2796657E0,1.0388505E1,8.016224E0,-6.211072E0,1.477028E0,-7.558826E0,7.1426187E0,1.925358E0,9.919818E-1,-3.2536733E0,7.5113745E0,3.7662825E-1,-3.8396897E0,1.0954208E0,1.0725273E1,2.0351045E0,-3.430512E0,1.1557478E0,6.2691646E0,9.4689393E-1,4.821968E-1,1.1223295E1,4.076487E0,-4.522725E0,-1.2693252E1,-4.3790865E0,-5.118261E0,3.5792787E0,1.3578723E1,2.8182068E0,-7.2261443E0,-3.81073E-1,6.184324E0,-3.8850403E-1,-2.9922395E0,6.789648E0,1.4854394E1,5.2645473E0,-7.1915894E0,-1.1445007E0,2.3989713E0,-4.654375E0,-1.0110245E0,-1.2216921E1,8.376207E0,-4.447014E0,-1.5898504E0,2.781893E0,2.6542687E-1,1.1279033E1,-3.7820988E0,4.26659E0,-1.4884129E0,1.1408972E1,-3.4059606E0,4.4505236E-1,-1.4512914E0,-4.948191E0,-1.0867462E0,2.1850586E0,-8.213176E0,2.4511876E0],"categories":[],"categories_nodes":[],"categories_segments":[],"categories_sizes":[],"default_left":[1,1,1,1,1,1,1,1,1,1,1,1,1,1,1,1,0,1,1,1,1,1,1,1,1,1,1,0,0,1,1,1,1,0,1,1,1,1,1,1,1,1,1,0,1,1,1,1,1,1,1,1,1,1,1,0,1,0,0,0,0,0,0,0,0,0,0,0,0,0,0,0,0,0,0,0,0,0,0,0,0,0,0,0,0,0,0,0,0,0,0,0,0,0,0,0,0,0,0,0,0,0,0],"id":12,"left_children":[1,3,5,7,9,11,13,15,17,19,21,23,25,27,29,31,-1,33,35,37,39,41,43,45,47,49,51,-1,-1,53,55,57,59,-1,61,63,65,67,69,71,73,75,77,-1,79,81,83,85,87,89,91,93,95,97,99,-1,101,-1,-1,-1,-1,-1,-1,-1,-1,-1,-1,-1,-1,-1,-1,-1,-1,-1,-1,-1,-1,-1,-1,-1,-1,-1,-1,-1,-1,-1,-1,-1,-1,-1,-1,-1,-1,-1,-1,-1,-1,-1,-1,-1,-1,-1,-1],"loss_changes":[2.5960815E2,4.7707373E2,2.78688E2,3.3045987E2,2.9965796E2,2.7441385E2,1.1760712E2,6.7718665E2,8.419991E2,2.4167598E2,4.6813953E2,2.4990866E2,3.2748407E2,1.807431E1,1.27550415E2,3.354451E2,0E0,1.1695026E2,2.472956E2,6.500322E2,2.8361154E2,2.906305E2,2.837921E2,4.5710907E2,2.9821466E2,5.820094E2,3.5337698E2,0E0,0E0,5.1073807E1,2.1159451E2,8.1958875E2,4.0798456E2,0E0,8.373102E1,1.2594734E2,1.011167E2,3.1672775E2,3.8184204E1,1.7710098E2,7.100774E1,2.8448755E2,2.8792676E2,0E0,1.660852E1,1.6944429E2,2.0115036E2,2.3740485E2,1.7905493E2,4.5292682E2,2.9033563E2,2.625241E2,2.3290112E2,6.05645E0,1.1885691E1,0E0,3.2288574E2,0E0,0E0,0E0,0E0,0E0,0E0,0E0,0E0,0E0,0E0,0E0,0E0,0E0,0E0,0E0,0E0,0E0,0E0,0E0,0E0,0E0,0E0,0E0,0E0,0E0,0E0,0E0,0E0,0E0,0E0,0E0,0E0,0E0,0E0,0E0,0E0,0E0,0E0,0E0,0E0,0E0,0E0,0E0,0E0,0E0,0E0],"parents":[2147483647,0,0,1,1,2,2,3,3,4,4,5,5,6,6,7,7,8,8,9,9,10,10,11,11,12,12,13,13,14,14,15,15,17,17,18,18,19,19,20,20,21,21,22,22,23,23,24,24,25,25,26,26,29,29,30,30,31,31,32,32,34,34,35,35,36,36,37,37,38,38,39,39,40,40,41,41,42,42,44,44,45,45,46,46,47,47,48,48,49,49,50,50,51,51,52,52,53,53,54,54,56,56],"right_children":[2,4,6,8,10,12,14,16,18,20,22,24,26,28,30,32,-1,34,36,38,40,42,44,46,48,50,52,-1,-1,54,56,58,60,-1,62,64,66,68,70,72,74,76,78,-1,80,82,84,86,88,90,92,94,96,98,100,-1,102,-1,-1,-1,-1,-1,-1,-1,-1,-1,-1,-1,-1,-1,-1,-1,-1,-1,-1,-1,-1,-1,-1,-1,-1,-1,-1,-1,-1,-1,-1,-1,-1,-1,-1,-1,-1,-1,-1,-1,-1,-1,-1,-1,-1,-1,-1],"split_conditions":[6.5E0,5.5E0,2.05E1,3.241196E1,8.603585E1,3.615361E1,6.040517E0,3.1742424E1,6.877194E0,7.175975E1,8.386253E1,6.16634E0,4.9678936E1,2.6082283E1,6.112136E0,7.3565364E0,3.8081458E0,3.320836E1,6.5274216E1,6.968318E1,7.3596306E0,7.91205E1,8.874362E1,6.1542053E0,6.3275166E0,6.638019E1,5.0358723E1,3.2008176E0,6.417973E-1,2.6037449E1,6.123246E0,7.241087E1,7.391562E1,-4.3256608E-1,6.549294E0,7.283334E0,3.3319427E1,7.6637886E1,7.4515314E0,7.491994E1,8.4044754E1,2.3700928E1,9.286899E1,2.4048672E0,2.5014145E1,9.424455E1,2.8546991E1,2.9780888E1,2.7446476E1,6.577086E1,2.9903437E1,6.6884604E0,5.245347E1,2.480398E1,8.047403E1,3.217582E0,6.1646566E0,-1.0291536E0,3.4672433E-1,1.8807495E0,2.840682E-1,1.4465904E-1,3.3669887E0,1.2229462E0,-1.3568176E0,-3.8079755E0,-1.313726E0,-1.5354784E0,1.0737836E0,4.073617E0,8.454621E-1,-2.1678433E0,-1.143219E-1,1.8552972E0,-1.1655121E-1,-8.976719E-1,2.0368946E0,4.4563184E0,1.5793643E0,-2.157477E0,-3.4335023E-1,7.196914E-1,-1.3963126E0,-3.0330735E-1,-3.6650765E0,2.5128622E0,-1.3341042E0,-4.7695515E-1,8.3456796E-1,7.9628065E-2,3.38371E0,-1.1346297E0,1.2799771E0,-4.4652387E-1,3.4226916E0,-1.0217882E0,1.3351572E-1,-4.3538746E-1,-1.4844574E0,-3.2602388E-1,6.555176E-1,-2.4639528E0,7.3535633E-1],"split_indices":[4,4,4,0,3,3,2,0,2,3,1,2,3,0,2,2,0,0,3,3,2,1,3,2,2,1,3,0,0,0,2,3,3,0,2,2,0,1,2,3,3,0,3,0,0,1,0,0,0,1,0,2,3,0,1,0,2,0,0,0,0,0,0,0,0,0,0,0,0,0,0,0,0,0,0,0,0,0,0,0,0,0,0,0,0,0,0,0,0,0,0,0,0,0,0,0,0,0,0,0,0,0,0],"split_type":[0,0,0,0,0,0,0,0,0,0,0,0,0,0,0,0,0,0,0,0,0,0,0,0,0,0,0,0,0,0,0,0,0,0,0,0,0,0,0,0,0,0,0,0,0,0,0,0,0,0,0,0,0,0,0,0,0,0,0,0,0,0,0,0,0,0,0,0,0,0,0,0,0,0,0,0,0,0,0,0,0,0,0,0,0,0,0,0,0,0,0,0,0,0,0,0,0,0,0,0,0,0,0],"sum_hessian":[1.76E3,5.49E2,1.211E3,4.66E2,8.3E1,1.13E3,8.1E1,4.47E2,1.9E1,5.2E1,3.1E1,1.03E2,1.027E3,2E0,7.9E1,4.43E2,4E0,5E0,1.4E1,2.4E1,2.8E1,2.6E1,5E0,3.3E1,7E1,1.28E2,8.99E2,1E0,1E0,7E0,7.2E1,3.84E2,5.9E1,1E0,4E0,5E0,9E0,1.8E1,6E0,2E1,8E0,1.1E1,1.5E1,1E0,4E0,2.7E1,6E0,1.3E1,5.7E1,6E1,6.8E1,6E0,8.93E2,4E0,3E0,2E0,7E1,4.3E1,3.41E2,2.4E1,3.5E1,1E0,3E0,2E0,3E0,5E0,4E0,5E0,1.3E1,5E0,1E0,4E0,1.6E1,6E0,2E0,4E0,7E0,7E0,8E0,3E0,1E0,2.4E1,3E0,3E0,3E0,1.2E1,1E0,1.1E1,4.6E1,5.7E1,3E0,6.4E1,4E0,2E0,4E0,1.5E1,8.78E2,2E0,2E0,1E0,2E0,2E0,6.8E1],"tree_param":{"num_deleted":"0","num_feature":"5","num_nodes":"103","size_leaf_vector":"0"}},{"base_weights":[5.470849E-1,-5.680621E-2,7.727641E-1,5.6301194E-1,-2.028951E0,1.68371E0,3.0618778E-1,-3.5472333E-1,1.9019601E0,5.9467883E0,-2.4455462E0,1.1412326E0,4.069907E0,-5.0963445E0,3.7013915E-1,2.448109E-1,-3.8471663E0,-9.47246E0,2.1211526E0,7.50533E0,1.8864702E0,-2.8011284E0,5.5819054E0,1.1173428E1,1.0239882E0,4.5666895E0,-6.5106306E0,-6.256211E0,2.6712265E0,-1.5489285E-1,1.0843817E0,-3.3689456E0,8.2328534E-1,-2.0986145E0,-1.1074456E1,2.4580847E-1,3.5642397E0,-2.1664743E0,-7.5920463E0,7.974519E0,-1.9942741E0,-6.7322845E0,1.1324865E0,3.7740724E0,1.1953708E1,-8.360824E0,-4.8002625E-1,-9.157882E0,-3.396511E-1,2.1627827E-2,-9.493278E0,9.195601E0,8.47504E-1,-2.069767E0,-8.411543E0,1.197144E0,-4.417606E0,4.605983E0,-4.2335463E0,-1.2324928E1,-2.411049E0,-4.7108936E0,1.4569654E0,7.4408774E0,2.1311707E0,-4.3860397E0,-3.2481796E-1,6.0181683E-1,-9.291E0,-9.145078E0,-2.0753963E0,2.7509597E-1,1.9882959E0,5.6266627E0,1.4702818E0,-1.4908943E0,-1.0393101E1,4.8356882E-1,-1.4046555E0,-5.7599366E-1,1.1141924E0,3.1221592E0,-1.3543712E1,4.900209E0,1.1242496E1,1.3694073E0,-1.481684E0],"categories":[],"categories_nodes":[],"categories_segments":[],"categories_sizes":[],"default_left":[1,1,1,1,1,1,1,1,1,1,1,1,1,1,1,1,1,0,1,0,0,1,1,0,1,1,1,1,0,1,1,1,1,1,1,1,1,1,1,0,0,1,1,1,0,0,0,1,1,1,1,1,1,0,0,0,0,0,0,0,0,0,0,0,0,0,0,0,0,0,0,0,0,0,0,0,0,0,0,0,0,0,0,0,0,0,0],"id":13,"left_children":[1,3,5,7,9,11,13,15,17,19,21,23,25,27,29,31,33,-1,35,-1,-1,37,39,-1,41,43,45,47,-1,49,51,53,55,57,59,61,63,65,67,-1,-1,69,71,73,-1,-1,-1,75,77,79,81,83,85,-1,-1,-1,-1,-1,-1,-1,-1,-1,-1,-1,-1,-1,-1,-1,-1,-1,-1,-1,-1,-1,-1,-1,-1,-1,-1,-1,-1,-1,-1,-1,-1,-1,-1],"loss_changes":[2.4004291E2,5.8788043E2,5.4436755E2,4.5041553E2,3.9664856E2,5.5715015E2,2.9521518E2,4.573988E2,3.915775E2,2.381047E1,3.2962164E2,4.0611597E2,4.5022998E2,1.0680521E2,3.1516815E2,3.936907E2,3.8115234E2,0E0,3.969477E2,0E0,0E0,3.0585303E2,1.0653772E2,0E0,3.0384686E2,4.057268E2,4.0617706E1,1.5140073E2,0E0,7.9968805E2,6.762136E2,1.5292215E2,3.227036E2,4.0597382E2,3.5284058E1,3.97081E2,4.452478E2,3.8690463E2,1.7264343E2,0E0,0E0,3.7200882E1,2.5480246E2,2.9475378E2,0E0,0E0,0E0,4.1327423E1,4.1861787E0,3.1209418E2,5.0216748E2,3.2831543E1,4.2384598E2,0E0,0E0,0E0,0E0,0E0,0E0,0E0,0E0,0E0,0E0,0E0,0E0,0E0,0E0,0E0,0E0,0E0,0E0,0E0,0E0,0E0,0E0,0E0,0E0,0E0,0E0,0E0,0E0,0E0,0E0,0E0,0E0,0E0,0E0],"parents":[2147483647,0,0,1,1,2,2,3,3,4,4,5,5,6,6,7,7,8,8,9,9,10,10,11,11,12,12,13,13,14,14,15,15,16,16,18,18,21,21,22,22,24,24,25,25,26,26,27,27,29,29,30,30,31,31,32,32,33,33,34,34,35,35,36,36,37,37,38,38,41,41,42,42,43,43,47,47,48,48,49,49,50,50,51,51,52,52],"right_children":[2,4,6,8,10,12,14,16,18,20,22,24,26,28,30,32,34,-1,36,-1,-1,38,40,-1,42,44,46,48,-1,50,52,54,56,58,60,62,64,66,68,-1,-1,70,72,74,-1,-1,-1,76,78,80,82,84,86,-1,-1,-1,-1,-1,-1,-1,-1,-1,-1,-1,-1,-1,-1,-1,-1,-1,-1,-1,-1,-1,-1,-1,-1,-1,-1,-1,-1,-1,-1,-1,-1,-1,-1],"split_conditions":[2.309391E1,2.1897207E1,2.5743874E1,1.97012E1,2.272431E1,2.5317461E1,2.578748E1,1.12745514E2,3.839747E1,2.2961174E1,9.452729E1,2.3108183E1,8.576367E0,7.172903E0,8.317743E1,6.7170074E1,6.357839E0,-2.841738E0,9.5E0,2.251599E0,5.659411E-1,9.324194E1,2.2887123E1,3.3520284E0,2.3130735E1,7.547081E0,5.4247524E1,1.5287616E2,8.01368E-1,8.290166E1,8.343997E1,6.6770645E1,1.9488117E1,1.2667089E2,9.3560196E1,7.2331E1,8.702997E1,2.2489077E1,2.2175827E1,2.3923557E0,-5.982823E-1,6.506913E0,8.054436E1,8.113559E1,3.5861125E0,-2.5082471E0,-1.4400788E-1,4.513595E1,8.5942474E1,9.808827E1,4E0,4E0,6.861844E0,-6.2093014E-1,-2.523463E0,3.5914323E-1,-1.3252819E0,1.3817949E0,-1.2700639E0,-3.6974785E0,-7.233147E-1,-1.4132681E0,4.3708965E-1,2.2322633E0,6.3935125E-1,-1.315812E0,-9.744539E-2,1.8054506E-1,-2.7873E0,-2.7435234E0,-6.226189E-1,8.252879E-2,5.964888E-1,1.6879989E0,4.4108456E-1,-4.472683E-1,-3.1179304E0,1.4507066E-1,-4.2139664E-1,-1.727981E-1,3.3425772E-1,9.3664783E-1,-4.0631137E0,1.4700627E0,3.3727489E0,4.108222E-1,-4.445052E-1],"split_indices":[0,0,0,0,1,0,0,3,3,0,1,0,2,2,1,3,2,0,4,0,0,1,0,0,0,2,1,3,0,1,1,3,0,3,1,3,3,0,0,0,0,2,1,1,0,0,0,3,1,3,4,4,2,0,0,0,0,0,0,0,0,0,0,0,0,0,0,0,0,0,0,0,0,0,0,0,0,0,0,0,0,0,0,0,0,0,0],"split_type":[0,0,0,0,0,0,0,0,0,0,0,0,0,0,0,0,0,0,0,0,0,0,0,0,0,0,0,0,0,0,0,0,0,0,0,0,0,0,0,0,0,0,0,0,0,0,0,0,0,0,0,0,0,0,0,0,0,0,0,0,0,0,0,0,0,0,0,0,0,0,0,0,0,0,0,0,0,0,0,0,0,0,0,0,0,0,0],"sum_hessian":[1.76E3,4.79E2,1.281E3,3.65E2,1.14E2,4.33E2,8.48E2,2.17E2,1.48E2,5E0,1.09E2,3.54E2,7.9E1,9E0,8.39E2,1.86E2,3.1E1,2E0,1.46E2,3E0,2E0,1.05E2,4E0,3E0,3.51E2,7.6E1,3E0,8E0,1E0,4.84E2,3.55E2,2.5E1,1.61E2,2.6E1,5E0,6.4E1,8.2E1,9.4E1,1.1E1,3E0,1E0,4E0,3.47E2,7E1,6E0,2E0,1E0,5E0,3E0,4.76E2,8E0,9E0,3.46E2,2.1E1,4E0,1.51E2,1E1,6E0,2E1,4E0,1E0,1.2E1,5.2E1,2.1E1,6.1E1,4.2E1,5.2E1,2E0,9E0,2E0,2E0,1.74E2,1.73E2,3.8E1,3.2E1,1E0,4E0,2E0,1E0,3.08E2,1.68E2,2E0,6E0,4E0,5E0,2.83E2,6.3E1],"tree_param":{"num_deleted":"0","num_feature":"5","num_nodes":"87","size_leaf_vector":"0"}},{"base_weights":[3.7941477E-1,2.790017E-1,1.432913E0,3.1516019E-1,-8.04115E0,1.7332381E0,-7.80336E0,-9.9041665E-1,4.1956994E-1,-1.1235981E0,-9.006809E0,-4.478786E0,2.2123678E0,-1.9683828E0,-8.770009E0,3.7259442E-1,-4.272289E0,5.7776916E-1,-9.416089E-1,-9.980095E0,-2.0701904E0,-2.0296669E-1,-6.056847E0,3.0687177E0,-1.0013272E0,-8.968079E0,7.0572E-1,-4.8885355E0,8.340046E0,4.112876E0,5.014189E-1,-6.084263E0,-3.8783997E-1,8.5039645E-1,-1.6815281E0,-2.1609297E0,-7.9622116E0,3.7751591E0,-7.517142E-1,-7.655233E0,2.1522805E-2,2.8371286E0,-1.3429655E0,8.42484E-1,-6.405558E0,1.2428955E0,1.0033625E1,2.2377162E-1,1.3724327E0,5.518086E-1,-7.7892647E0,-3.3472776E0,4.7661316E-1,1.1065235E0,1.690712E-1,-2.5619633E0,-4.7891426E-1,3.025569E0,1.136136E1,-3.5269268E0,4.1131806E0,-1.2376366E0,-9.3818865E0,-1.5135527E0,4.623675E0],"categories":[],"categories_nodes":[],"categories_segments":[],"categories_sizes":[],"default_left":[1,1,1,1,1,1,1,1,1,0,1,1,1,0,0,1,1,1,1,0,0,1,1,1,1,0,1,1,0,1,1,1,1,1,0,1,0,1,1,1,1,0,0,0,0,0,0,0,0,0,0,0,0,0,0,0,0,0,0,0,0,0,0,0,0],"id":14,"left_children":[1,3,5,7,9,11,13,15,17,-1,19,21,23,-1,-1,25,27,29,31,-1,-1,33,35,37,39,-1,41,43,-1,45,47,49,51,53,-1,55,-1,57,59,61,63,-1,-1,-1,-1,-1,-1,-1,-1,-1,-1,-1,-1,-1,-1,-1,-1,-1,-1,-1,-1,-1,-1,-1,-1],"loss_changes":[1.858876E2,4.8659247E2,4.3792953E2,2.1892842E2,3.6639923E1,4.5338705E2,1.0939117E1,5.3390594E2,3.203201E2,0E0,1.9847198E1,7.299324E1,3.8560736E2,0E0,0E0,2.708164E2,3.1280133E2,3.5718307E2,4.390558E2,0E0,0E0,7.6598144E0,4.217935E1,2.9971826E2,2.043432E2,0E0,3.6623682E2,3.009956E2,0E0,4.633174E2,3.1504523E2,1.7401593E2,3.6231497E2,3.3643627E-1,0E0,1.4712181E0,0E0,4.9447375E2,2.57527E2,3.2712463E1,1.9774374E2,0E0,0E0,0E0,0E0,0E0,0E0,0E0,0E0,0E0,0E0,0E0,0E0,0E0,0E0,0E0,0E0,0E0,0E0,0E0,0E0,0E0,0E0,0E0,0E0],"parents":[2147483647,0,0,1,1,2,2,3,3,4,4,5,5,6,6,7,7,8,8,10,10,11,11,12,12,15,15,16,16,17,17,18,18,21,21,22,22,23,23,24,24,26,26,27,27,29,29,30,30,31,31,32,32,33,33,35,35,37,37,38,38,39,39,40,40],"right_children":[2,4,6,8,10,12,14,16,18,-1,20,22,24,-1,-1,26,28,30,32,-1,-1,34,36,38,40,-1,42,44,-1,46,48,50,52,54,-1,56,-1,58,60,62,64,-1,-1,-1,-1,-1,-1,-1,-1,-1,-1,-1,-1,-1,-1,-1,-1,-1,-1,-1,-1,-1,-1,-1,-1],"split_conditions":[7.4887795E0,7.476931E0,9.316954E1,1.8753773E1,1.9850464E1,1.6249016E1,1.2945531E1,1.8188248E1,7.118897E0,-3.3707944E-1,7.4876404E0,7.105113E1,8.411505E0,-5.905149E-1,-2.631003E0,1.5279978E1,7.255455E0,1.92262E1,4.6036865E1,-2.9940286E0,-6.2105715E-1,2.0312645E1,1.5056036E1,1.109886E2,8.576094E0,-2.6904237E0,8.07896E1,7.005739E1,2.502014E0,1.9090788E1,6.6703076E0,6.107373E1,2.3783356E1,1.9613316E1,-5.044584E-1,1.8940554E1,-2.3886635E0,9.060567E1,2.5215157E1,1.8769241E1,2.9340305E1,8.5113865E-1,-4.0288967E-1,2.527452E-1,-1.9216675E0,3.7286866E-1,3.0100875E0,6.713149E-2,4.1172984E-1,1.6554259E-1,-2.3367796E0,-1.0041833E0,1.4298396E-1,3.3195707E-1,5.0721362E-2,-7.68589E-1,-1.4367428E-1,9.0767074E-1,3.408408E0,-1.058078E0,1.2339542E0,-3.7129098E-1,-2.8145661E0,-4.5406583E-1,1.3871025E0],"split_indices":[2,2,1,0,0,1,0,0,2,0,2,3,2,0,0,1,2,0,3,0,0,0,1,3,2,0,1,3,0,0,2,1,0,0,0,0,0,1,0,1,0,0,0,0,0,0,0,0,0,0,0,0,0,0,0,0,0,0,0,0,0,0,0,0,0],"split_type":[0,0,0,0,0,0,0,0,0,0,0,0,0,0,0,0,0,0,0,0,0,0,0,0,0,0,0,0,0,0,0,0,0,0,0,0,0,0,0,0,0,0,0,0,0,0,0,0,0,0,0,0,0,0,0,0,0,0,0,0,0,0,0,0,0],"sum_hessian":[1.76E3,1.608E3,1.52E2,1.602E3,6E0,1.48E2,4E0,1.18E2,1.484E3,1E0,5E0,1E1,1.38E2,1E0,3E0,8.4E1,3.4E1,1.33E3,1.54E2,4E0,1E0,3E0,7E0,1.09E2,2.9E1,2E0,8.2E1,3.3E1,1E0,2.7E1,1.303E3,1.4E1,1.4E2,2E0,1E0,3E0,4E0,9.2E1,1.7E1,3E0,2.6E1,4E1,4.2E1,7E0,2.6E1,1.9E1,8E0,9.89E2,3.14E2,3E0,1.1E1,3.1E1,1.09E2,1E0,1E0,2E0,1E0,8.5E1,7E0,1.1E1,6E0,1E0,2E0,2E1,6E0],"tree_param":{"num_deleted":"0","num_feature":"5","num_nodes":"65","size_leaf_vector":"0"}},{"base_weights":[2.6051578E-1,3.019914E-1,-1.7352476E0,2.5451848E-1,7.680314E0,-7.5456085E0,7.897222E-1,3.4247226E-1,-7.080218E-1,-2.5410252E0,1.1830944E1,-8.509742E0,1.0478611E0,4.504207E0,-3.919194E0,2.368552E-1,2.143738E0,-5.8483663E0,2.6105858E-2,-6.7668476E0,1.1231982E0,1.3970361E1,3.6084633E0,-3.3312798E-2,-9.4478655E0,1.2320782E0,9.207054E0,-8.124875E0,3.5937343E0,3.0484346E-1,-8.913646E0,1.400572E-1,5.7587724E0,3.7816827E0,-7.2884774E0,5.3842145E-1,-4.1474714E0,2.3315239E-1,1.4516449E0,-8.370209E-2,-1.06079235E1,5.6930304E0,-6.882608E0,8.7634087E-1,-9.535954E0,-5.0814686E0,7.0329022E0,1.776044E-1,1.6218693E0,-1.29727955E1,1.4330645E0,5.2344675E0,-1.9756752E0,-3.3873403E-1,8.678477E0,1.1350627E0,4.5374613E0,-8.214166E0,-2.4578717E0,3.5835338E0,-3.134256E-1,5.1020393E0,-5.2514367E0,-1.1613655E-1,8.039925E0,-7.685251E-1,-8.66446E0,-2.6733418E0,-1.0234166E1,9.622733E0,-3.6829472E-1],"categories":[],"categories_nodes":[],"categories_segments":[],"categories_sizes":[],"default_left":[1,1,1,1,1,1,1,1,1,1,1,1,0,1,1,1,1,1,1,0,1,0,0,0,1,1,0,1,1,1,1,1,1,1,1,1,1,0,0,0,0,1,1,0,1,0,1,0,0,0,0,0,0,0,0,0,0,0,0,0,0,0,0,0,0,0,0,0,0,0,0],"id":15,"left_children":[1,3,5,7,9,11,13,15,17,19,21,23,-1,25,27,29,31,33,35,-1,37,-1,-1,-1,39,41,-1,43,45,47,49,51,53,55,57,59,61,-1,-1,-1,-1,63,65,-1,67,-1,69,-1,-1,-1,-1,-1,-1,-1,-1,-1,-1,-1,-1,-1,-1,-1,-1,-1,-1,-1,-1,-1,-1,-1,-1],"loss_changes":[1.4629181E2,6.026122E2,5.3411444E2,1.4551743E2,4.967378E2,1.0005475E2,4.7242404E2,2.987467E2,5.4356104E2,6.953793E1,9.031885E1,7.920465E1,0E0,2.1948102E2,4.0836243E2,9.278195E2,6.293671E2,2.7719287E2,2.7378305E2,0E0,5.3854346E-1,0E0,0E0,0E0,9.6878845E1,4.0117517E2,0E0,1.099682E2,1.8491487E2,2.4722334E2,4.8057812E2,6.2471094E2,5.548302E2,8.504753E-1,5.135681E1,2.9683575E2,1.69749E2,0E0,0E0,0E0,0E0,9.6368225E1,3.6918716E1,0E0,6.1814575E0,0E0,8.021536E1,0E0,0E0,0E0,0E0,0E0,0E0,0E0,0E0,0E0,0E0,0E0,0E0,0E0,0E0,0E0,0E0,0E0,0E0,0E0,0E0,0E0,0E0,0E0,0E0],"parents":[2147483647,0,0,1,1,2,2,3,3,4,4,5,5,6,6,7,7,8,8,9,9,10,10,11,11,13,13,14,14,15,15,16,16,17,17,18,18,20,20,24,24,25,25,27,27,28,28,29,29,30,30,31,31,32,32,33,33,34,34,35,35,36,36,41,41,42,42,44,44,46,46],"right_children":[2,4,6,8,10,12,14,16,18,20,22,24,-1,26,28,30,32,34,36,-1,38,-1,-1,-1,40,42,-1,44,46,48,50,52,54,56,58,60,62,-1,-1,-1,-1,64,66,-1,68,-1,70,-1,-1,-1,-1,-1,-1,-1,-1,-1,-1,-1,-1,-1,-1,-1,-1,-1,-1,-1,-1,-1,-1,-1,-1],"split_conditions":[3.7527332E1,3.631159E1,3.967812E1,9.3317276E1,6.049489E1,6.976782E0,1.2777761E2,9.2119736E1,9.3563736E1,3.663178E1,1.7241232E2,6.1268044E0,3.1435835E-1,7.686252E1,6.8230395E0,9.196874E1,6.5755863E0,2.195559E1,2.9700478E1,-2.0300543E0,3.686441E1,4.191108E0,1.0825391E0,-9.99384E-3,6.3535812E1,7.411348E1,2.7621164E0,9.059476E1,4.0157036E1,1.8947362E2,3.0013638E1,9.251012E1,1.65E1,2.159768E1,9.3512764E1,1.0275411E2,2.2141088E1,6.994572E-2,4.354935E-1,-2.5110627E-2,-3.182377E0,6.7295616E1,4.0681877E1,2.6290226E-1,6.522149E0,-1.5244406E0,4.2497696E1,5.3281326E-2,4.8656082E-1,-3.8918388E0,4.2991936E-1,1.5703403E0,-5.9270257E-1,-1.0162021E-1,2.6035433E0,3.4051883E-1,1.3612385E0,-2.4642498E0,-7.3736155E-1,1.0750601E0,-9.402768E-2,1.5306119E0,-1.5754311E0,-3.4840968E-2,2.4119775E0,-2.3055755E-1,-2.599338E0,-8.0200255E-1,-3.07025E0,2.88682E0,-1.1048842E-1],"split_indices":[0,0,0,1,1,2,3,1,1,0,3,2,0,3,2,1,2,0,0,0,0,0,0,0,3,3,0,1,0,3,0,1,4,0,1,3,3,0,0,0,0,3,0,0,2,0,0,0,0,0,0,0,0,0,0,0,0,0,0,0,0,0,0,0,0,0,0,0,0,0,0],"split_type":[0,0,0,0,0,0,0,0,0,0,0,0,0,0,0,0,0,0,0,0,0,0,0,0,0,0,0,0,0,0,0,0,0,0,0,0,0,0,0,0,0,0,0,0,0,0,0,0,0,0,0,0,0,0,0,0,0,0,0,0,0,0,0,0,0,0,0,0,0,0,0],"sum_hessian":[1.76E3,1.725E3,3.5E1,1.715E3,1E1,1E1,2.5E1,1.572E3,1.43E2,3E0,7E0,9E0,1E0,1.4E1,1.1E1,1.486E3,8.6E1,1.7E1,1.26E2,1E0,2E0,5E0,2E0,1E0,8E0,9E0,5E0,7E0,4E0,1.476E3,1E1,5.6E1,3E1,2E0,1.5E1,1.13E2,1.3E1,1E0,1E0,1E0,7E0,6E0,3E0,1E0,6E0,1E0,3E0,1.347E3,1.29E2,7E0,3E0,1.6E1,4E1,1E1,2E1,1E0,1E0,1.2E1,3E0,2.4E1,8.9E1,1E0,1.2E1,2E0,4E0,1E0,2E0,1E0,5E0,2E0,1E0],"tree_param":{"num_deleted":"0","num_feature":"5","num_nodes":"71","size_leaf_vector":"0"}},{"base_weights":[1.8281E-1,6.3222E-1,-2.128102E-2,-2.5176227E0,7.6823163E-1,-8.834983E-2,2.2366712E0,-3.3637805E0,8.0489235E0,8.950478E-1,-2.4976504E0,2.4656268E-2,-2.7492154E0,5.236164E0,-5.6480503E-1,-8.80843E0,-1.6645012E0,7.737771E-1,8.392902E0,5.4555793E0,-5.512432E0,-8.8593595E-2,2.9631727E0,3.4856397E-1,-4.9743633E0,7.7356076E-1,8.282631E0,1.072673E1,-1.7880421E0,1.1045992E0,-7.386802E0,4.9126884E-1,2.1737435E0,1.2287667E1,1.4262199E0,-1.3717098E0,7.095379E0,-6.886482E0,2.27926E0,-1.1654906E-2,-2.1079428E0,-2.9386454E0,7.51198E0,9.81962E0,-6.1596984E-1,4.767286E-1,-8.529584E0,-1.7188135E0,5.500456E0,9.752369E0,-2.4725075E0,2.2190878E0,-3.976531E0,-2.3838956E0,4.435294E0,-9.33193E0,-2.331031E0,5.3663526E0,3.8331988E-1,1.7262573E0,7.7033553E0,-9.308103E-1,4.2486553E0,4.3605995E-1,8.651194E0,-9.706315E0,-3.9107966E0,6.509329E0,-3.0904388E0,-1.1882324E-1,4.2178206E0,-5.593618E0,7.1162665E-1,-9.5240235E-1,-1.0148956E1,1.0248762E1,3.3458958E0,-3.5744543E0,4.2685637E0,2.8058712E0,-4.883024E0,-9.216619E0,-2.2512143E0,1.5136333E0,-5.455805E0,1.4444819E1,4.998674E0,5.5331345E0,-4.044019E0,-5.847816E0,1.2279932E0],"categories":[],"categories_nodes":[],"categories_segments":[],"categories_sizes":[],"default_left":[1,1,1,1,1,1,1,1,0,1,1,1,1,1,1,0,1,1,1,1,1,1,1,1,1,1,1,0,1,1,1,1,1,0,1,0,1,1,1,1,1,1,1,0,1,1,1,1,0,1,0,1,1,0,0,0,0,0,0,0,0,0,0,0,0,0,0,0,0,0,0,0,0,0,0,0,0,0,0,0,0,0,0,0,0,0,0,0,0,0,0],"id":16,"left_children":[1,3,5,7,9,11,13,15,-1,17,19,21,23,25,27,-1,29,31,33,35,37,39,41,43,45,47,49,-1,51,53,55,57,59,-1,61,-1,63,65,67,69,71,73,75,-1,77,79,81,83,-1,85,-1,87,89,-1,-1,-1,-1,-1,-1,-1,-1,-1,-1,-1,-1,-1,-1,-1,-1,-1,-1,-1,-1,-1,-1,-1,-1,-1,-1,-1,-1,-1,-1,-1,-1,-1,-1,-1,-1,-1,-1],"loss_changes":[1.6153331E2,2.3756259E2,1.8374066E2,2.32717E2,2.2091544E2,3.542853E2,2.970627E2,1.888819E2,0E0,4.563241E2,5.0961853E2,3.7664413E2,3.3259875E2,2.2471082E2,2.816121E2,0E0,2.9338074E2,1.9747418E2,1.9954382E2,7.6905106E1,1.7628867E2,1.6932445E2,1.1496168E3,1.9788683E2,5.467016E2,1.037038E2,1.8218512E2,0E0,1.6667635E2,1.6162175E2,3.725171E1,2.1844598E2,1.9455374E2,0E0,3.0564953E1,0E0,4.80309E1,7.112268E1,8.825927E1,4.768836E2,3.971047E2,2.6244125E2,2.3934863E2,0E0,3.042741E2,1.6350468E2,5.25802E1,8.073584E1,0E0,1.2855334E2,0E0,1.676697E2,1.2405086E2,0E0,0E0,0E0,0E0,0E0,0E0,0E0,0E0,0E0,0E0,0E0,0E0,0E0,0E0,0E0,0E0,0E0,0E0,0E0,0E0,0E0,0E0,0E0,0E0,0E0,0E0,0E0,0E0,0E0,0E0,0E0,0E0,0E0,0E0,0E0,0E0,0E0,0E0],"parents":[2147483647,0,0,1,1,2,2,3,3,4,4,5,5,6,6,7,7,9,9,10,10,11,11,12,12,13,13,14,14,16,16,17,17,18,18,19,19,20,20,21,21,22,22,23,23,24,24,25,25,26,26,28,28,29,29,30,30,31,31,32,32,34,34,36,36,37,37,38,38,39,39,40,40,41,41,42,42,44,44,45,45,46,46,47,47,49,49,51,51,52,52],"right_children":[2,4,6,8,10,12,14,16,-1,18,20,22,24,26,28,-1,30,32,34,36,38,40,42,44,46,48,50,-1,52,54,56,58,60,-1,62,-1,64,66,68,70,72,74,76,-1,78,80,82,84,-1,86,-1,88,90,-1,-1,-1,-1,-1,-1,-1,-1,-1,-1,-1,-1,-1,-1,-1,-1,-1,-1,-1,-1,-1,-1,-1,-1,-1,-1,-1,-1,-1,-1,-1,-1,-1,-1,-1,-1,-1,-1],"split_conditions":[6.5E0,5.570711E0,9.443424E1,2.9383038E1,3.241196E1,9.329648E1,9.464816E1,9.020703E1,2.4146771E0,3.1525925E1,6.877194E0,9.271415E1,9.450226E1,1.65E1,5.9120836E0,-2.642529E0,9.394468E1,5.5E0,6.728891E1,3.320836E1,6.873198E1,9.181714E1,6.5787544E0,2.53901E1,2.2460873E1,1.1459922E2,7.022564E0,3.2180192E0,2.7572472E1,1.1885948E2,2.8363743E1,5.609029E0,9.818529E1,3.6863003E0,3.1758936E1,-4.1151297E-1,6.549294E0,7.4004073E0,3.337538E1,9.1458435E1,9.2120255E1,6.5172377E0,3.1938534E1,2.9458861E0,2.9133202E1,7.362074E0,2.1063062E2,6.6508665E0,1.6501368E0,3.0243725E1,-7.4175227E-1,2.8262741E1,6.870278E0,-7.151687E-1,1.3305883E0,-2.7995791E0,-6.9930935E-1,1.6099058E0,1.1499597E-1,5.178772E-1,2.3110068E0,-2.7924308E-1,1.2745967E0,1.30818E-1,2.5953581E0,-2.9118946E0,-1.173239E0,1.9527987E0,-9.271317E-1,-3.564697E-2,1.2653463E0,-1.6780854E0,2.13488E-1,-2.857207E-1,-3.044687E0,3.0746288E0,1.0037688E0,-1.0723363E0,1.2805692E0,8.417614E-1,-1.4649073E0,-2.7649856E0,-6.753643E-1,4.5409E-1,-1.6367415E0,4.333446E0,1.4996022E0,1.6599404E0,-1.2132058E0,-1.7543448E0,3.6839798E-1],"split_indices":[4,2,1,0,0,1,1,1,0,0,2,1,3,4,2,0,1,4,1,0,1,1,2,0,0,3,2,0,3,3,0,2,3,0,0,0,2,2,0,1,1,2,0,0,0,2,3,2,0,0,0,0,2,0,0,0,0,0,0,0,0,0,0,0,0,0,0,0,0,0,0,0,0,0,0,0,0,0,0,0,0,0,0,0,0,0,0,0,0,0,0],"split_type":[0,0,0,0,0,0,0,0,0,0,0,0,0,0,0,0,0,0,0,0,0,0,0,0,0,0,0,0,0,0,0,0,0,0,0,0,0,0,0,0,0,0,0,0,0,0,0,0,0,0,0,0,0,0,0,0,0,0,0,0,0,0,0,0,0,0,0,0,0,0,0,0,0,0,0,0,0,0,0,0,0,0,0,0,0,0,0,0,0,0,0],"sum_hessian":[1.76E3,5.49E2,1.211E3,2.2E1,5.27E2,1.177E3,3.4E1,2.1E1,1E0,5.08E2,1.9E1,1.13E3,4.7E1,1.6E1,1.8E1,4E0,1.7E1,5.01E2,7E0,5E0,1.4E1,1.089E3,4.1E1,2E1,2.7E1,7E0,9E0,1E0,1.7E1,1.2E1,5E0,4.18E2,8.3E1,4E0,3E0,1E0,4E0,1.2E1,2E0,1.05E3,3.9E1,1.8E1,2.3E1,1E0,1.9E1,1.1E1,1.6E1,5E0,2E0,8E0,1E0,6E0,1.1E1,6E0,6E0,3E0,2E0,8E0,4.1E2,7.8E1,5E0,2E0,1E0,1E0,3E0,5E0,7E0,1E0,1E0,1.025E3,2.5E1,1.7E1,2.2E1,1.5E1,3E0,1.3E1,1E1,1.2E1,7E0,8E0,3E0,1.4E1,2E0,3E0,2E0,3E0,5E0,4E0,2E0,8E0,3E0],"tree_param":{"num_deleted":"0","num_feature":"5","num_nodes":"91","size_leaf_vector":"0"}},{"base_weights":[1.3524646E-1,2.6445583E-1,-3.9203456E-1,2.202019E-1,5.8928475E0,-4.3247256E0,1.9332233E-1,2.4050233E-1,-9.347035E0,3.1158257E-1,7.098509E0,-7.437999E0,-1.2906952E0,2.0780964E0,-4.3578357E-1,2.102694E-1,6.2397723E0,8.976469E-1,-4.3027306E-1,2.2072315E0,8.180697E0,-9.350449E0,-4.2080145E0,-6.089115E0,6.470623E-1,5.776764E0,3.6401865E-1,6.292598E0,-6.77373E-1,4.914403E-1,-3.5983062E-1,2.3555176E0,7.322371E0,2.351878E0,1.004185E1,-1.128002E1,-2.1889076E0,-5.95778E0,-9.392071E-2,2.1405983E0,-7.8175006E0,4.5206842E0,-1.6664724E0,1.7019438E0,9.09377E0,-1.9642195E0,2.0796785E0,1.4332072E-1,8.31847E0,-3.348526E0,-2.0739725E-1,3.8648215E-1,4.463746E0,-3.9964151E0,-8.899411E-2,3.908634E-2,3.4941902E0,4.4484138E-1,-1.2632209E1,3.3032951E0,-5.1207404E0,-2.4796305E0,-7.9464846E0,3.8485749E0,-5.960704E0,-7.178726E-1,-9.093851E0,2.7556992E0,7.555298E0,1.2965746E0,-6.0740533E0,5.8003874E0,-1.0723267E0,9.6723995E0,1.0751076E0,-6.1581314E-1,-1.0748324E1,5.7039566E0,7.849326E-1,1.1677608E0,-9.5277977E-1,-4.3033075E0,1.6652093E0,2.0474463E0,-7.152174E-1],"categories":[],"categories_nodes":[],"categories_segments":[],"categories_sizes":[],"default_left":[1,1,1,1,1,1,1,1,0,1,1,1,1,1,1,1,1,0,0,0,1,1,1,1,1,1,1,1,1,1,1,1,0,0,0,1,1,1,1,0,1,1,1,1,1,1,1,1,0,1,1,0,0,0,0,0,0,0,0,0,0,0,0,0,0,0,0,0,0,0,0,0,0,0,0,0,0,0,0,0,0,0,0,0,0],"id":17,"left_children":[1,3,5,7,9,11,13,15,-1,17,19,21,23,25,27,29,31,-1,-1,-1,33,35,37,39,41,43,45,47,49,51,53,55,-1,-1,-1,57,59,61,63,-1,65,67,69,71,73,75,77,79,-1,81,83,-1,-1,-1,-1,-1,-1,-1,-1,-1,-1,-1,-1,-1,-1,-1,-1,-1,-1,-1,-1,-1,-1,-1,-1,-1,-1,-1,-1,-1,-1,-1,-1,-1,-1],"loss_changes":[1.2007997E2,3.5114838E2,7.996397E2,2.7512576E2,7.180847E1,4.1545923E2,3.6017947E2,2.5315776E2,0E0,1.6905587E0,2.9582855E1,9.655127E1,2.270962E2,4.7972226E2,3.7487778E2,2.2410968E2,1.2187622E1,0E0,0E0,0E0,5.2321045E1,1.5495227E2,7.1427444E1,1.1630292E2,1.6884526E2,3.0891187E2,2.1579158E2,9.8468994E1,2.767439E2,3.8851733E2,4.5467728E2,7.776394E0,0E0,0E0,0E0,1.6416162E2,8.132419E1,2.8714722E1,1.1545928E2,0E0,4.784146E1,1.667221E1,1.645939E2,1.426622E2,4.9918945E1,2.658055E2,1.4099089E2,4.4812865E0,0E0,1.6513763E2,2.1787975E2,0E0,0E0,0E0,0E0,0E0,0E0,0E0,0E0,0E0,0E0,0E0,0E0,0E0,0E0,0E0,0E0,0E0,0E0,0E0,0E0,0E0,0E0,0E0,0E0,0E0,0E0,0E0,0E0,0E0,0E0,0E0,0E0,0E0,0E0],"parents":[2147483647,0,0,1,1,2,2,3,3,4,4,5,5,6,6,7,7,9,9,10,10,11,11,12,12,13,13,14,14,15,15,16,16,20,20,21,21,22,22,23,23,24,24,25,25,26,26,27,27,28,28,29,29,30,30,31,31,35,35,36,36,37,37,38,38,40,40,41,41,42,42,43,43,44,44,45,45,46,46,47,47,49,49,50,50],"right_children":[2,4,6,8,10,12,14,16,-1,18,20,22,24,26,28,30,32,-1,-1,-1,34,36,38,40,42,44,46,48,50,52,54,56,-1,-1,-1,58,60,62,64,-1,66,68,70,72,74,76,78,80,-1,82,84,-1,-1,-1,-1,-1,-1,-1,-1,-1,-1,-1,-1,-1,-1,-1,-1,-1,-1,-1,-1,-1,-1,-1,-1,-1,-1,-1,-1,-1,-1,-1,-1,-1,-1],"split_conditions":[9.0977516E1,9.090199E1,9.1458435E1,9.088452E1,2.1115204E1,2.559439E1,9.873007E1,9.0802444E1,-2.8041108E0,1.7291332E1,5.728595E0,1.65E1,7.185994E1,2.8043434E1,9.1513405E1,2.7322098E1,1.0190062E2,2.6929408E-1,-1.2908192E-1,6.6216946E-1,2.5969055E1,7.313282E0,9.126735E1,6.1272154E0,1.605729E2,6.5259743E0,2.9114136E1,5.9963517E0,1.05957794E2,2.7083675E1,2.7536392E1,2.515778E1,2.1967113E0,7.055634E-1,3.0125551E0,1.0188666E2,1.7286789E1,2.0157457E1,9.1429E1,6.421795E-1,2.7461224E1,3.9075325E1,3.4325962E1,9.23425E1,9.239865E1,2.9084267E1,2.943417E1,2.445879E1,2.495541E0,7.0726137E0,2.186322E1,1.1594465E-1,1.3391238E0,-1.1989245E0,-2.6698234E-2,1.17259035E-2,1.0482571E0,1.3345242E-1,-3.7896628E0,9.9098855E-1,-1.5362222E0,-7.4388915E-1,-2.3839455E0,1.1545725E0,-1.7882112E0,-2.1536179E-1,-2.7281554E0,8.267098E-1,2.2665894E0,3.889724E-1,-1.822216E0,1.7401162E0,-3.21698E-1,2.90172E0,3.225323E-1,-1.8474394E-1,-3.2244976E0,1.711187E0,2.3547979E-1,3.5032827E-1,-2.8583395E-1,-1.2909923E0,4.995628E-1,6.142339E-1,-2.1456523E-1],"split_indices":[1,1,1,1,0,0,3,1,0,0,2,4,3,0,1,0,3,0,0,0,3,2,1,2,3,2,0,2,3,0,0,0,0,0,0,3,0,0,1,0,0,0,0,1,3,0,0,0,0,2,0,0,0,0,0,0,0,0,0,0,0,0,0,0,0,0,0,0,0,0,0,0,0,0,0,0,0,0,0,0,0,0,0,0,0],"split_type":[0,0,0,0,0,0,0,0,0,0,0,0,0,0,0,0,0,0,0,0,0,0,0,0,0,0,0,0,0,0,0,0,0,0,0,0,0,0,0,0,0,0,0,0,0,0,0,0,0,0,0,0,0,0,0,0,0,0,0,0,0,0,0,0,0,0,0,0,0,0,0,0,0,0,0,0,0,0,0,0,0,0,0,0,0],"sum_hessian":[1.76E3,1.414E3,3.46E2,1.404E3,1E1,4.4E1,3.02E2,1.402E3,2E0,2E0,8E0,2.1E1,2.3E1,7.5E1,2.27E2,1.396E3,6E0,1E0,1E0,2E0,6E0,1.2E1,9E0,6E0,1.7E1,2.3E1,5.2E1,7E0,2.2E2,9.35E2,4.61E2,2E0,4E0,2E0,4E0,9E0,3E0,6E0,3E0,1E0,5E0,6E0,1.1E1,1.1E1,1.2E1,2.2E1,3E1,2E0,5E0,3.2E1,1.88E2,9.12E2,2.3E1,3.1E1,4.3E2,1E0,1E0,1E0,8E0,1E0,2E0,3E0,3E0,2E0,1E0,1E0,4E0,5E0,1E0,7E0,4E0,4E0,7E0,1.1E1,1E0,2E1,2E0,7E0,2.3E1,1E0,1E0,2.7E1,5E0,3.4E1,1.54E2],"tree_param":{"num_deleted":"0","num_feature":"5","num_nodes":"85","size_leaf_vector":"0"}},{"base_weights":[9.5778376E-2,-7.510042E-1,1.6541786E-1,-5.3102328E-3,-5.0011945E0,5.670864E0,1.3814521E-1,-5.2801614E0,4.3841848E-1,6.946928E0,-5.995671E0,1.0285881E1,8.446781E-1,-6.2801747E0,1.5790614E-1,5.2890015E-1,-6.072407E0,1.9244295E0,-1.2941227E0,-3.002294E-2,-6.695746E0,-5.2722187E0,6.6800156E0,-6.9128513E0,-1.8747339E0,2.2423334E0,1.103731E-1,-7.9386044E0,-3.3649673E0,-9.678739E-1,3.147284E0,-7.0001645E0,1.2915884E-1,1.1422338E0,-1.1872683E0,-2.7889588E0,-7.683299E0,-4.5025816E0,3.7414024E0,-2.2510118E0,1.69948E-1,1.0219353E0,-8.187691E0,5.0647354E-1,4.6513486E0,3.5573921E0,-8.568492E0,-8.074722E0,1.4928846E0,-3.4804425E0,-1.1511803E-2,-8.770378E0,-4.1898966E0,6.697565E0,-7.485533E0,1.2027019E0,7.449228E0,7.193272E-1,-4.8312707E0,3.2129428E0,9.5172964E-2],"categories":[],"categories_nodes":[],"categories_segments":[],"categories_sizes":[],"default_left":[1,1,1,1,1,1,1,1,1,0,1,0,1,1,1,0,1,1,1,1,1,0,0,0,0,1,1,0,0,1,1,1,1,0,0,1,1,1,1,1,1,0,0,0,0,0,0,0,0,0,0,0,0,0,0,0,0,0,0,0,0],"id":18,"left_children":[1,3,5,7,9,11,13,15,17,-1,19,-1,21,23,25,-1,27,29,31,33,35,-1,-1,-1,-1,37,39,-1,-1,41,43,45,47,-1,-1,49,51,53,55,57,59,-1,-1,-1,-1,-1,-1,-1,-1,-1,-1,-1,-1,-1,-1,-1,-1,-1,-1,-1,-1],"loss_changes":[1.0396954E2,4.246652E2,2.4365785E2,2.7148428E2,2.79294E2,1.6949518E2,2.065865E2,4.46315E1,2.7797E2,0E0,7.915051E1,0E0,2.136893E2,9.763336E-1,1.5996355E2,0E0,1.3707794E1,2.081844E2,4.0696933E2,5.425904E0,4.416034E1,0E0,0E0,0E0,0E0,3.8084528E2,2.2293716E2,0E0,0E0,2.6695633E2,1.6049417E2,1.9605856E2,4.707563E2,0E0,0E0,9.562733E0,1.2621948E1,2.8400134E2,2.7343256E2,3.0238077E2,3.5101605E2,0E0,0E0,0E0,0E0,0E0,0E0,0E0,0E0,0E0,0E0,0E0,0E0,0E0,0E0,0E0,0E0,0E0,0E0,0E0,0E0],"parents":[2147483647,0,0,1,1,2,2,3,3,4,4,5,5,6,6,7,7,8,8,10,10,12,12,13,13,14,14,16,16,17,17,18,18,19,19,20,20,25,25,26,26,29,29,30,30,31,31,32,32,35,35,36,36,37,37,38,38,39,39,40,40],"right_children":[2,4,6,8,10,12,14,16,18,-1,20,-1,22,24,26,-1,28,30,32,34,36,-1,-1,-1,-1,38,40,-1,-1,42,44,46,48,-1,-1,50,52,54,56,58,60,-1,-1,-1,-1,-1,-1,-1,-1,-1,-1,-1,-1,-1,-1,-1,-1,-1,-1,-1,-1],"split_conditions":[1.8559038E1,1.8292747E1,1.8728062E1,1.6123392E1,1.5679602E1,7.399094E1,1.8753773E1,6.1005116E0,8.07896E1,2.0840786E0,4.9556284E0,3.0857644E0,6.3890123E0,7.180994E1,1.9247814E1,1.5867005E-1,1.7537865E1,1.8737034E1,5.789835E0,1.8373852E1,2.3973309E1,-1.5816656E0,2.0040047E0,-2.0738554E0,-5.624202E-1,1.7196718E1,1.97012E1,-2.3815813E0,-1.0094903E0,1.8280552E1,7.15174E1,1.0483791E1,8.164857E1,3.4267017E-1,-3.561805E-1,1.8444065E1,6.5581913E0,1.5326302E1,1.9078762E1,6.1446366E0,2.0172564E1,3.065806E-1,-2.4563074E0,1.5194207E-1,1.3954046E0,1.0672177E0,-2.5705476E0,-2.4224167E0,4.478654E-1,-1.0441328E0,-3.4535408E-3,-2.6311135E0,-1.256969E0,2.0092697E0,-2.24566E0,3.6081058E-1,2.2347684E0,2.1579817E-1,-1.4493812E0,9.6388286E-1,2.855189E-2],"split_indices":[0,0,0,1,1,3,0,2,1,0,2,0,2,1,0,0,0,1,2,0,1,0,0,0,0,1,0,0,0,1,3,0,1,0,0,0,2,1,0,2,0,0,0,0,0,0,0,0,0,0,0,0,0,0,0,0,0,0,0,0,0],"split_type":[0,0,0,0,0,0,0,0,0,0,0,0,0,0,0,0,0,0,0,0,0,0,0,0,0,0,0,0,0,0,0,0,0,0,0,0,0,0,0,0,0,0,0,0,0,0,0,0,0,0,0,0,0,0,0,0,0,0,0,0,0],"sum_hessian":[1.76E3,1.33E2,1.627E3,1.14E2,1.9E1,7E0,1.62E3,8E0,1.06E2,1E0,1.8E1,3E0,4E0,4E0,1.616E3,1E0,7E0,5.7E1,4.9E1,2E0,1.6E1,2E0,2E0,3E0,1E0,3.5E1,1.581E3,3E0,4E0,1.7E1,4E1,9E0,4E1,1E0,1E0,4E0,1.2E1,6E0,2.9E1,3.8E1,1.543E3,1.4E1,3E0,1.5E1,2.5E1,1E0,8E0,5E0,3.5E1,3E0,1E0,8E0,4E0,1E0,5E0,1.8E1,1.1E1,1.8E1,2E1,3.6E1,1.507E3],"tree_param":{"num_deleted":"0","num_feature":"5","num_nodes":"61","size_leaf_vector":"0"}},{"base_weights":[6.29643E-2,4.4393668E-1,-1.0997116E-1,6.493804E-1,-8.265082E-1,-8.291301E0,-9.6368656E-2,4.9242452E-1,6.177398E0,-7.53121E0,4.050513E-1,4.818182E0,-1.1664735E-1,5.820757E-1,-6.4180784E0,8.18835E0,1.3222061E0,-1.5531315E0,-1.0326108E1,9.376935E0,-2.1834671E-2,6.4226365E0,1.6076666E0,-1.042852E1,-8.229175E-2,4.9904513E-1,5.1797857E0,-9.257617E0,-4.9266753E-1,9.922318E0,3.5403094E0,3.1695988E0,-9.6592206E-1,-4.9871216E0,-1.2532075E1,3.9444E-1,-8.617566E0,-1.3011467E-1,1.7314631E0,4.3597004E-1,7.4229264E0,-3.164894E0,6.824011E0,-1.8479452E0,1.1089439E0,1.0793725E1,2.7826433E0,4.4079795E0,4.6864986E-1,-1.4734039E0,2.4520874E-2,-7.5670013E0,1.3762589E0,8.564285E0,-2.0626258E-2,-4.2765096E-2,-1.9768338E0,5.1120048E0,-3.83435E-1],"categories":[],"categories_nodes":[],"categories_segments":[],"categories_sizes":[],"default_left":[1,1,1,1,1,0,1,1,1,1,1,1,1,1,1,1,1,0,1,0,1,0,0,0,1,1,1,0,1,1,1,0,1,1,0,1,0,1,1,0,0,0,0,0,0,0,0,0,0,0,0,0,0,0,0,0,0,0,0],"id":19,"left_children":[1,3,5,7,9,-1,11,13,15,17,19,21,23,25,27,29,31,-1,33,-1,35,-1,-1,-1,37,39,41,-1,43,45,47,-1,49,51,-1,53,-1,55,57,-1,-1,-1,-1,-1,-1,-1,-1,-1,-1,-1,-1,-1,-1,-1,-1,-1,-1,-1,-1],"loss_changes":[1.1606989E2,1.4408943E2,1.3408028E2,4.082265E2,6.388579E2,0E0,1.212511E2,2.899609E2,1.1609955E2,1.8445966E2,2.5298282E2,1.5430176E1,4.267464E2,1.7187505E2,9.639166E1,3.740796E1,2.4196941E1,0E0,3.1722046E1,0E0,2.3240298E2,0E0,0E0,0E0,1.0465912E2,1.9328989E2,1.3136153E2,0E0,8.561152E0,7.2942505E0,8.594948E0,0E0,1.5440247E0,7.6081184E1,0E0,2.1042035E2,0E0,1.8929355E2,2.2359468E2,0E0,0E0,0E0,0E0,0E0,0E0,0E0,0E0,0E0,0E0,0E0,0E0,0E0,0E0,0E0,0E0,0E0,0E0,0E0,0E0],"parents":[2147483647,0,0,1,1,2,2,3,3,4,4,6,6,7,7,8,8,9,9,10,10,11,11,12,12,13,13,14,14,15,15,16,16,18,18,20,20,24,24,25,25,26,26,28,28,29,29,30,30,32,32,33,33,35,35,37,37,38,38],"right_children":[2,4,6,8,10,-1,12,14,16,18,20,22,24,26,28,30,32,-1,34,-1,36,-1,-1,-1,38,40,42,-1,44,46,48,-1,50,52,-1,54,-1,56,58,-1,-1,-1,-1,-1,-1,-1,-1,-1,-1,-1,-1,-1,-1,-1,-1,-1,-1,-1,-1],"split_conditions":[6.5E0,1.6603207E2,1.8122635E1,1.5783821E2,1.7268845E2,-2.4873903E0,1.8328255E1,1.5510391E2,6.8244467E0,1.6785013E2,1.7471112E2,1.2221713E2,1.8621288E1,9.642375E1,1.5695605E2,1.6427258E2,2.4083073E1,-4.6593946E-1,2.456401E1,2.8130805E0,9.97524E1,1.9267911E0,4.823E-1,-3.1285563E0,9.449042E1,1.5224275E2,1.3917947E2,-2.777285E0,2.7113785E1,2.799651E1,2.709679E1,9.508797E-1,2.5446842E1,2.3441856E1,-3.7596226E0,5.129093E1,-2.58527E0,9.3259384E1,9.463951E1,1.3079102E-1,2.226878E0,-9.4946826E-1,2.0472033E0,-5.543836E-1,3.326832E-1,3.2381177E0,8.3479303E-1,1.3223939E0,1.4059496E-1,-4.420212E-1,7.3562623E-3,-2.2701006E0,4.1287768E-1,2.5692856E0,-6.1878776E-3,-1.2829529E-2,-5.930502E-1,1.5336015E0,-1.15030505E-1],"split_indices":[4,3,1,3,3,0,1,3,2,3,3,3,1,1,3,3,0,0,0,0,1,0,0,0,1,3,3,0,0,0,0,0,0,0,0,1,0,1,1,0,0,0,0,0,0,0,0,0,0,0,0,0,0,0,0,0,0,0,0],"split_type":[0,0,0,0,0,0,0,0,0,0,0,0,0,0,0,0,0,0,0,0,0,0,0,0,0,0,0,0,0,0,0,0,0,0,0,0,0,0,0,0,0,0,0,0,0,0,0,0,0,0,0,0,0,0,0,0,0,0,0],"sum_hessian":[1.76E3,5.49E2,1.211E3,4.73E2,7.6E1,1E0,1.21E3,4.61E2,1.2E1,1.1E1,6.5E1,4E0,1.206E3,4.56E2,5E0,8E0,4E0,4E0,7E0,2E0,6.3E1,2E0,2E0,3E0,1.203E3,4.49E2,7E0,3E0,2E0,5E0,3E0,2E0,2E0,3E0,4E0,6.1E1,2E0,1.173E3,3E1,4.46E2,3E0,1E0,6E0,1E0,1E0,4E0,1E0,2E0,1E0,1E0,1E0,2E0,1E0,2E0,5.9E1,1.121E3,5.2E1,1.1E1,1.9E1],"tree_param":{"num_deleted":"0","num_feature":"5","num_nodes":"59","size_leaf_vector":"0"}},{"base_weights":[4.454252E-2,2.7080283E-1,-1.9067311E-1,-1.0039647E-1,1.5667905E0,-6.978056E0,-5.4380447E-2,2.3765227E-2,-9.622101E0,7.3784466E0,1.2220799E0,-7.9701853E0,4.4480095E0,5.018382E-1,-6.8752015E-1,-5.3404715E-2,6.6188245E0,-1.0113979E1,-2.8435364E0,2.992155E0,1.0534997E1,5.789826E-1,4.2641187E0,-2.6513195E-1,-8.46618E0,-6.359776E-1,1.0578669E0,-5.52668E0,-4.5648754E-1,9.5213935E-2,-3.6733184E0,-3.7202034E0,8.627286E0,5.490781E0,-1.336731E0,-4.2495728E0,9.3394965E-1,-4.3071976E0,6.3283815E0,-2.8089457E0,-9.64641E0,1.1169813E0,-1.6153922E0,6.68298E-1,4.032888E0,-3.8706937E0,-9.0581045E0,-2.761395E0,7.288315E-2,-2.3030998E-2,6.462652E0,-7.412146E0,3.278896E-1,3.649625E0,-6.410464E0,-1.850503E0,1.4348105E0,6.758518E0,-7.277903E0,7.4471645E0,1.1714464E0,1.4158821E0,-4.6891823E0,-2.012546E0,2.2626295E0,-1.3281817E0,-1.007619E1,-2.031762E0,1.0142711E0,5.4369464E0,-2.3600512E0,-6.4372764E0,-2.9064903E0,-1.0013899E1,-2.617464E0,-7.4136534E0,-1.8771943E0,7.0395837E0,-1.11296676E-1],"categories":[],"categories_nodes":[],"categories_segments":[],"categories_sizes":[],"default_left":[1,1,1,1,1,1,1,1,1,1,1,1,0,1,1,1,1,0,0,1,0,1,1,0,1,1,1,1,1,1,1,0,0,0,0,1,1,1,1,1,0,1,1,1,1,1,1,1,1,0,0,0,0,0,0,0,0,0,0,0,0,0,0,0,0,0,0,0,0,0,0,0,0,0,0,0,0,0,0],"id":20,"left_children":[1,3,5,7,9,11,13,15,17,19,21,23,-1,25,27,29,31,-1,-1,33,-1,35,37,-1,39,41,43,45,47,49,51,-1,-1,-1,-1,53,55,57,59,61,-1,63,65,67,69,71,73,75,77,-1,-1,-1,-1,-1,-1,-1,-1,-1,-1,-1,-1,-1,-1,-1,-1,-1,-1,-1,-1,-1,-1,-1,-1,-1,-1,-1,-1,-1,-1],"loss_changes":[9.377199E1,4.3215787E2,7.988814E2,8.2660815E2,3.9165088E2,2.2816583E2,2.9898022E2,3.5203125E2,1.2485352E0,1.2077869E2,3.6923325E2,5.8901978E1,0E0,2.8663428E2,4.4132465E2,3.6833264E2,1.9821954E2,0E0,0E0,7.223729E1,0E0,2.747774E2,6.111414E2,0E0,7.3056274E1,2.5761856E2,3.4963348E2,7.02027E1,4.6385843E2,4.9556845E2,4.0634573E2,0E0,0E0,0E0,0E0,2.1115817E2,2.0905937E2,2.792987E2,1.4705237E2,3.8414036E1,0E0,1.981619E2,2.1989983E2,2.5428079E2,3.2699353E2,1.593602E1,4.5686035E0,2.781438E2,3.9855243E2,0E0,0E0,0E0,0E0,0E0,0E0,0E0,0E0,0E0,0E0,0E0,0E0,0E0,0E0,0E0,0E0,0E0,0E0,0E0,0E0,0E0,0E0,0E0,0E0,0E0,0E0,0E0,0E0,0E0,0E0],"parents":[2147483647,0,0,1,1,2,2,3,3,4,4,5,5,6,6,7,7,8,8,9,9,10,10,11,11,13,13,14,14,15,15,16,16,19,19,21,21,22,22,24,24,25,25,26,26,27,27,28,28,29,29,30,30,35,35,36,36,37,37,38,38,39,39,41,41,42,42,43,43,44,44,45,45,46,46,47,47,48,48],"right_children":[2,4,6,8,10,12,14,16,18,20,22,24,-1,26,28,30,32,-1,-1,34,-1,36,38,-1,40,42,44,46,48,50,52,-1,-1,-1,-1,54,56,58,60,62,-1,64,66,68,70,72,74,76,78,-1,-1,-1,-1,-1,-1,-1,-1,-1,-1,-1,-1,-1,-1,-1,-1,-1,-1,-1,-1,-1,-1,-1,-1,-1,-1,-1,-1,-1,-1],"split_conditions":[9.531467E1,7.696002E1,9.6425934E1,7.613622E1,7.8590454E1,1.5E1,8.414411E1,7.534924E1,2.5302174E1,6.0661583E1,8.150499E1,4.925155E0,1.3344029E0,5.3604176E1,8.529634E1,7.410572E1,1.6207952E1,-3.034194E0,-8.5306096E-1,7.8114944E1,3.1604993E0,2E0,2.346978E1,-7.953959E-2,9.570957E1,5.662263E0,2.8065643E1,8.495641E1,1.0594676E2,7.357236E1,7.462452E1,-1.1160611E0,2.5881858E0,1.6472343E0,-4.010193E-1,5.817157E0,8.117624E1,2.202715E1,6.9200516E0,4.8881683E1,-2.893923E0,1.956924E1,5.2991035E1,5.7020936E0,3.440497E1,2.2343838E1,8.513869E1,1.9780788E1,1.0627404E2,-6.9092996E-3,1.9387957E0,-2.223644E0,9.836688E-2,1.0948876E0,-1.9231392E0,-5.551509E-1,4.3044317E-1,2.0275555E0,-2.183371E0,2.2341495E0,3.5143393E-1,4.2476466E-1,-1.4067547E0,-6.037638E-1,6.787889E-1,-3.9845455E-1,-3.0228572E0,-6.095286E-1,3.0428135E-1,1.631084E0,-7.080154E-1,-1.931183E0,-8.719471E-1,-3.0041697E0,-7.852393E-1,-2.224096E0,-5.6315833E-1,2.1118753E0,-3.3389006E-2],"split_indices":[3,3,3,3,3,4,1,3,0,1,1,2,0,1,1,3,1,0,0,3,0,4,0,0,3,2,0,1,3,3,3,0,0,0,0,2,3,0,2,1,0,0,1,2,0,0,1,0,3,0,0,0,0,0,0,0,0,0,0,0,0,0,0,0,0,0,0,0,0,0,0,0,0,0,0,0,0,0,0],"split_type":[0,0,0,0,0,0,0,0,0,0,0,0,0,0,0,0,0,0,0,0,0,0,0,0,0,0,0,0,0,0,0,0,0,0,0,0,0,0,0,0,0,0,0,0,0,0,0,0,0,0,0,0,0,0,0,0,0,0,0,0,0,0,0,0,0,0,0,0,0,0,0,0,0,0,0,0,0,0,0],"sum_hessian":[1.76E3,8.97E2,8.63E2,6.98E2,1.99E2,1.6E1,8.47E2,6.9E2,8E0,1E1,1.89E2,1.5E1,1E0,4.51E2,3.96E2,6.83E2,7E0,7E0,1E0,5E0,5E0,1.57E2,3.2E1,1E0,1.4E1,1.48E2,3.03E2,1.7E1,3.79E2,6.57E2,2.6E1,1E0,6E0,3E0,2E0,1E1,1.47E2,6E0,2.6E1,3E0,1.1E1,5.3E1,9.5E1,2.69E2,3.4E1,1.3E1,4E0,7E1,3.09E2,6.46E2,1.1E1,1.3E1,1.3E1,2E0,8E0,2.2E1,1.25E2,1E0,5E0,2.1E1,5E0,1E0,2E0,1.4E1,3.9E1,9.3E1,2E0,3E1,2.39E2,2.8E1,6E0,2E0,1.1E1,3E0,1E0,1E1,6E1,7E0,3.02E2],"tree_param":{"num_deleted":"0","num_feature":"5","num_nodes":"79","size_leaf_vector":"0"}},{"base_weights":[2.5855513E-2,-1.0949831E-3,2.2589488E0,2.6477613E-2,-3.175547E0,4.96506E0,5.512458E-1,8.158803E-3,3.961712E0,1.1897417E0,-5.477165E0,-1.6453896E0,6.144466E0,-2.6268678E0,4.104626E0,2.5686959E-2,-6.009136E0,7.527426E0,3.167984E-1,4.4272404E0,-3.5235035E0,-7.139369E0,-3.1791344E0,7.750206E-1,6.9102035E0,-4.699376E0,6.2048435E-1,6.668631E0,-1.5369238E0,-6.588742E-1,1.2522575E-1,-6.7619267E0,-1.4989872E0,-1.1066551E0,3.0053062E0,-3.3511734E-1,6.1263986E0,-5.2950287E-1,-4.7557526E0,2.1167247E0,-1.9341183E0,-1.1943549E0,1.6134815E0,4.870882E0,8.365295E-2,2.5041656E0,6.709213E-1],"categories":[],"categories_nodes":[],"categories_segments":[],"categories_sizes":[],"default_left":[1,1,1,1,1,1,1,1,1,1,1,0,1,1,1,1,1,0,1,1,1,0,0,0,0,0,1,0,0,1,1,0,0,0,0,0,0,0,0,1,0,0,0,0,0,0,0],"id":21,"left_children":[1,3,5,7,9,11,13,15,17,19,21,-1,23,25,27,29,31,-1,33,35,37,-1,-1,-1,-1,-1,39,-1,-1,41,43,-1,-1,-1,-1,-1,-1,-1,-1,45,-1,-1,-1,-1,-1,-1,-1],"loss_changes":[1.0598469E2,1.5247011E2,9.430896E1,1.2446504E2,1.5722484E2,7.248125E1,1.6888496E2,1.8156635E2,1.0158907E2,1.0715415E2,1.5500946E1,0E0,2.3425568E1,5.6757195E1,1.1150391E2,1.1701144E2,6.8399506E0,0E0,2.2460669E1,3.442106E1,8.549877E0,0E0,0E0,0E0,0E0,0E0,1.9383194E1,0E0,0E0,2.6719E2,2.953306E2,0E0,0E0,0E0,0E0,0E0,0E0,0E0,0E0,3.9196014E-4,0E0,0E0,0E0,0E0,0E0,0E0,0E0],"parents":[2147483647,0,0,1,1,2,2,3,3,4,4,5,5,6,6,7,7,8,8,9,9,10,10,12,12,13,13,14,14,15,15,16,16,18,18,19,19,20,20,26,26,29,29,30,30,39,39],"right_children":[2,4,6,8,10,12,14,16,18,20,22,-1,24,26,28,30,32,-1,34,36,38,-1,-1,-1,-1,-1,40,-1,-1,42,44,-1,-1,-1,-1,-1,-1,-1,-1,46,-1,-1,-1,-1,-1,-1,-1],"split_conditions":[2.6428955E2,2.46012E2,8.254687E1,2.4084048E2,8.183603E1,8.103209E1,2.3513102E1,2.35055E2,2.4259055E2,7.5656533E0,6.465766E0,-4.9361688E-1,2.6629553E2,6.2320805E0,2.9345404E2,5.6916766E0,9.334444E1,2.2582278E0,3.0852861E1,2.3810116E1,2.2602905E1,-2.141811E0,-9.5374036E-1,2.3250619E-1,2.0730612E0,-1.4098129E0,7.1743226E0,2.0005894E0,-4.6107715E-1,3.1274616E1,5.7065706E0,-2.028578E0,-4.4969618E-1,-3.3199656E-1,9.015919E-1,-1.0053521E-1,1.8379196E0,-1.5885086E-1,-1.4267259E0,2.1101166E1,-5.802355E-1,-3.5830647E-1,4.8404446E-1,1.4612646E0,2.5095886E-2,7.5124973E-1,2.012764E-1],"split_indices":[3,3,1,3,1,1,0,3,3,2,2,0,3,2,3,2,1,0,0,0,0,0,0,0,0,0,2,0,0,0,2,0,0,0,0,0,0,0,0,0,0,0,0,0,0,0,0],"split_type":[0,0,0,0,0,0,0,0,0,0,0,0,0,0,0,0,0,0,0,0,0,0,0,0,0,0,0,0,0,0,0,0,0,0,0,0,0,0,0,0,0,0,0,0,0,0,0],"sum_hessian":[1.76E3,1.74E3,2E1,1.726E3,1.4E1,7E0,1.3E1,1.719E3,7E0,5E0,9E0,1E0,6E0,7E0,6E0,1.715E3,4E0,3E0,4E0,3E0,2E0,4E0,5E0,1E0,5E0,4E0,3E0,4E0,2E0,2.17E2,1.498E3,3E0,1E0,3E0,1E0,1E0,2E0,1E0,1E0,2E0,1E0,1.76E2,4.1E1,1.2E1,1.486E3,1E0,1E0],"tree_param":{"num_deleted":"0","num_feature":"5","num_nodes":"47","size_leaf_vector":"0"}},{"base_weights":[1.8856287E-2,2.4489723E-1,-2.2424647E-1,7.900521E-2,2.3051877E0,-1.9923005E0,-4.7837142E-2,3.4778747E-1,-9.46176E-1,-1.8249233E-1,3.9478672E0,-1.3298103E0,-9.610133E0,2.7691882E0,-2.3402086E-1,2.7205798E-1,7.492405E0,-2.9370797E0,1.8978865E-1,-2.81229E0,4.832372E0,-4.970266E0,4.53265E0,1.2426224E0,-2.9950542E0,-3.4234111E0,3.4099567E0,-4.601448E0,-1.7278196E-1,-4.803995E0,3.4117886E-1,-1.982193E0,9.40187E0,-8.642405E-1,-6.3558016E0,7.855693E0,-1.6359949E-1,6.1770756E-2,-6.771845E0,1.3183014E0,6.9553695E0,9.564005E0,2.9257195E0,3.111801E0,-1.1217693E1,-6.6779075E0,-1.7154531E0,-5.8813157E0,1.7563057E-1,5.396257E0,-6.2182706E-2,-6.3939323E0,1.7123266E0,-3.0990677E0,-8.003617E-2,2.5454655E0,-8.902969E0,4.805259E0,2.7176222E-1,-1.4972991E0,7.653601E0,-9.724987E0,-2.756876E0,2.161008E0,8.739112E0,-1.0579089E0,1.2336639E0,1.945064E0,-6.2364635E0,-9.659601E0,1.2609495E0,4.360891E0,-2.1637218E0,8.510542E0,2.5633495E0,2.0184822E0,1.0254885E1,-1.6662432E0,5.534611E0,-4.4253054E0,4.683334E0,3.4934597E0,-8.044391E0,7.890134E0,-2.8995466E0,-3.9532185E-1,6.587677E-1,1.9298027E0,7.8754854E0,4.9907227E0,-3.2720149E0,-7.6440263E0,-1.7624334E0,2.2956343E0,2.7285576E-1,-3.2081974E-1,-7.9208994E0,2.3607013E0,-2.9314268E-1],"categories":[],"categories_nodes":[],"categories_segments":[],"categories_sizes":[],"default_left":[1,1,1,1,1,1,1,1,1,1,1,1,0,1,1,1,1,1,1,1,1,0,1,1,1,1,1,1,1,1,1,0,0,1,1,1,1,1,1,1,1,1,1,1,0,1,1,0,1,1,1,1,1,1,1,0,0,0,0,0,0,0,0,0,0,0,0,0,0,0,0,0,0,0,0,0,0,0,0,0,0,0,0,0,0,0,0,0,0,0,0,0,0,0,0,0,0,0,0],"id":22,"left_children":[1,3,5,7,9,11,13,15,17,19,21,23,-1,25,27,29,31,33,35,37,39,-1,41,43,45,47,49,51,53,55,57,-1,-1,59,61,63,65,67,69,71,73,75,77,79,-1,81,83,-1,85,87,89,91,93,95,97,-1,-1,-1,-1,-1,-1,-1,-1,-1,-1,-1,-1,-1,-1,-1,-1,-1,-1,-1,-1,-1,-1,-1,-1,-1,-1,-1,-1,-1,-1,-1,-1,-1,-1,-1,-1,-1,-1,-1,-1,-1,-1,-1,-1],"loss_changes":[9.6823944E1,3.1186826E2,2.647088E2,2.3344481E2,2.785998E2,3.7581927E2,4.060744E2,3.610117E2,3.985984E2,3.8285623E2,2.3635046E2,3.1215018E2,0E0,2.0213873E2,1.9337833E2,2.3496176E2,1.4527621E2,4.4804047E2,3.0740668E2,2.166383E2,6.543436E1,0E0,2.8733484E2,7.103334E2,1.9589807E2,4.5263447E1,3.0379086E2,1.2412193E2,1.9434625E2,2.9378946E2,2.0228622E2,0E0,0E0,2.3254373E2,2.6420013E2,6.2686768E0,1.3750995E2,1.5446738E2,1.9775427E2,6.2407593E1,1.9166595E1,2.62182E1,3.8059995E2,3.286903E2,0E0,1.8099173E2,4.0959082E2,0E0,1.0879703E0,2.254375E2,2.9205234E2,3.2846405E1,1.8925858E0,2.921762E2,3.6270734E2,0E0,0E0,0E0,0E0,0E0,0E0,0E0,0E0,0E0,0E0,0E0,0E0,0E0,0E0,0E0,0E0,0E0,0E0,0E0,0E0,0E0,0E0,0E0,0E0,0E0,0E0,0E0,0E0,0E0,0E0,0E0,0E0,0E0,0E0,0E0,0E0,0E0,0E0,0E0,0E0,0E0,0E0,0E0,0E0],"parents":[2147483647,0,0,1,1,2,2,3,3,4,4,5,5,6,6,7,7,8,8,9,9,10,10,11,11,13,13,14,14,15,15,16,16,17,17,18,18,19,19,20,20,22,22,23,23,24,24,25,25,26,26,27,27,28,28,29,29,30,30,33,33,34,34,35,35,36,36,37,37,38,38,39,39,40,40,41,41,42,42,43,43,45,45,46,46,48,48,49,49,50,50,51,51,52,52,53,53,54,54],"right_children":[2,4,6,8,10,12,14,16,18,20,22,24,-1,26,28,30,32,34,36,38,40,-1,42,44,46,48,50,52,54,56,58,-1,-1,60,62,64,66,68,70,72,74,76,78,80,-1,82,84,-1,86,88,90,92,94,96,98,-1,-1,-1,-1,-1,-1,-1,-1,-1,-1,-1,-1,-1,-1,-1,-1,-1,-1,-1,-1,-1,-1,-1,-1,-1,-1,-1,-1,-1,-1,-1,-1,-1,-1,-1,-1,-1,-1,-1,-1,-1,-1,-1,-1],"split_conditions":[2.5743874E1,2.5371586E1,2.6269007E1,9.0250694E1,7.5E0,2.6239326E1,2.655507E1,9.0126274E1,9.165044E1,1.7869452E2,5.817791E0,7.5E0,-2.88304E0,5.559498E0,2.6592457E1,3.825891E1,1.014085E1,1.1126076E2,1.01202484E2,2.5584286E1,6.1851807E1,-1.4910798E0,2.5445366E1,1.8299829E2,6.7162E1,7.960834E1,1.7673462E2,8.696391E1,4.6945734E0,3.539296E1,4.1493526E1,-5.946579E-1,2.820561E0,7.809332E0,2.3011272E1,6.0753427E0,1.1470361E2,8.403791E1,7.2066073E0,5.738536E1,9.727074E1,5.34375E1,2.5603392E1,5.771922E0,-3.365308E0,4.0650764E1,7.0469315E1,-1.7643948E0,2.645351E1,7.178422E1,6.3180532E0,7.0971603E0,2.6575943E1,5.292303E1,5.561224E0,7.636397E-1,-2.6708908E0,1.4415778E0,8.152867E-2,-4.4918975E-1,2.2960804E0,-2.9174962E0,-8.2706285E-1,6.483024E-1,2.6217337E0,-3.1737268E-1,3.700992E-1,5.835192E-1,-1.8709391E0,-2.8978806E0,3.7828487E-1,1.3082674E0,-6.491166E-1,2.5531626E0,7.690049E-1,6.055447E-1,3.0764656E0,-4.9987298E-1,1.6603835E0,-1.3275917E0,1.4050002E0,1.048038E0,-2.4133172E0,2.3670402E0,-8.6986405E-1,-1.1859656E-1,1.9763032E-1,5.789408E-1,2.3626456E0,1.4972168E0,-9.816045E-1,-2.293208E0,-5.2873003E-1,6.886903E-1,8.185673E-2,-9.624592E-2,-2.3762698E0,7.082104E-1,-8.794281E-2],"split_indices":[0,0,0,1,4,0,0,1,1,3,